{"learner":{"attributes":{"best_iteration":"99","best_score":"0.110715466841226"},"feature_names":[],"feature_types":[],"gradient_booster":{"model":{"gbtree_model_param":{"num_parallel_tree":"1","num_trees":"110"},"iteration_indptr":[0,1,2,3,4,5,6,7,8,9,10,11,12,13,14,15,16,17,18,19,20,21,22,23,24,25,26,27,28,29,30,31,32,33,34,35,36,37,38,39,40,41,42,43,44,45,46,47,48,49,50,51,52,53,54,55,56,57,58,59,60,61,62,63,64,65,66,67,68,69,70,71,72,73,74,75,76,77,78,79,80,81,82,83,84,85,86,87,88,89,90,91,92,93,94,95,96,97,98,99,100,101,102,103,104,105,106,107,108,109,110],"tree_info":[0,0,0,0,0,0,0,0,0,0,0,0,0,0,0,0,0,0,0,0,0,0,0,0,0,0,0,0,0,0,0,0,0,0,0,0,0,0,0,0,0,0,0,0,0,0,0,0,0,0,0,0,0,0,0,0,0,0,0,0,0,0,0,0,0,0,0,0,0,0,0,0,0,0,0,0,0,0,0,0,0,0,0,0,0,0,0,0,0,0,0,0,0,0,0,0,0,0,0,0,0,0,0,0,0,0,0,0,0,0],"trees":[{"base_weights":[3.6559287E-1,-0E0,3.860963E-1,6.909626E-3,-4.3900978E-2,2.9575658E-1,4.3445256E-1,-5.5164197E-3,-0E0,2.9915383E-1,-0E0,4.360256E-1,-0E0,-0E0,1.5093259E-2,-0E0,2.189889E-2],"categories":[],"categories_nodes":[],"categories_segments":[],"categories_sizes":[],"default_left":[0,0,0,0,0,0,0,0,0,0,0,0,0,0,0,0,0],"id":0,"left_children":[1,3,5,-1,7,9,11,-1,-1,13,-1,15,-1,-1,-1,-1,-1],"loss_changes":[2.7165527E0,1.3850087E-1,8.0174255E-1,0E0,4.7767133E-2,1.2654972E-1,8.869934E-2,0E0,0E0,6.281948E-2,0E0,3.4038544E-2,0E0,0E0,0E0,0E0,0E0],"parents":[2147483647,0,0,1,1,2,2,4,4,5,5,6,6,9,9,11,11],"right_children":[2,4,6,-1,8,10,12,-1,-1,14,-1,16,-1,-1,-1,-1,-1],"split_conditions":[8.166567E-2,1.864881E-1,2.8070223E-1,6.909626E-3,2.1781202E-2,8.785396E-1,8.336144E-1,-5.5164197E-3,-0E0,2.9616833E-3,-0E0,1.0338664E-1,-0E0,-0E0,1.5093259E-2,-0E0,2.189889E-2],"split_indices":[173,74,173,0,173,19,15,0,0,109,0,171,0,0,0,0,0],"split_type":[0,0,0,0,0,0,0,0,0,0,0,0,0,0,0,0,0],"sum_hessian":[3.6531436E2,1.9649532E1,3.4566483E2,4.6363726E0,1.5013161E1,1.2876486E2,2.1689996E2,5.459657E0,9.553504E0,1.2724842E2,1.516441E0,2.1579718E2,1.1027899E0,1.6041222E0,1.256443E2,1.7509513E0,2.1404622E2],"tree_param":{"num_deleted":"0","num_feature":"174","num_nodes":"17","size_leaf_vector":"1"}},{"base_weights":[3.6388987E-1,2.1513343E-1,4.175069E-1,-0E0,2.5061226E-1,-0E0,4.203768E-1,3.6133904E-2,-3.6226477E-2,2.551491E-1,-0E0,-0E0,4.2160645E-1,-0E0,4.0950887E-3,-3.1719455E-3,-0E0,1.288741E-2,-0E0,-0E0,2.1166936E-2],"categories":[],"categories_nodes":[],"categories_segments":[],"categories_sizes":[],"default_left":[0,0,0,0,0,0,0,0,0,0,0,0,0,0,0,0,0,0,0,0,0],"id":1,"left_children":[1,3,5,7,9,-1,11,13,15,17,-1,-1,19,-1,-1,-1,-1,-1,-1,-1,-1],"loss_changes":[2.0951424E0,7.604284E-1,2.0541382E-1,1.9638905E-2,9.251928E-2,0E0,5.0682068E-2,2.1519186E-2,1.4760554E-2,3.9223194E-2,0E0,0E0,5.1631927E-2,0E0,0E0,0E0,0E0,0E0,0E0,0E0,0E0],"parents":[2147483647,0,0,1,1,2,2,3,3,4,4,6,6,7,7,8,8,9,9,12,12],"right_children":[2,4,6,8,10,-1,12,14,16,18,-1,-1,20,-1,-1,-1,-1,-1,-1,-1,-1],"split_conditions":[2.358108E-1,8.166567E-2,8.166567E-2,2.2077517E-1,7.8104746E-1,-0E0,2.9616833E-3,2.0089889E-1,6.718927E-2,4.7714537E-1,-0E0,-0E0,2.9616833E-3,-0E0,4.0950887E-3,-3.1719455E-3,-0E0,1.288741E-2,-0E0,-0E0,2.1166936E-2],"split_indices":[172,173,173,111,17,0,103,9,172,134,0,0,49,0,0,0,0,0,0,0,0],"split_type":[0,0,0,0,0,0,0,0,0,0,0,0,0,0,0,0,0,0,0,0,0],"sum_hessian":[3.364017E2,9.440768E1,2.4199403E2,1.2993848E1,8.1413826E1,2.144123E0,2.3984991E2,4.7302027E0,8.263646E0,7.9930214E1,1.4836105E0,1.1177269E0,2.387322E2,1.4068115E0,3.323391E0,5.6884847E0,2.5751612E0,7.889668E1,1.0335305E0,1.6698213E0,2.3706236E2],"tree_param":{"num_deleted":"0","num_feature":"174","num_nodes":"21","size_leaf_vector":"1"}},{"base_weights":[3.5803717E-1,-7.426222E-3,3.78868E-1,-1.2832794E-1,4.7688093E-2,2.6291248E-1,4.2501494E-1,-7.154615E-3,-0E0,9.095209E-2,-0E0,-0E0,2.6736686E-1,4.263253E-1,-0E0,-0E0,5.105864E-3,1.3572427E-2,-0E0,2.1373888E-2,-0E0],"categories":[],"categories_nodes":[],"categories_segments":[],"categories_sizes":[],"default_left":[0,0,0,0,0,0,0,0,0,0,0,0,0,0,0,0,0,0,0,0,0],"id":2,"left_children":[1,3,5,7,9,11,13,-1,-1,15,-1,-1,17,19,-1,-1,-1,-1,-1,-1,-1],"loss_changes":[2.8460045E0,1.8353805E-1,1.0421677E0,1.0528147E-2,3.131155E-2,1.2987757E-1,5.3524017E-2,0E0,0E0,2.060596E-3,0E0,0E0,1.041069E-1,1.6929626E-2,0E0,0E0,0E0,0E0,0E0,0E0,0E0],"parents":[2147483647,0,0,1,1,2,2,3,3,4,4,5,5,6,6,9,9,12,12,13,13],"right_children":[2,4,6,8,10,12,14,-1,-1,16,-1,-1,18,20,-1,-1,-1,-1,-1,-1,-1],"split_conditions":[8.166567E-2,1.2170422E-1,2.651069E-1,5.897119E-2,3.7417793E-1,7.458369E-2,8.59204E-1,-7.154615E-3,-0E0,1.7879792E-1,-0E0,-0E0,7.3798406E-1,7.3260033E-1,-0E0,-0E0,5.105864E-3,1.3572427E-2,-0E0,2.1373888E-2,-0E0],"split_indices":[173,170,170,173,98,68,56,0,0,122,0,0,54,32,0,0,0,0,0,0,0],"split_type":[0,0,0,0,0,0,0,0,0,0,0,0,0,0,0,0,0,0,0,0,0],"sum_hessian":[3.3343646E2,1.5944233E1,3.1749222E2,9.121566E0,6.822667E0,9.7224655E1,2.2026756E2,7.654807E0,1.4667588E0,4.935665E0,1.887002E0,1.4287586E0,9.579589E1,2.1920401E2,1.0635539E0,1.0294117E0,3.9062533E0,9.4319664E1,1.4762311E0,2.181109E2,1.0931094E0],"tree_param":{"num_deleted":"0","num_feature":"174","num_nodes":"21","size_leaf_vector":"1"}},{"base_weights":[3.4657395E-1,-0E0,3.66379E-1,-4.181181E-3,2.2281172E-2,2.7613002E-1,4.1456482E-1,6.457541E-2,-0E0,2.8169334E-1,-0E0,4.180961E-1,-0E0,-0E0,4.255815E-3,1.42318625E-2,-0E0,2.1022158E-2,-0E0],"categories":[],"categories_nodes":[],"categories_segments":[],"categories_sizes":[],"default_left":[0,0,0,0,0,0,0,0,0,0,0,0,0,0,0,0,0,0,0],"id":3,"left_children":[1,3,5,-1,7,9,11,13,-1,15,-1,17,-1,-1,-1,-1,-1,-1,-1],"loss_changes":[2.3807335E0,5.5752117E-2,6.900101E-1,0E0,2.4915596E-2,8.230305E-2,1.08047485E-1,1.1890586E-2,0E0,7.1302414E-2,0E0,1.0834885E-1,0E0,0E0,0E0,0E0,0E0,0E0,0E0],"parents":[2147483647,0,0,1,1,2,2,4,4,5,5,6,6,7,7,9,9,11,11],"right_children":[2,4,6,-1,8,10,12,14,-1,16,-1,18,-1,-1,-1,-1,-1,-1,-1],"split_conditions":[8.166567E-2,6.100049E-2,2.7795163E-1,-4.181181E-3,2.309016E-1,7.3260033E-1,7.8104746E-1,2.6768464E-1,-0E0,2.7429506E-1,-0E0,7.8736115E-1,-0E0,-0E0,4.255815E-3,1.42318625E-2,-0E0,2.1022158E-2,-0E0],"split_indices":[173,170,173,0,168,27,8,102,0,173,0,6,0,0,0,0,0,0,0],"split_type":[0,0,0,0,0,0,0,0,0,0,0,0,0,0,0,0,0,0,0],"sum_hessian":[3.279176E2,1.6863195E1,3.110544E2,6.140424E0,1.0722771E1,1.1639218E2,1.9466222E2,6.370621E0,4.35215E0,1.1283827E2,3.5539045E0,1.9198914E2,2.6730895E0,1.4869453E0,4.883676E0,1.11375755E2,1.462518E0,1.9045337E2,1.535754E0],"tree_param":{"num_deleted":"0","num_feature":"174","num_nodes":"19","size_leaf_vector":"1"}},{"base_weights":[3.4335962E-1,1.9934233E-1,4.0530533E-1,-6.959937E-3,2.3806192E-1,4.0784207E-1,-0E0,-5.853192E-2,-0E0,2.4276888E-1,-0E0,-0E0,4.1019684E-1,-6.0626394E-3,-0E0,1.2375089E-2,-0E0,-0E0,2.0571211E-2],"categories":[],"categories_nodes":[],"categories_segments":[],"categories_sizes":[],"default_left":[0,0,0,0,0,0,0,0,0,0,0,0,0,0,0,0,0,0,0],"id":4,"left_children":[1,3,5,7,9,11,-1,13,-1,15,-1,-1,17,-1,-1,-1,-1,-1,-1],"loss_changes":[2.2878342E0,1.001411E0,2.1229172E-1,3.8570695E-2,1.1991644E-1,6.103897E-2,0E0,7.090648E-2,0E0,8.482981E-2,0E0,0E0,4.403305E-2,0E0,0E0,0E0,0E0,0E0,0E0],"parents":[2147483647,0,0,1,1,2,2,3,3,4,4,5,5,7,7,9,9,12,12],"right_children":[2,4,6,8,10,12,-1,14,-1,16,-1,-1,18,-1,-1,-1,-1,-1,-1],"split_conditions":[2.4896453E-1,7.458369E-2,7.391461E-1,2.827012E-1,7.0241696E-1,1.0338664E-1,-0E0,5.8121566E-2,-0E0,8.204954E-1,-0E0,-0E0,4.829385E-3,-6.0626394E-3,-0E0,1.2375089E-2,-0E0,-0E0,2.0571211E-2],"split_indices":[173,170,36,147,87,171,0,173,0,19,0,0,108,0,0,0,0,0,0],"split_type":[0,0,0,0,0,0,0,0,0,0,0,0,0,0,0,0,0,0,0],"sum_hessian":[3.1872464E2,1.0101285E2,2.1771179E2,1.2827166E1,8.8185684E1,2.1627582E2,1.4359758E0,1.0453781E1,2.3733842E0,8.6795494E1,1.390192E0,2.1246758E0,2.1415114E2,6.49185E0,3.9619312E0,8.485463E1,1.9408638E0,1.0216503E0,2.1312949E2],"tree_param":{"num_deleted":"0","num_feature":"174","num_nodes":"19","size_leaf_vector":"1"}},{"base_weights":[3.3146185E-1,4.2561643E-2,3.625879E-1,-7.5054035E-2,1.3098808E-1,2.895358E-1,4.268406E-1,-6.0565285E-3,-0E0,-0E0,1.7613944E-1,2.937296E-1,-0E0,-0E0,4.3016824E-1,9.861028E-3,-0E0,1.48078045E-2,-0E0,-0E0,2.1604588E-2],"categories":[],"categories_nodes":[],"categories_segments":[],"categories_sizes":[],"default_left":[0,0,0,0,0,0,0,0,0,0,0,0,0,0,0,0,0,0,0,0,0],"id":5,"left_children":[1,3,5,7,9,11,13,-1,-1,-1,15,17,-1,-1,19,-1,-1,-1,-1,-1,-1],"loss_changes":[2.3867645E0,3.9904377E-1,5.7562256E-1,6.196539E-2,1.2855247E-1,1.6706085E-1,1.168766E-1,0E0,0E0,0E0,5.9080303E-2,6.509304E-2,0E0,0E0,3.6014557E-2,0E0,0E0,0E0,0E0,0E0,0E0],"parents":[2147483647,0,0,1,1,2,2,3,3,4,4,5,5,6,6,10,10,11,11,14,14],"right_children":[2,4,6,8,10,12,14,-1,-1,-1,16,18,-1,-1,20,-1,-1,-1,-1,-1,-1],"split_conditions":[1.420369E-1,7.022931E-2,3.1789663E-1,5.897119E-2,1.9787012E-1,7.3798406E-1,4.829385E-3,-6.0565285E-3,-0E0,-0E0,4.6268222E-1,7.2048724E-1,-0E0,-0E0,1.3095753E-1,9.861028E-3,-0E0,1.48078045E-2,-0E0,-0E0,2.1604588E-2],"split_indices":[172,168,167,172,162,54,45,0,0,0,145,48,0,0,171,0,0,0,0,0,0],"split_type":[0,0,0,0,0,0,0,0,0,0,0,0,0,0,0,0,0,0,0,0,0],"sum_hessian":[3.021827E2,3.21206E1,2.700621E2,9.967296E0,2.2153305E1,1.3478047E2,1.3528162E2,7.433762E0,2.5335333E0,6.2052865E0,1.5948019E1,1.3286719E2,1.9132851E0,1.4686872E0,1.3381293E2,1.4037413E1,1.910607E0,1.314247E2,1.4424853E0,1.0047038E0,1.3280823E2],"tree_param":{"num_deleted":"0","num_feature":"174","num_nodes":"21","size_leaf_vector":"1"}},{"base_weights":[3.3064187E-1,1.7849852E-1,3.9709792E-1,-2.9807998E-2,2.1987869E-1,8.843637E-2,4.0627792E-1,-0E0,-4.770297E-3,2.2468942E-1,-0E0,-0E0,6.010048E-3,4.084202E-1,-0E0,-0E0,1.1377533E-2,2.0478627E-2,-0E0],"categories":[],"categories_nodes":[],"categories_segments":[],"categories_sizes":[],"default_left":[0,0,0,0,0,0,0,0,0,0,0,0,0,0,0,0,0,0,0],"id":6,"left_children":[1,3,5,7,9,11,13,-1,-1,15,-1,-1,-1,17,-1,-1,-1,-1,-1],"loss_changes":[2.5218964E0,9.971421E-1,1.5114594E-1,8.648865E-2,8.565903E-2,3.865303E-2,1.0758591E-1,0E0,0E0,3.334427E-2,0E0,0E0,0E0,1.5808105E-2,0E0,0E0,0E0,0E0,0E0],"parents":[2147483647,0,0,1,1,2,2,3,3,4,4,5,5,6,6,9,9,13,13],"right_children":[2,4,6,8,10,12,14,-1,-1,16,-1,-1,-1,18,-1,-1,-1,-1,-1],"split_conditions":[2.4896453E-1,6.270806E-2,1.8650329E-1,2.0705877E-1,8.204954E-1,1.6707213E-1,7.8104746E-1,-0E0,-4.770297E-3,1.04962975E-1,-0E0,-0E0,6.010048E-3,8.785396E-1,-0E0,-0E0,1.1377533E-2,2.0478627E-2,-0E0],"split_indices":[173,173,171,111,19,66,7,0,0,7,0,0,0,9,0,0,0,0,0],"split_type":[0,0,0,0,0,0,0,0,0,0,0,0,0,0,0,0,0,0,0],"sum_hessian":[3.009782E2,9.628011E1,2.0469809E2,1.2798678E1,8.348144E1,8.736261E0,1.9596184E2,2.9498718E0,9.848806E0,8.159929E1,1.8821503E0,1.7906568E0,6.945605E0,1.9454594E2,1.4158857E0,1.4201941E0,8.017909E1,1.935414E2,1.0045456E0],"tree_param":{"num_deleted":"0","num_feature":"174","num_nodes":"19","size_leaf_vector":"1"}},{"base_weights":[3.2172444E-1,1.6385707E-1,3.8417235E-1,-3.5039905E-2,1.9377495E-1,-0E0,3.8802367E-1,-4.328992E-3,-0E0,2.0284966E-1,-0E0,3.9016593E-1,-0E0,1.0500846E-2,-0E0,-0E0,1.9760309E-2],"categories":[],"categories_nodes":[],"categories_segments":[],"categories_sizes":[],"default_left":[0,0,0,0,0,0,0,0,0,0,0,0,0,0,0,0,0],"id":7,"left_children":[1,3,5,7,9,-1,11,-1,-1,13,-1,15,-1,-1,-1,-1,-1],"loss_changes":[2.2898426E0,6.4330745E-1,3.1410027E-1,4.407017E-2,1.2797761E-1,0E0,1.1260986E-1,0E0,0E0,7.409525E-2,0E0,8.422279E-2,0E0,0E0,0E0,0E0,0E0],"parents":[2147483647,0,0,1,1,2,2,3,3,4,4,6,6,9,9,11,11],"right_children":[2,4,6,8,10,-1,12,-1,-1,14,-1,16,-1,-1,-1,-1,-1],"split_conditions":[2.4896453E-1,4.3801375E-2,1.0338664E-1,3.5354114E-1,5.166041E-1,-0E0,7.8736115E-1,-4.328992E-3,-0E0,4.301987E-1,-0E0,1.2170422E-1,-0E0,1.0500846E-2,-0E0,-0E0,1.9760309E-2],"split_indices":[173,173,171,90,67,0,6,0,0,156,0,169,0,0,0,0,0],"split_type":[0,0,0,0,0,0,0,0,0,0,0,0,0,0,0,0,0],"sum_hessian":[2.82128E2,8.462693E1,1.9750105E2,7.546433E0,7.70805E1,1.8346878E0,1.9566637E2,6.2789392E0,1.267494E0,7.336091E1,3.7195923E0,1.9425238E2,1.4139826E0,7.005196E1,3.308942E0,4.4092717E0,1.8984311E2],"tree_param":{"num_deleted":"0","num_feature":"174","num_nodes":"17","size_leaf_vector":"1"}},{"base_weights":[3.1514096E-1,-0E0,3.4358123E-1,-5.4038722E-2,7.4995846E-2,2.1350068E-1,3.8357738E-1,-0E0,-5.0684344E-3,8.058523E-3,-0E0,-0E0,2.2125158E-1,-0E0,3.8719398E-1,-0E0,1.1414294E-2,1.9589258E-2,-0E0],"categories":[],"categories_nodes":[],"categories_segments":[],"categories_sizes":[],"default_left":[0,0,0,0,0,0,0,0,0,0,0,0,0,0,0,0,0,0,0],"id":8,"left_children":[1,3,5,7,9,11,13,-1,-1,-1,-1,-1,15,-1,17,-1,-1,-1,-1],"loss_changes":[2.5645828E0,9.644292E-2,7.777691E-1,6.6082746E-2,8.9364365E-2,7.05843E-2,2.4527931E-1,0E0,0E0,0E0,0E0,0E0,5.9175014E-2,0E0,1.68993E-1,0E0,0E0,0E0,0E0],"parents":[2147483647,0,0,1,1,2,2,3,3,4,4,5,5,6,6,12,12,14,14],"right_children":[2,4,6,8,10,12,14,-1,-1,-1,-1,-1,16,-1,18,-1,-1,-1,-1],"split_conditions":[1.2170422E-1,2.827012E-1,2.4822803E-1,6.666667E-1,2.8379908E-1,7.243832E-2,6.48304E-2,-0E0,-5.0684344E-3,8.058523E-3,-0E0,-0E0,1.6980268E-1,-0E0,6.702674E-1,-0E0,1.1414294E-2,1.9589258E-2,-0E0],"split_indices":[173,147,173,0,119,107,170,0,0,0,0,0,23,0,28,0,0,0,0],"split_type":[0,0,0,0,0,0,0,0,0,0,0,0,0,0,0,0,0,0,0],"sum_hessian":[2.7870865E2,2.2664871E1,2.560438E2,1.4635574E1,8.029298E0,6.6406845E1,1.8963695E2,4.761136E0,9.874438E0,4.395326E0,3.6339717E0,3.1981773E0,6.3208664E1,1.9086213E0,1.8772832E2,2.7605433E0,6.044812E1,1.8443198E2,3.2963514E0],"tree_param":{"num_deleted":"0","num_feature":"174","num_nodes":"19","size_leaf_vector":"1"}},{"base_weights":[3.0331773E-1,-0E0,3.278663E-1,5.195265E-2,-4.5125347E-2,2.3438129E-1,3.945963E-1,7.7920184E-3,-0E0,-3.5877952E-3,-0E0,2.400034E-1,-0E0,-0E0,3.9758107E-1,1.2155893E-2,-0E0,2.0017965E-2,-0E0],"categories":[],"categories_nodes":[],"categories_segments":[],"categories_sizes":[],"default_left":[0,0,0,0,0,0,0,0,0,0,0,0,0,0,0,0,0,0,0],"id":9,"left_children":[1,3,5,7,9,11,13,-1,-1,-1,-1,15,-1,-1,17,-1,-1,-1,-1],"loss_changes":[2.0833054E0,5.1464587E-2,9.937382E-1,1.2143892E-1,2.545544E-2,1.2449932E-1,1.0120392E-1,0E0,0E0,0E0,0E0,5.528164E-2,0E0,0E0,9.300804E-2,0E0,0E0,0E0,0E0],"parents":[2147483647,0,0,1,1,2,2,3,3,4,4,5,5,6,6,11,11,14,14],"right_children":[2,4,6,8,10,12,14,-1,-1,-1,-1,16,-1,-1,18,-1,-1,-1,-1],"split_conditions":[9.1540396E-2,3.0697688E-1,2.8744048E-1,2.9001725E-1,3.6253393E-1,7.5072205E-1,6.718927E-2,7.7920184E-3,-0E0,-3.5877952E-3,-0E0,7.8104746E-1,-0E0,-0E0,7.025619E-1,1.2155893E-2,-0E0,2.0017965E-2,-0E0],"split_indices":[173,44,167,52,99,17,170,0,0,0,0,19,0,0,10,0,0,0,0],"split_type":[0,0,0,0,0,0,0,0,0,0,0,0,0,0,0,0,0,0,0],"sum_hessian":[2.7404962E2,2.0265726E1,2.537839E2,8.241304E0,1.2024421E1,1.1257445E2,1.4120946E2,5.0273647E0,3.2139392E0,9.094764E0,2.9296575E0,1.0947716E2,3.0972915E0,1.4869902E0,1.3972246E2,1.0760006E2,1.8770967E0,1.3835648E2,1.3659889E0],"tree_param":{"num_deleted":"0","num_feature":"174","num_nodes":"19","size_leaf_vector":"1"}},{"base_weights":[3.0037174E-1,-1.5555453E-3,3.243895E-1,1.5823025E-3,-6.0200687E-2,1.7544703E-1,3.638725E-1,-4.4912742E-3,-0E0,-0E0,1.903518E-1,-0E0,3.665141E-1,9.81022E-3,-0E0,1.8430978E-2,-0E0],"categories":[],"categories_nodes":[],"categories_segments":[],"categories_sizes":[],"default_left":[0,0,0,0,0,0,0,0,0,0,0,0,0,0,0,0,0],"id":10,"left_children":[1,3,5,-1,7,9,11,-1,-1,-1,13,-1,15,-1,-1,-1,-1],"loss_changes":[2.257347E0,6.145024E-2,1.020483E0,0E0,3.8851906E-2,1.3813591E-1,1.493187E-1,0E0,0E0,0E0,5.7838798E-2,0E0,6.0697556E-2,0E0,0E0,0E0,0E0],"parents":[2147483647,0,0,1,1,2,2,4,4,5,5,6,6,10,10,12,12],"right_children":[2,4,6,-1,8,10,12,-1,-1,-1,14,-1,16,-1,-1,-1,-1],"split_conditions":[8.166567E-2,1.7328492E-1,2.2147739E-1,1.5823025E-3,6.718927E-2,1.856468E-1,8.166567E-2,-4.4912742E-3,-0E0,-0E0,6.13067E-1,-0E0,6.915016E-1,9.81022E-3,-0E0,1.8430978E-2,-0E0],"split_indices":[173,78,171,0,173,21,169,0,0,0,88,0,28,0,0,0,0],"split_type":[0,0,0,0,0,0,0,0,0,0,0,0,0,0,0,0,0],"sum_hessian":[2.7460422E2,1.7849152E1,2.5675507E2,2.9806738E0,1.4868479E1,5.9187294E1,1.9756778E2,1.0942719E1,3.9257596E0,5.2441063E0,5.3943188E1,1.7404001E0,1.9582738E2,5.221671E1,1.7264781E0,1.9403203E2,1.7953585E0],"tree_param":{"num_deleted":"0","num_feature":"174","num_nodes":"17","size_leaf_vector":"1"}},{"base_weights":[2.9202825E-1,1.2829018E-1,3.5362205E-1,2.6910838E-3,2.0718417E-1,-0E0,3.5562608E-1,1.20430164E-1,-1.663299E-2,-0E0,2.2043481E-1,3.5755756E-1,-0E0,6.8687946E-3,-0E0,-3.6560546E-3,-0E0,1.18083535E-2,-0E0,-0E0,1.8101012E-2],"categories":[],"categories_nodes":[],"categories_segments":[],"categories_sizes":[],"default_left":[0,0,0,0,0,0,0,0,0,0,0,0,0,0,0,0,0,0,0,0,0],"id":11,"left_children":[1,3,5,7,9,-1,11,13,15,-1,17,19,-1,-1,-1,-1,-1,-1,-1,-1,-1],"loss_changes":[2.2200413E0,5.9423614E-1,9.445953E-2,1.6380915E-1,1.05251074E-1,0E0,7.834053E-2,2.3805901E-2,5.604521E-2,0E0,1.1986506E-1,6.437111E-2,0E0,0E0,0E0,0E0,0E0,0E0,0E0,0E0,0E0],"parents":[2147483647,0,0,1,1,2,2,3,3,4,4,6,6,7,7,8,8,10,10,11,11],"right_children":[2,4,6,8,10,-1,12,14,16,-1,18,20,-1,-1,-1,-1,-1,-1,-1,-1,-1],"split_conditions":[2.304408E-1,1.9787012E-1,2.9616833E-3,2.1511036E-1,6.48304E-2,-0E0,8.785396E-1,4.4293764E-1,8.166567E-2,-0E0,5.366376E-1,1.14833295E-1,-0E0,6.8687946E-3,-0E0,-3.6560546E-3,-0E0,1.18083535E-2,-0E0,-0E0,1.8101012E-2],"split_indices":[171,166,107,110,172,0,7,63,173,0,37,173,0,0,0,0,0,0,0,0,0],"split_type":[0,0,0,0,0,0,0,0,0,0,0,0,0,0,0,0,0,0,0,0,0],"sum_hessian":[2.6185287E2,7.596972E1,1.8588316E2,3.36204E1,4.234932E1,1.3534058E0,1.8452975E2,9.839092E0,2.3781307E1,2.8889058E0,3.9460415E1,1.8314346E2,1.3862894E0,8.591382E0,1.2477106E0,1.0764489E1,1.3016818E1,3.639851E1,3.061904E0,4.0207415E0,1.7912273E2],"tree_param":{"num_deleted":"0","num_feature":"174","num_nodes":"21","size_leaf_vector":"1"}},{"base_weights":[2.8296795E-1,1.06893405E-1,3.471193E-1,-5.1500318E-3,1.5241365E-1,-0E0,3.559792E-1,1.5956199E-1,-0E0,3.5957274E-1,-0E0,-0E0,8.659683E-3,1.8062543E-2,-0E0],"categories":[],"categories_nodes":[],"categories_segments":[],"categories_sizes":[],"default_left":[0,0,0,0,0,0,0,0,0,0,0,0,0,0,0],"id":12,"left_children":[1,3,5,-1,7,-1,9,11,-1,13,-1,-1,-1,-1,-1],"loss_changes":[2.4389095E0,7.421933E-1,5.2911186E-1,0E0,8.568525E-2,0E0,6.1056137E-2,7.709181E-2,0E0,3.6725998E-2,0E0,0E0,0E0,0E0,0E0],"parents":[2147483647,0,0,1,1,2,2,4,4,6,6,7,7,9,9],"right_children":[2,4,6,-1,8,-1,10,12,-1,14,-1,-1,-1,-1,-1],"split_conditions":[2.2147739E-1,5.8121566E-2,1.1671422E-1,-5.1500318E-3,6.915016E-1,-0E0,6.702674E-1,1.856468E-1,-0E0,7.8104746E-1,-0E0,-0E0,8.659683E-3,1.8062543E-2,-0E0],"split_indices":[171,173,173,0,17,0,24,21,0,19,0,0,0,0,0],"split_type":[0,0,0,0,0,0,0,0,0,0,0,0,0,0,0],"sum_hessian":[2.5036089E2,7.090007E1,1.7946082E2,9.278684E0,6.1621384E1,4.695734E0,1.7476509E2,5.950171E1,2.1196747E0,1.717417E2,3.0233922E0,6.579035E0,5.2922672E1,1.70422E2,1.3196967E0],"tree_param":{"num_deleted":"0","num_feature":"174","num_nodes":"15","size_leaf_vector":"1"}},{"base_weights":[2.8253362E-1,1.3261805E-1,3.4370014E-1,-0E0,1.6655484E-1,3.463219E-1,-0E0,-4.6398314E-3,6.9415494E-4,1.7619906E-1,-0E0,3.532705E-1,6.0070277E-4,-1.8995329E-3,-0E0,9.097197E-3,-0E0,1.7776035E-2,-0E0],"categories":[],"categories_nodes":[],"categories_segments":[],"categories_sizes":[],"default_left":[0,0,0,0,0,0,0,0,0,0,0,0,0,0,0,0,0,0,0],"id":13,"left_children":[1,3,5,7,9,11,-1,13,-1,15,-1,17,-1,-1,-1,-1,-1,-1,-1],"loss_changes":[1.7810345E0,3.3732486E-1,1.571579E-1,1.1760906E-3,1.0765946E-1,8.7675095E-2,0E0,1.5767122E-2,0E0,7.499039E-2,0E0,8.73642E-2,0E0,0E0,0E0,0E0,0E0,0E0,0E0],"parents":[2147483647,0,0,1,1,2,2,3,3,4,4,5,5,7,7,9,9,11,11],"right_children":[2,4,6,8,10,12,-1,14,-1,16,-1,18,-1,-1,-1,-1,-1,-1,-1],"split_conditions":[2.358108E-1,1.055844E-1,7.8104746E-1,2.5206432E-1,4.440948E-1,6.702674E-1,-0E0,3.7536055E-1,6.9415494E-4,8.204954E-1,-0E0,6.702674E-1,6.0070277E-4,-1.8995329E-3,-0E0,9.097197E-3,-0E0,1.7776035E-2,-0E0],"split_indices":[172,170,20,147,104,28,0,92,0,19,0,24,0,0,0,0,0,0,0],"split_type":[0,0,0,0,0,0,0,0,0,0,0,0,0,0,0,0,0,0,0],"sum_hessian":[2.3975394E2,7.4182976E1,1.6557097E2,1.5356795E1,5.882618E1,1.6436882E2,1.2021383E0,1.1670028E1,3.6867683E0,5.592399E1,2.9021926E0,1.5862213E2,5.7466917E0,1.0113417E1,1.5566111E0,5.4651325E1,1.272664E0,1.5729915E2,1.3229783E0],"tree_param":{"num_deleted":"0","num_feature":"174","num_nodes":"19","size_leaf_vector":"1"}},{"base_weights":[2.7987054E-1,-2.9282613E-2,3.0591527E-1,-0E0,-7.1637556E-2,2.1248351E-1,3.729175E-1,-4.292548E-3,-0E0,-0E0,2.1566787E-1,3.7576708E-1,-0E0,-0E0,1.0918959E-2,1.8971732E-2,-0E0],"categories":[],"categories_nodes":[],"categories_segments":[],"categories_sizes":[],"default_left":[0,0,0,0,0,0,0,0,0,0,0,0,0,0,0,0,0],"id":14,"left_children":[1,3,5,-1,7,9,11,-1,-1,-1,13,15,-1,-1,-1,-1,-1],"loss_changes":[2.107872E0,5.989872E-2,8.143101E-1,0E0,1.5130699E-2,7.652712E-2,1.01875305E-1,0E0,0E0,0E0,5.4299355E-2,8.95462E-2,0E0,0E0,0E0,0E0,0E0],"parents":[2147483647,0,0,1,1,2,2,4,4,5,5,6,6,10,10,11,11],"right_children":[2,4,6,-1,8,10,12,-1,-1,-1,14,16,-1,-1,-1,-1,-1],"split_conditions":[9.1540396E-2,1.655056E-1,3.0003154E-1,-0E0,6.718927E-2,2.9616833E-3,7.2048724E-1,-4.292548E-3,-0E0,-0E0,7.022931E-2,6.5782225E-1,-0E0,-0E0,1.0918959E-2,1.8971732E-2,-0E0],"split_indices":[173,107,173,0,173,109,113,0,0,0,172,50,0,0,0,0,0],"split_type":[0,0,0,0,0,0,0,0,0,0,0,0,0,0,0,0,0],"sum_hessian":[2.321908E2,1.5644819E1,2.1654599E2,2.1919641E0,1.3452855E1,9.7164894E1,1.1938109E2,1.1116305E1,2.3365495E0,1.2321361E0,9.5932755E1,1.18283714E2,1.0973766E0,1.25339E0,9.467937E1,1.16610886E2,1.6728278E0],"tree_param":{"num_deleted":"0","num_feature":"174","num_nodes":"17","size_leaf_vector":"1"}},{"base_weights":[2.63062E-1,1.03483915E-1,3.2598823E-1,-1.3928358E-2,1.5297247E-1,1.9773643E-1,3.612746E-1,-5.0558504E-2,-0E0,-0E0,1.5876283E-1,2.073738E-1,-0E0,-0E0,3.6594588E-1,-3.2856266E-3,-0E0,-0E0,8.264828E-3,1.0831159E-2,-0E0,1.8448759E-2,-0E0],"categories":[],"categories_nodes":[],"categories_segments":[],"categories_sizes":[],"default_left":[0,0,0,0,0,0,0,0,0,0,0,0,0,0,0,0,0,0,0,0,0,0,0],"id":15,"left_children":[1,3,5,7,9,11,13,15,-1,-1,17,19,-1,-1,21,-1,-1,-1,-1,-1,-1,-1,-1],"loss_changes":[1.9882584E0,5.298877E-1,2.2758102E-1,3.5821196E-2,7.192874E-2,1.16163015E-1,1.4463234E-1,2.0715866E-2,0E0,0E0,6.9693804E-2,8.34347E-2,0E0,0E0,5.7813644E-2,0E0,0E0,0E0,0E0,0E0,0E0,0E0,0E0],"parents":[2147483647,0,0,1,1,2,2,3,3,4,4,5,5,6,6,7,7,10,10,11,11,14,14],"right_children":[2,4,6,8,10,12,14,16,-1,-1,18,20,-1,-1,22,-1,-1,-1,-1,-1,-1,-1,-1],"split_conditions":[2.309016E-1,1.2170422E-1,2.6541147E-1,4.4147444E-1,1.1671422E-1,4.637899E-1,1.7034674E-1,5.2628595E-1,-0E0,-0E0,6.405668E-2,6.5976536E-1,-0E0,-0E0,7.673321E-1,-3.2856266E-3,-0E0,-0E0,8.264828E-3,1.0831159E-2,-0E0,1.8448759E-2,-0E0],"split_indices":[170,173,173,140,33,166,172,9,0,0,23,61,0,0,14,0,0,0,0,0,0,0,0],"split_type":[0,0,0,0,0,0,0,0,0,0,0,0,0,0,0,0,0,0,0,0,0,0,0],"sum_hessian":[2.345759E2,7.0683525E1,1.6389236E2,1.6378504E1,5.4305023E1,4.1679512E1,1.2221286E2,1.4332597E1,2.0459063E0,1.1068982E0,5.3198128E1,4.050599E1,1.1735226E0,2.045513E0,1.2016734E2,1.2873687E1,1.45891E0,1.6491797E0,5.1548946E1,3.8815235E1,1.6907527E0,1.1861061E2,1.5567367E0],"tree_param":{"num_deleted":"0","num_feature":"174","num_nodes":"23","size_leaf_vector":"1"}},{"base_weights":[2.6116168E-1,1.299289E-1,3.228168E-1,-0E0,1.6256575E-1,2.337046E-1,3.804027E-1,1.131731E-3,-2.8939858E-2,1.6865046E-1,-0E0,2.3818298E-1,-0E0,-0E0,3.922936E-1,-3.0249327E-3,-0E0,-0E0,9.01229E-3,-0E0,1.2324597E-2,1.98684E-2,-0E0],"categories":[],"categories_nodes":[],"categories_segments":[],"categories_sizes":[],"default_left":[0,0,0,0,0,0,0,0,0,0,0,0,0,0,0,0,0,0,0,0,0,0,0],"id":16,"left_children":[1,3,5,7,9,11,13,-1,15,17,-1,19,-1,-1,21,-1,-1,-1,-1,-1,-1,-1,-1],"loss_changes":[1.392952E0,3.6713135E-1,1.7051506E-1,1.1991391E-2,8.09046E-2,7.2261095E-2,2.9434204E-1,0E0,2.2611618E-2,8.6598635E-2,0E0,3.645587E-2,0E0,0E0,7.491875E-2,0E0,0E0,0E0,0E0,0E0,0E0,0E0,0E0],"parents":[2147483647,0,0,1,1,2,2,3,3,4,4,5,5,6,6,8,8,9,9,11,11,14,14],"right_children":[2,4,6,8,10,12,14,-1,16,18,-1,20,-1,-1,22,-1,-1,-1,-1,-1,-1,-1,-1],"split_conditions":[2.4822803E-1,8.166567E-2,3.3219332E-1,2.7150378E-1,7.0241696E-1,6.0358447E-1,1.7607373E-1,1.131731E-3,3.4965393E-1,1.4167501E-1,-0E0,1.3699009E-1,-0E0,-0E0,4.8811996E-1,-3.0249327E-3,-0E0,-0E0,9.01229E-3,-0E0,1.2324597E-2,1.98684E-2,-0E0],"split_indices":[173,173,167,44,37,49,171,0,55,26,0,170,0,0,9,0,0,0,0,0,0,0,0],"split_type":[0,0,0,0,0,0,0,0,0,0,0,0,0,0,0,0,0,0,0,0,0,0,0],"sum_hessian":[2.211053E2,7.581529E1,1.4529001E2,1.3855023E1,6.196027E1,6.447221E1,8.0817795E1,2.9590328E0,1.0895991E1,6.0343605E1,1.6166644E0,6.3307056E1,1.1651613E0,2.9721966E0,7.78456E1,7.899977E0,2.9960134E0,4.9731765E0,5.5370426E1,3.662344E0,5.964471E1,7.63192E1,1.5263933E0],"tree_param":{"num_deleted":"0","num_feature":"174","num_nodes":"23","size_leaf_vector":"1"}},{"base_weights":[2.4820791E-1,-4.9538636E-3,2.762998E-1,3.7703782E-2,-6.494654E-2,1.6670652E-1,3.3378378E-1,-0E0,3.7914682E-3,-0E0,-9.053398E-2,1.7510131E-1,-0E0,-0E0,3.3748636E-1,-4.844736E-3,-0E0,-0E0,9.724108E-3,-0E0,1.7111147E-2],"categories":[],"categories_nodes":[],"categories_segments":[],"categories_sizes":[],"default_left":[0,0,0,0,0,0,0,0,0,0,0,0,0,0,0,0,0,0,0,0,0],"id":17,"left_children":[1,3,5,7,9,11,13,-1,-1,-1,15,17,-1,-1,19,-1,-1,-1,-1,-1,-1],"loss_changes":[1.8343773E0,7.755714E-2,8.504648E-1,1.3700504E-2,5.395993E-2,1.02084875E-1,2.0016003E-1,0E0,0E0,0E0,4.973218E-3,1.058414E-1,0E0,0E0,1.910038E-1,0E0,0E0,0E0,0E0,0E0,0E0],"parents":[2147483647,0,0,1,1,2,2,3,3,4,4,5,5,6,6,10,10,11,11,14,14],"right_children":[2,4,6,8,10,12,14,-1,-1,-1,16,18,-1,-1,20,-1,-1,-1,-1,-1,-1],"split_conditions":[8.166567E-2,1.9836226E-1,2.6871398E-1,2.1669404E-1,2.2386025E-1,5.859363E-1,2.9616833E-3,-0E0,3.7914682E-3,-0E0,7.313722E-1,1.4710869E-1,-0E0,-0E0,4.829385E-3,-4.844736E-3,-0E0,-0E0,9.724108E-3,-0E0,1.7111147E-2],"split_indices":[173,92,172,13,34,68,49,0,0,0,36,163,0,0,108,0,0,0,0,0,0],"split_type":[0,0,0,0,0,0,0,0,0,0,0,0,0,0,0,0,0,0,0,0,0],"sum_hessian":[2.2621866E2,1.9832804E1,2.0638585E2,4.0147157E0,1.5818088E1,7.713839E1,1.2924747E2,1.3922865E0,2.622429E0,1.5797493E0,1.4238338E1,7.315521E1,3.9831746E0,1.0848427E0,1.2816261E2,1.2833043E1,1.4052947E0,1.124492E1,6.1910294E1,1.9197624E0,1.2624286E2],"tree_param":{"num_deleted":"0","num_feature":"174","num_nodes":"21","size_leaf_vector":"1"}},{"base_weights":[2.4834718E-1,2.2287168E-2,2.8777006E-1,-2.4394207E-2,8.506478E-2,2.0628014E-1,3.4938914E-1,-6.216765E-2,-0E0,1.00112624E-1,-0E0,2.1070662E-1,-0E0,3.5633972E-1,-0E0,-3.3370187E-3,-0E0,5.748242E-3,-0E0,-0E0,1.09910285E-2,-0E0,1.798047E-2],"categories":[],"categories_nodes":[],"categories_segments":[],"categories_sizes":[],"default_left":[0,0,0,0,0,0,0,0,0,0,0,0,0,0,0,0,0,0,0,0,0,0,0],"id":18,"left_children":[1,3,5,7,9,11,13,15,-1,17,-1,19,-1,21,-1,-1,-1,-1,-1,-1,-1,-1,-1],"loss_changes":[1.7368021E0,1.598526E-1,4.2318916E-1,3.964916E-2,4.6870038E-2,6.176877E-2,1.5738297E-1,1.3002269E-3,0E0,4.24833E-2,0E0,5.4023504E-2,0E0,6.771088E-2,0E0,0E0,0E0,0E0,0E0,0E0,0E0,0E0,0E0],"parents":[2147483647,0,0,1,1,2,2,3,3,4,4,5,5,6,6,7,7,9,9,11,11,13,13],"right_children":[2,4,6,8,10,12,14,16,-1,18,-1,20,-1,22,-1,-1,-1,-1,-1,-1,-1,-1,-1],"split_conditions":[1.727389E-1,9.1540396E-2,3.1789663E-1,4.6534076E-1,3.9435488E-1,6.1246955E-1,6.13067E-1,4.0690383E-1,-0E0,6.450255E-1,-0E0,1.0975514E-1,-0E0,5.3367103E-3,-0E0,-3.3370187E-3,-0E0,5.748242E-3,-0E0,-0E0,1.09910285E-2,-0E0,1.798047E-2],"split_indices":[170,173,167,50,156,49,89,86,0,7,0,157,0,43,0,0,0,0,0,0,0,0,0],"split_type":[0,0,0,0,0,0,0,0,0,0,0,0,0,0,0,0,0,0,0,0,0,0,0],"sum_hessian":[2.2243755E2,3.6276688E1,1.8616086E2,1.3847629E1,2.242906E1,8.761823E1,9.854263E1,1.15451355E1,2.3024938E0,2.059165E1,1.8374099E0,8.532528E1,2.2929525E0,9.5936676E1,2.6059515E0,1.0176868E1,1.3682665E0,1.8587507E1,2.0041418E0,5.8918324E0,7.943345E1,1.2311206E0,9.470556E1],"tree_param":{"num_deleted":"0","num_feature":"174","num_nodes":"23","size_leaf_vector":"1"}},{"base_weights":[2.4913706E-1,1.327452E-1,3.3573264E-1,-2.4573216E-2,1.6799717E-1,-0E0,3.4163964E-1,-5.1434938E-2,-0E0,-0E0,1.8526107E-1,3.4520376E-1,-0E0,-3.0644804E-3,-0E0,9.652658E-3,-0E0,1.7456302E-2,-0E0],"categories":[],"categories_nodes":[],"categories_segments":[],"categories_sizes":[],"default_left":[0,0,0,0,0,0,0,0,0,0,0,0,0,0,0,0,0,0,0],"id":19,"left_children":[1,3,5,7,9,-1,11,13,-1,-1,15,17,-1,-1,-1,-1,-1,-1,-1],"loss_changes":[1.7350798E0,6.5560865E-1,2.7208042E-1,2.4173845E-2,1.5224457E-1,0E0,1.5286064E-1,9.8301545E-3,0E0,0E0,1.3210654E-1,1.3211441E-1,0E0,0E0,0E0,0E0,0E0,0E0,0E0],"parents":[2147483647,0,0,1,1,2,2,3,3,4,4,6,6,7,7,10,10,11,11],"right_children":[2,4,6,8,10,-1,12,14,-1,-1,16,18,-1,-1,-1,-1,-1,-1,-1],"split_conditions":[2.9001725E-1,7.458369E-2,6.48304E-2,3.987597E-1,1.6430975E-1,-0E0,7.8104746E-1,4.6534076E-1,-0E0,-0E0,7.313722E-1,7.673321E-1,-0E0,-3.0644804E-3,-0E0,9.652658E-3,-0E0,1.7456302E-2,-0E0],"split_indices":[160,173,172,88,172,0,65,50,0,0,17,24,0,0,0,0,0,0,0],"split_type":[0,0,0,0,0,0,0,0,0,0,0,0,0,0,0,0,0,0,0],"sum_hessian":[2.1275378E2,9.578365E1,1.1697013E2,1.3435297E1,8.234836E1,1.7130787E0,1.1525705E2,1.1432373E1,2.0029237E0,1.0374348E1,7.197401E1,1.1415157E2,1.1054785E0,1.0372717E1,1.0596564E0,6.97467E1,2.227313E0,1.1266265E2,1.4889249E0],"tree_param":{"num_deleted":"0","num_feature":"174","num_nodes":"19","size_leaf_vector":"1"}},{"base_weights":[2.2981319E-1,9.673985E-2,2.9115158E-1,-0E0,1.2806961E-1,1.9076909E-1,3.4047943E-1,-0E0,-3.932268E-2,-0E0,1.3806769E-1,1.9658954E-1,-0E0,-0E0,3.469255E-1,-0E0,6.3173793E-4,-2.082344E-3,-0E0,-0E0,7.1812193E-3,1.0118859E-2,-0E0,1.7663151E-2,-0E0],"categories":[],"categories_nodes":[],"categories_segments":[],"categories_sizes":[],"default_left":[0,0,0,0,0,0,0,0,0,0,0,0,0,0,0,0,0,0,0,0,0,0,0,0,0],"id":20,"left_children":[1,3,5,7,9,11,13,15,17,-1,19,21,-1,-1,23,-1,-1,-1,-1,-1,-1,-1,-1,-1,-1],"loss_changes":[1.4676266E0,2.935562E-1,2.3716831E-1,1.6440775E-2,8.790749E-2,6.759167E-2,2.4226284E-1,7.1227906E-4,2.3254566E-4,0E0,5.103314E-2,4.5104742E-2,0E0,0E0,1.3479042E-1,0E0,0E0,0E0,0E0,0E0,0E0,0E0,0E0,0E0,0E0],"parents":[2147483647,0,0,1,1,2,2,3,3,4,4,5,5,6,6,7,7,8,8,10,10,11,11,14,14],"right_children":[2,4,6,8,10,12,14,16,18,-1,20,22,-1,-1,24,-1,-1,-1,-1,-1,-1,-1,-1,-1,-1],"split_conditions":[2.373793E-1,8.166567E-2,2.916264E-1,2.2697668E-1,1.0338664E-1,7.8104746E-1,4.829385E-3,2.0089889E-1,4.688264E-1,-0E0,6.48304E-2,6.702674E-1,-0E0,-0E0,6.13067E-1,-0E0,6.3173793E-4,-2.082344E-3,-0E0,-0E0,7.1812193E-3,1.0118859E-2,-0E0,1.7663151E-2,-0E0],"split_indices":[172,173,167,114,163,7,49,9,71,0,110,24,0,0,29,0,0,0,0,0,0,0,0,0,0],"split_type":[0,0,0,0,0,0,0,0,0,0,0,0,0,0,0,0,0,0,0,0,0,0,0,0,0],"sum_hessian":[2.2026842E2,7.4424484E1,1.4584393E2,1.4490795E1,5.993369E1,5.500129E1,9.0842636E1,4.8582797E0,9.632515E0,3.893933E0,5.6039753E1,5.348324E1,1.5180521E0,1.3683909E0,8.947425E1,1.3964151E0,3.4618645E0,8.61296E0,1.0195551E0,1.8542577E0,5.4185497E1,5.1512833E1,1.9704055E0,8.733724E1,2.1370044E0],"tree_param":{"num_deleted":"0","num_feature":"174","num_nodes":"25","size_leaf_vector":"1"}},{"base_weights":[2.2153664E-1,6.5249056E-2,2.819408E-1,-1.8667528E-2,1.1010767E-1,9.878081E-2,3.0198097E-1,-5.9854366E-2,-0E0,-0E0,1.3140877E-1,1.3613868E-1,-0E0,3.0560207E-1,-0E0,-3.921076E-3,-0E0,7.7563263E-3,-0E0,-0E0,7.813172E-3,1.5393744E-2,-0E0],"categories":[],"categories_nodes":[],"categories_segments":[],"categories_sizes":[],"default_left":[0,0,0,0,0,0,0,0,0,0,0,0,0,0,0,0,0,0,0,0,0,0,0],"id":21,"left_children":[1,3,5,7,9,11,13,15,-1,-1,17,19,-1,21,-1,-1,-1,-1,-1,-1,-1,-1,-1],"loss_changes":[1.7398767E0,3.203163E-1,2.058649E-1,4.7716744E-2,1.1019069E-1,8.677259E-2,9.2912674E-2,1.8187474E-2,0E0,0E0,8.9467704E-2,4.6328604E-2,0E0,7.864952E-2,0E0,0E0,0E0,0E0,0E0,0E0,0E0,0E0,0E0],"parents":[2147483647,0,0,1,1,2,2,3,3,4,4,5,5,6,6,7,7,10,10,11,11,13,13],"right_children":[2,4,6,8,10,12,14,16,-1,-1,18,20,-1,22,-1,-1,-1,-1,-1,-1,-1,-1,-1],"split_conditions":[2.196758E-1,8.166567E-2,2.1686396E-1,4.4160616E-1,2.5931817E-1,3.5431534E-1,6.5782225E-1,6.270806E-2,-0E0,-0E0,4.8948866E-1,1.3746607E-1,-0E0,7.391461E-1,-0E0,-3.921076E-3,-0E0,7.7563263E-3,-0E0,-0E0,7.813172E-3,1.5393744E-2,-0E0],"split_indices":[170,173,173,76,29,132,50,173,0,0,18,154,0,9,0,0,0,0,0,0,0,0,0],"split_type":[0,0,0,0,0,0,0,0,0,0,0,0,0,0,0,0,0,0,0,0,0,0,0],"sum_hessian":[2.14671E2,6.411262E1,1.505584E2,1.6324528E1,4.7788086E1,1.9370256E1,1.3118814E2,1.4004398E1,2.3201292E0,8.153845E0,3.9634243E1,1.4406411E1,4.963846E0,1.2906895E2,2.1191921E0,1.0697916E1,3.3064828E0,3.1876602E1,7.757639E0,1.8154767E0,1.2590934E1,1.2798538E2,1.0835657E0],"tree_param":{"num_deleted":"0","num_feature":"174","num_nodes":"23","size_leaf_vector":"1"}},{"base_weights":[2.1500447E-1,1.0132385E-1,3.0580002E-1,-1.7795214E-2,1.4237487E-1,-0E0,3.1913403E-1,-3.6672992E-3,-0E0,1.5097404E-1,-0E0,3.809528E-2,-0E0,3.239625E-1,-0E0,-0E0,7.835338E-3,2.493137E-3,-0E0,-0E0,1.637804E-2],"categories":[],"categories_nodes":[],"categories_segments":[],"categories_sizes":[],"default_left":[0,0,0,0,0,0,0,0,0,0,0,0,0,0,0,0,0,0,0,0,0],"id":22,"left_children":[1,3,5,7,9,11,13,-1,-1,15,-1,17,-1,19,-1,-1,-1,-1,-1,-1,-1],"loss_changes":[1.7027836E0,5.618847E-1,2.2276497E-1,4.9005467E-2,1.0855341E-1,8.402536E-3,9.884453E-2,0E0,0E0,8.333707E-2,0E0,3.3229915E-3,0E0,8.373642E-2,0E0,0E0,0E0,0E0,0E0,0E0,0E0],"parents":[2147483647,0,0,1,1,2,2,3,3,4,4,5,5,6,6,9,9,11,11,13,13],"right_children":[2,4,6,8,10,12,14,-1,-1,16,-1,18,-1,20,-1,-1,-1,-1,-1,-1,-1],"split_conditions":[2.8007004E-1,8.166567E-2,1.8650329E-1,4.3801375E-2,6.915016E-1,3.372465E-1,5.858795E-1,-3.6672992E-3,-0E0,6.657127E-2,-0E0,3.5207057E-1,-0E0,4.3801375E-2,-0E0,-0E0,7.835338E-3,2.493137E-3,-0E0,-0E0,1.637804E-2],"split_indices":[173,173,172,173,17,112,53,0,0,114,0,81,0,150,0,0,0,0,0,0,0],"split_type":[0,0,0,0,0,0,0,0,0,0,0,0,0,0,0,0,0,0,0,0,0],"sum_hessian":[1.9852817E2,9.30064E1,1.05521774E2,1.8987709E1,7.401869E1,6.5281506E0,9.899362E1,9.286011E0,9.701697E0,7.047878E1,3.5399067E0,4.7898593E0,1.7382913E0,9.697695E1,2.0166728E0,1.7404497E0,6.8738335E1,3.7160687E0,1.0737907E0,1.3603194E0,9.561663E1],"tree_param":{"num_deleted":"0","num_feature":"174","num_nodes":"21","size_leaf_vector":"1"}},{"base_weights":[2.016414E-1,8.7920405E-2,2.8682572E-1,-0E0,1.4856735E-1,2.968421E-1,-0E0,-1.6435793E-2,4.145483E-2,1.6769066E-1,-0E0,3.0099338E-1,-0E0,-0E0,-3.1114458E-3,-0E0,2.9187084E-3,8.967813E-3,-0E0,-0E0,1.5195764E-2],"categories":[],"categories_nodes":[],"categories_segments":[],"categories_sizes":[],"default_left":[0,0,0,0,0,0,0,0,0,0,0,0,0,0,0,0,0,0,0,0,0],"id":23,"left_children":[1,3,5,7,9,11,-1,13,15,17,-1,19,-1,-1,-1,-1,-1,-1,-1,-1,-1],"loss_changes":[1.6929646E0,4.1950774E-1,1.8774986E-1,4.4697665E-2,1.2893176E-1,1.3165188E-1,0E0,6.1313786E-2,2.7463727E-2,1.20355725E-1,0E0,7.229328E-2,0E0,0E0,0E0,0E0,0E0,0E0,0E0,0E0,0E0],"parents":[2147483647,0,0,1,1,2,2,3,3,4,4,5,5,7,7,8,8,9,9,11,11],"right_children":[2,4,6,8,10,12,-1,14,16,18,-1,20,-1,-1,-1,-1,-1,-1,-1,-1,-1],"split_conditions":[2.7795163E-1,2.0094198E-1,5.336896E-1,2.0089889E-1,5.366376E-1,7.8104746E-1,-0E0,8.166567E-2,1.055844E-1,4.4413006E-1,-0E0,5.3367103E-3,-0E0,-0E0,-3.1114458E-3,-0E0,2.9187084E-3,8.967813E-3,-0E0,-0E0,1.5195764E-2],"split_indices":[173,170,10,163,12,17,0,146,166,145,0,145,0,0,0,0,0,0,0,0,0],"split_type":[0,0,0,0,0,0,0,0,0,0,0,0,0,0,0,0,0,0,0,0,0],"sum_hessian":[2.0731305E2,9.3677376E1,1.1363567E2,4.251399E1,5.1163383E1,1.0816059E2,5.4750857E0,2.0955582E1,2.1558409E1,4.4529453E1,6.633931E0,1.0662347E2,1.5371264E0,4.590614E0,1.6364967E1,3.1219943E0,1.8436415E1,4.254084E1,1.9886119E0,1.2767861E0,1.0534668E2],"tree_param":{"num_deleted":"0","num_feature":"174","num_nodes":"21","size_leaf_vector":"1"}},{"base_weights":[2.1023645E-1,8.118169E-2,2.8050083E-1,-0E0,1.1731669E-1,2.881062E-1,-0E0,1.523467E-2,-3.7127253E-2,1.2663297E-1,-0E0,-0E0,2.9196844E-1,1.8927747E-3,-0E0,-2.6998988E-3,-0E0,6.645467E-3,-0E0,1.4809336E-2,-0E0],"categories":[],"categories_nodes":[],"categories_segments":[],"categories_sizes":[],"default_left":[0,0,0,0,0,0,0,0,0,0,0,0,0,0,0,0,0,0,0,0,0],"id":24,"left_children":[1,3,5,7,9,11,-1,13,15,17,-1,-1,19,-1,-1,-1,-1,-1,-1,-1,-1],"loss_changes":[1.4625483E0,2.780981E-1,1.5126705E-1,2.2798438E-2,5.6819856E-2,1.504631E-1,0E0,3.894416E-3,1.7398983E-2,5.169785E-2,0E0,0E0,6.864452E-2,0E0,0E0,0E0,0E0,0E0,0E0,0E0,0E0],"parents":[2147483647,0,0,1,1,2,2,3,3,4,4,5,5,7,7,8,8,9,9,12,12],"right_children":[2,4,6,8,10,12,-1,14,16,18,-1,-1,20,-1,-1,-1,-1,-1,-1,-1,-1],"split_conditions":[2.5588444E-1,1.2170422E-1,5.859363E-1,2.1511036E-1,4.6518454E-1,6.48304E-2,-0E0,4.4293764E-1,3.6079746E-1,6.693889E-1,-0E0,-0E0,6.702674E-1,1.8927747E-3,-0E0,-2.6998988E-3,-0E0,6.645467E-3,-0E0,1.4809336E-2,-0E0],"split_indices":[170,173,8,84,65,172,0,12,113,12,0,0,25,0,0,0,0,0,0,0,0],"split_type":[0,0,0,0,0,0,0,0,0,0,0,0,0,0,0,0,0,0,0,0,0],"sum_hessian":[1.9470735E2,7.341211E1,1.2129524E2,1.85742E1,5.483791E1,1.16746216E2,4.5490294E0,3.8517268E0,1.4722473E1,5.046752E1,4.3703895E0,1.3294988E0,1.1541672E2,2.50338E0,1.3483467E0,1.2399961E1,2.3225121E0,4.8647987E1,1.8195332E0,1.129068E2,2.5099146E0],"tree_param":{"num_deleted":"0","num_feature":"174","num_nodes":"21","size_leaf_vector":"1"}},{"base_weights":[1.9393398E-1,-1.1757262E-3,2.2732317E-1,-3.6994775E-3,4.7129435E-3,1.3553986E-1,2.8943282E-1,-0E0,5.4192793E-2,-0E0,1.5253294E-1,2.9592502E-1,-0E0,-0E0,3.3107777E-3,8.018408E-3,-0E0,1.5050548E-2,-0E0],"categories":[],"categories_nodes":[],"categories_segments":[],"categories_sizes":[],"default_left":[0,0,0,0,0,0,0,0,0,0,0,0,0,0,0,0,0,0,0],"id":25,"left_children":[1,3,5,-1,7,9,11,-1,13,-1,15,17,-1,-1,-1,-1,-1,-1,-1],"loss_changes":[1.4500251E0,6.68986E-2,5.8884716E-1,0E0,2.5935004E-2,1.8439174E-1,1.6610289E-1,0E0,7.6100156E-3,0E0,1.0328615E-1,1.04278564E-1,0E0,0E0,0E0,0E0,0E0,0E0,0E0],"parents":[2147483647,0,0,1,1,2,2,4,4,5,5,6,6,8,8,10,10,11,11],"right_children":[2,4,6,-1,8,10,12,-1,14,-1,16,18,-1,-1,-1,-1,-1,-1,-1],"split_conditions":[1.3324146E-1,5.897119E-2,2.916264E-1,-3.6994775E-3,3.0717963E-1,1.6707213E-1,5.881855E-1,-0E0,2.4276254E-1,-0E0,4.6282667E-1,6.5782225E-1,-0E0,-0E0,3.3107777E-3,8.018408E-3,-0E0,1.5050548E-2,-0E0],"split_indices":[169,173,173,0,95,46,44,0,63,0,159,18,0,0,0,0,0,0,0],"split_type":[0,0,0,0,0,0,0,0,0,0,0,0,0,0,0,0,0,0,0],"sum_hessian":[1.9376987E2,2.4954315E1,1.6881555E2,1.1166697E1,1.378762E1,7.4615E1,9.420056E1,5.8449125E0,7.9427066E0,7.984174E0,6.663082E1,9.1966E1,2.2345595E0,1.2169709E0,6.7257357E0,6.419981E1,2.4310179E0,9.000187E1,1.964133E0],"tree_param":{"num_deleted":"0","num_feature":"174","num_nodes":"19","size_leaf_vector":"1"}},{"base_weights":[1.9353023E-1,9.896299E-2,2.827762E-1,-0E0,1.2719196E-1,-0E0,2.9560405E-1,-2.3043605E-3,4.316908E-2,1.4490645E-1,-0E0,3.0185363E-1,-0E0,-1.7727123E-3,-0E0,3.3204723E-3,-0E0,7.974985E-3,-0E0,-0E0,1.5608898E-2],"categories":[],"categories_nodes":[],"categories_segments":[],"categories_sizes":[],"default_left":[0,0,0,0,0,0,0,0,0,0,0,0,0,0,0,0,0,0,0,0,0],"id":26,"left_children":[1,3,5,7,9,-1,11,13,15,17,-1,19,-1,-1,-1,-1,-1,-1,-1,-1,-1],"loss_changes":[1.2473793E0,2.0892584E-1,2.1113586E-1,2.249936E-2,1.3179934E-1,0E0,1.8262005E-1,1.6529925E-2,2.0194685E-2,9.727669E-2,0E0,1.8089819E-1,0E0,0E0,0E0,0E0,0E0,0E0,0E0,0E0,0E0],"parents":[2147483647,0,0,1,1,2,2,3,3,4,4,6,6,7,7,8,8,9,9,11,11],"right_children":[2,4,6,8,10,-1,12,14,16,18,-1,20,-1,-1,-1,-1,-1,-1,-1,-1,-1],"split_conditions":[3.1306824E-1,1.5074371E-1,1.1671422E-1,3.780049E-1,5.1704586E-1,-0E0,6.5782225E-1,3.814132E-1,3.8977867E-1,5.167961E-1,-0E0,1.954657E-1,-0E0,-1.7727123E-3,-0E0,3.3204723E-3,-0E0,7.974985E-3,-0E0,-0E0,1.5608898E-2],"split_indices":[167,170,173,12,12,0,89,138,104,24,0,170,0,0,0,0,0,0,0,0,0],"split_type":[0,0,0,0,0,0,0,0,0,0,0,0,0,0,0,0,0,0,0,0,0],"sum_hessian":[1.8629892E2,9.582901E1,9.046992E1,2.5296535E1,7.053247E1,5.350251E0,8.511967E1,1.4266777E1,1.1029759E1,6.038891E1,1.0143563E1,8.35948E1,1.5248629E0,1.2214752E1,2.0520244E0,8.662335E0,2.367424E0,5.3493134E1,6.8957753E0,3.6466696E0,7.9948135E1],"tree_param":{"num_deleted":"0","num_feature":"174","num_nodes":"21","size_leaf_vector":"1"}},{"base_weights":[1.8287313E-1,8.6150005E-2,2.7174503E-1,-0E0,1.23280205E-1,2.78941E-1,-0E0,-1.6433633E-3,1.9778542E-2,-0E0,1.3181941E-1,2.8584757E-1,-0E0,-0E0,2.4686574E-3,-0E0,7.9237735E-3,1.448918E-2,-0E0],"categories":[],"categories_nodes":[],"categories_segments":[],"categories_sizes":[],"default_left":[0,0,0,0,0,0,0,0,0,0,0,0,0,0,0,0,0,0,0],"id":27,"left_children":[1,3,5,7,9,11,-1,-1,13,-1,15,17,-1,-1,-1,-1,-1,-1,-1],"loss_changes":[1.4140334E0,3.051495E-1,1.8002796E-1,1.9932924E-2,1.0413849E-1,1.3696289E-1,0E0,0E0,4.3166347E-2,0E0,1.0934746E-1,8.7593555E-2,0E0,0E0,0E0,0E0,0E0,0E0,0E0],"parents":[2147483647,0,0,1,1,2,2,3,3,4,4,5,5,8,8,10,10,11,11],"right_children":[2,4,6,8,10,12,-1,-1,14,-1,16,18,-1,-1,-1,-1,-1,-1,-1],"split_conditions":[2.931748E-1,1.8077971E-1,6.450255E-1,6.270806E-2,6.270806E-2,5.336896E-1,-0E0,-1.6433633E-3,2.1626702E-1,-0E0,1.9787012E-1,6.693889E-1,-0E0,-0E0,2.4686574E-3,-0E0,7.9237735E-3,1.448918E-2,-0E0],"split_indices":[173,166,8,173,89,10,0,0,75,0,163,113,0,0,0,0,0,0,0],"split_type":[0,0,0,0,0,0,0,0,0,0,0,0,0,0,0,0,0,0,0],"sum_hessian":[1.995313E2,1.0079874E2,9.873256E1,3.2007908E1,6.879083E1,9.5966965E1,2.7655926E0,8.620767E0,2.3387142E1,2.7560494E0,6.603478E1,9.301404E1,2.9529333E0,2.7658627E0,2.0621279E1,1.6300386E1,4.9734398E1,9.152057E1,1.493466E0],"tree_param":{"num_deleted":"0","num_feature":"174","num_nodes":"19","size_leaf_vector":"1"}},{"base_weights":[1.7669153E-1,4.7167353E-2,2.347958E-1,-0E0,9.7278655E-2,1.3897006E-1,2.8262663E-1,7.877008E-3,-3.3711232E-2,1.0732538E-1,-0E0,-0E0,1.5479779E-1,2.887425E-1,-0E0,-0E0,1.7210887E-3,-0E0,-2.7523546E-3,6.4930455E-3,-0E0,8.183262E-3,-0E0,-0E0,1.4618433E-2],"categories":[],"categories_nodes":[],"categories_segments":[],"categories_sizes":[],"default_left":[0,0,0,0,0,0,0,0,0,0,0,0,0,0,0,0,0,0,0,0,0,0,0,0,0],"id":28,"left_children":[1,3,5,7,9,11,13,15,17,19,-1,-1,21,23,-1,-1,-1,-1,-1,-1,-1,-1,-1,-1,-1],"loss_changes":[1.2481151E0,1.9050926E-1,2.2697401E-1,1.7496629E-2,5.740258E-2,1.3679749E-1,1.5014029E-1,1.6908102E-2,2.1417368E-2,4.0029287E-2,0E0,0E0,6.286538E-2,7.813358E-2,0E0,0E0,0E0,0E0,0E0,0E0,0E0,0E0,0E0,0E0,0E0],"parents":[2147483647,0,0,1,1,2,2,3,3,4,4,5,5,6,6,7,7,8,8,9,9,12,12,13,13],"right_children":[2,4,6,8,10,12,14,16,18,20,-1,-1,22,24,-1,-1,-1,-1,-1,-1,-1,-1,-1,-1,-1],"split_conditions":[2.358108E-1,1.9429484E-1,2.916264E-1,4.058456E-1,4.391714E-1,1.8059608E-1,6.1246955E-1,2.4551316E-1,1.9941022E-1,3.9921904E-1,-0E0,-0E0,6.017001E-1,9.1540396E-2,-0E0,-0E0,1.7210887E-3,-0E0,-2.7523546E-3,6.4930455E-3,-0E0,8.183262E-3,-0E0,-0E0,1.4618433E-2],"split_indices":[172,170,153,30,122,169,6,11,98,78,0,0,28,150,0,0,0,0,0,0,0,0,0,0,0],"split_type":[0,0,0,0,0,0,0,0,0,0,0,0,0,0,0,0,0,0,0,0,0,0,0,0,0],"sum_hessian":[1.9628656E2,6.561029E1,1.3067627E2,3.0818659E1,3.479163E1,5.0378178E1,8.0298096E1,1.7428932E1,1.3389728E1,3.3387768E1,1.403862E0,4.2606235E0,4.6117554E1,7.869145E1,1.6066415E0,3.1937206E0,1.4235211E1,1.9249549E0,1.1464772E1,2.4862E1,8.525769E0,4.3497093E1,2.6204607E0,1.050451E0,7.7641E1],"tree_param":{"num_deleted":"0","num_feature":"174","num_nodes":"25","size_leaf_vector":"1"}},{"base_weights":[1.6853946E-1,6.307229E-2,2.4394152E-1,-0E0,1.0408522E-1,4.627515E-2,2.6113418E-1,2.632372E-2,-4.459429E-3,1.1343624E-1,-0E0,-0E0,6.59928E-2,-0E0,2.6556605E-1,-0E0,4.1380785E-3,-2.3302704E-3,-0E0,6.2728794E-3,-0E0,3.8918585E-3,-0E0,1.3488664E-2,-0E0],"categories":[],"categories_nodes":[],"categories_segments":[],"categories_sizes":[],"default_left":[0,0,0,0,0,0,0,0,0,0,0,0,0,0,0,0,0,0,0,0,0,0,0,0,0],"id":29,"left_children":[1,3,5,7,9,11,13,15,17,19,-1,-1,21,-1,23,-1,-1,-1,-1,-1,-1,-1,-1,-1,-1],"loss_changes":[1.2483377E0,1.965335E-1,1.0188103E-1,9.257924E-3,6.9539964E-2,1.919049E-2,1.2209082E-1,4.8946787E-2,1.885899E-2,7.291758E-2,0E0,0E0,1.236501E-2,0E0,8.301544E-2,0E0,0E0,0E0,0E0,0E0,0E0,0E0,0E0,0E0,0E0],"parents":[2147483647,0,0,1,1,2,2,3,3,4,4,5,5,6,6,7,7,8,8,9,9,12,12,14,14],"right_children":[2,4,6,8,10,12,14,16,18,20,-1,-1,22,-1,24,-1,-1,-1,-1,-1,-1,-1,-1,-1,-1],"split_conditions":[2.6441592E-1,1.9787012E-1,2.1826547E-1,2.1826547E-1,5.034323E-1,2.3149021E-1,1.3324146E-1,2.6624003E-1,1.0338664E-1,6.702674E-1,-0E0,-0E0,4.5143095E-1,-0E0,6.702674E-1,-0E0,4.1380785E-3,-2.3302704E-3,-0E0,6.2728794E-3,-0E0,3.8918585E-3,-0E0,1.3488664E-2,-0E0],"split_indices":[171,166,172,108,94,82,173,63,163,14,0,0,97,0,28,0,0,0,0,0,0,0,0,0,0],"split_type":[0,0,0,0,0,0,0,0,0,0,0,0,0,0,0,0,0,0,0,0,0,0,0,0,0],"sum_hessian":[1.887952E2,8.389497E1,1.0490022E2,3.5580917E1,4.831406E1,1.2412703E1,9.248752E1,1.1644749E1,2.3936169E1,4.5923042E1,2.391016E0,2.4111493E0,1.0001553E1,1.3631341E0,9.112438E1,4.219462E0,7.4252872E0,7.910826E0,1.6025343E1,4.199428E1,3.9287624E0,8.94901E0,1.052543E0,8.941403E1,1.7103517E0],"tree_param":{"num_deleted":"0","num_feature":"174","num_nodes":"25","size_leaf_vector":"1"}},{"base_weights":[1.6067639E-1,6.922272E-2,2.5680506E-1,-3.8127698E-2,9.819805E-2,2.7913564E-1,1.4882098E-2,-3.7298047E-3,-0E0,1.06520005E-1,-0E0,-0E0,2.8641152E-1,-0E0,2.645342E-2,5.869897E-3,-0E0,-0E0,1.4571661E-2,1.7476449E-3,-0E0],"categories":[],"categories_nodes":[],"categories_segments":[],"categories_sizes":[],"default_left":[0,0,0,0,0,0,0,0,0,0,0,0,0,0,0,0,0,0,0,0,0],"id":30,"left_children":[1,3,5,7,9,11,13,-1,-1,15,-1,-1,17,-1,19,-1,-1,-1,-1,-1,-1],"loss_changes":[1.329606E0,3.6091965E-1,2.1740484E-1,5.8495566E-2,7.061255E-2,1.04706764E-1,4.3349667E-3,0E0,0E0,6.263757E-2,0E0,0E0,1.1043835E-1,0E0,3.5482845E-3,0E0,0E0,0E0,0E0,0E0,0E0],"parents":[2147483647,0,0,1,1,2,2,3,3,4,4,5,5,6,6,9,9,12,12,14,14],"right_children":[2,4,6,8,10,12,14,-1,-1,16,-1,-1,18,-1,20,-1,-1,-1,-1,-1,-1],"split_conditions":[3.0003154E-1,6.48304E-2,4.350932E-1,4.4160616E-1,6.0584885E-1,5.8121566E-2,2.655236E-1,-3.7298047E-3,-0E0,4.6565613E-1,-0E0,-0E0,7.022931E-2,-0E0,5.4658383E-1,5.869897E-3,-0E0,-0E0,1.4571661E-2,1.7476449E-3,-0E0],"split_indices":[173,173,11,76,25,139,67,0,0,35,0,0,151,0,46,0,0,0,0,0,0],"split_type":[0,0,0,0,0,0,0,0,0,0,0,0,0,0,0,0,0,0,0,0,0],"sum_hessian":[1.8193092E2,9.837882E1,8.355209E1,1.4974477E1,8.340434E1,7.332337E1,1.0228729E1,1.3685392E1,1.2890838E0,7.69545E1,6.449844E0,2.451777E0,7.087159E1,1.4801835E0,8.748546E0,6.772226E1,9.232242E0,1.1552141E0,6.971638E1,7.4882646E0,1.2602807E0],"tree_param":{"num_deleted":"0","num_feature":"174","num_nodes":"21","size_leaf_vector":"1"}},{"base_weights":[1.496067E-1,5.63895E-2,2.3535985E-1,-2.9683025E-3,1.1851426E-1,2.4519527E-1,-0E0,-4.7886956E-2,-0E0,-0E0,1.3813424E-1,2.525576E-1,-0E0,-0E0,-3.1641969E-3,-0E0,9.407623E-4,7.1762796E-3,-0E0,-0E0,1.2886557E-2],"categories":[],"categories_nodes":[],"categories_segments":[],"categories_sizes":[],"default_left":[0,0,0,0,0,0,0,0,0,0,0,0,0,0,0,0,0,0,0,0,0],"id":31,"left_children":[1,3,5,7,9,11,-1,13,15,-1,17,19,-1,-1,-1,-1,-1,-1,-1,-1,-1],"loss_changes":[1.2290797E0,4.4031742E-1,1.7913103E-1,3.351882E-2,1.3325816E-1,1.454091E-1,0E0,1.9167945E-2,5.4001217E-3,0E0,4.5808077E-2,1.1164284E-1,0E0,0E0,0E0,0E0,0E0,0E0,0E0,0E0,0E0],"parents":[2147483647,0,0,1,1,2,2,3,3,4,4,5,5,7,7,8,8,10,10,11,11],"right_children":[2,4,6,8,10,12,-1,14,16,-1,18,20,-1,-1,-1,-1,-1,-1,-1,-1,-1],"split_conditions":[3.018537E-1,2.176083E-1,6.0358447E-1,1.055844E-1,1.8059608E-1,6.0358596E-1,-0E0,1.9836226E-1,3.3150432E-1,-0E0,6.4204276E-1,1.6184462E-2,-0E0,-0E0,-3.1641969E-3,-0E0,9.407623E-4,7.1762796E-3,-0E0,-0E0,1.2886557E-2],"split_indices":[160,171,88,172,170,6,0,91,76,0,8,95,0,0,0,0,0,0,0,0,0],"split_type":[0,0,0,0,0,0,0,0,0,0,0,0,0,0,0,0,0,0,0,0,0],"sum_hessian":[1.8361499E2,9.3242836E1,9.037215E1,4.158494E1,5.1657894E1,8.616834E1,4.2038054E0,1.3780486E1,2.7804455E1,6.9124837E0,4.474541E1,8.343997E1,2.7283692E0,1.5310777E0,1.2249409E1,1.3550456E1,1.4254E1,4.3596977E1,1.148436E0,1.6752515E0,8.176472E1],"tree_param":{"num_deleted":"0","num_feature":"174","num_nodes":"21","size_leaf_vector":"1"}},{"base_weights":[1.5543202E-1,7.3061116E-2,2.3810661E-1,-0E0,1.0390481E-1,2.48888E-1,-0E0,2.2817632E-2,-1.5977956E-2,-0E0,1.2028774E-1,2.549179E-1,-0E0,-0E0,3.0351602E-3,-1.8189348E-3,-0E0,-0E0,6.482269E-3,-0E0,1.338002E-2],"categories":[],"categories_nodes":[],"categories_segments":[],"categories_sizes":[],"default_left":[0,0,0,0,0,0,0,0,0,0,0,0,0,0,0,0,0,0,0,0,0],"id":32,"left_children":[1,3,5,7,9,11,-1,13,15,-1,17,19,-1,-1,-1,-1,-1,-1,-1,-1,-1],"loss_changes":[9.775562E-1,2.4641097E-1,1.4692211E-1,8.717229E-3,1.3546997E-1,1.4808798E-1,0E0,1.2625002E-2,2.1765303E-2,0E0,5.12619E-2,1.495018E-1,0E0,0E0,0E0,0E0,0E0,0E0,0E0,0E0,0E0],"parents":[2147483647,0,0,1,1,2,2,3,3,4,4,5,5,7,7,8,8,10,10,11,11],"right_children":[2,4,6,8,10,12,-1,14,16,-1,18,20,-1,-1,-1,-1,-1,-1,-1,-1,-1],"split_conditions":[3.0725506E-1,1.6920623E-1,5.167961E-1,2.0730706E-1,1.5074371E-1,6.13067E-1,-0E0,1.7328492E-1,3.814132E-1,-0E0,9.1540396E-2,2.0094198E-1,-0E0,-0E0,3.0351602E-3,-1.8189348E-3,-0E0,-0E0,6.482269E-3,-0E0,1.338002E-2],"split_indices":[167,173,23,119,172,89,0,126,140,0,151,170,0,0,0,0,0,0,0,0,0],"split_type":[0,0,0,0,0,0,0,0,0,0,0,0,0,0,0,0,0,0,0,0,0],"sum_hessian":[1.8165645E2,9.6786095E1,8.487036E1,2.6614273E1,7.017182E1,7.99638E1,4.906563E0,4.3218403E0,2.2292433E1,8.703984E0,6.146784E1,7.845767E1,1.5061197E0,1.1437413E0,3.178099E0,1.9939657E1,2.352775E0,5.6423874E0,5.582545E1,5.265343E0,7.319233E1],"tree_param":{"num_deleted":"0","num_feature":"174","num_nodes":"21","size_leaf_vector":"1"}},{"base_weights":[1.5117808E-1,6.8229415E-2,2.2845963E-1,-9.15427E-3,1.0823698E-1,-0E0,2.4093316E-1,-2.4883326E-3,-0E0,1.1715521E-1,-0E0,-0E0,2.4550399E-1,6.208793E-3,-0E0,-0E0,1.2638939E-2],"categories":[],"categories_nodes":[],"categories_segments":[],"categories_sizes":[],"default_left":[0,0,0,0,0,0,0,0,0,0,0,0,0,0,0,0,0],"id":33,"left_children":[1,3,5,7,9,-1,11,-1,-1,13,-1,-1,15,-1,-1,-1,-1],"loss_changes":[8.862176E-1,3.654799E-1,1.629157E-1,2.6047416E-2,7.259196E-2,0E0,1.1601162E-1,0E0,0E0,7.0554316E-2,0E0,0E0,1.04295254E-1,0E0,0E0,0E0,0E0],"parents":[2147483647,0,0,1,1,2,2,3,3,4,4,6,6,9,9,12,12],"right_children":[2,4,6,8,10,-1,12,-1,-1,14,-1,-1,16,-1,-1,-1,-1],"split_conditions":[3.018537E-1,1.6920623E-1,1.3095753E-1,6.718927E-2,5.1704586E-1,-0E0,4.829385E-3,-2.4883326E-3,-0E0,7.0241696E-1,-0E0,-0E0,1.1671422E-1,6.208793E-3,-0E0,-0E0,1.2638939E-2],"split_indices":[160,173,171,173,59,0,115,0,0,19,0,0,173,0,0,0,0],"split_type":[0,0,0,0,0,0,0,0,0,0,0,0,0,0,0,0,0],"sum_hessian":[1.7670435E2,9.1128235E1,8.55761E1,2.4504997E1,6.662324E1,5.9258094E0,7.96503E1,1.0379873E1,1.4125124E1,6.200861E1,4.614626E0,1.0503743E0,7.859992E1,5.966088E1,2.3477306E0,2.8834796E0,7.5716446E1],"tree_param":{"num_deleted":"0","num_feature":"174","num_nodes":"17","size_leaf_vector":"1"}},{"base_weights":[1.3440932E-1,3.775763E-2,2.1327339E-1,-0E0,6.752244E-2,2.5034934E-1,4.9530398E-2,-2.9084047E-2,-0E0,7.86449E-2,-0E0,2.5739682E-1,-0E0,-0E0,7.425184E-2,-2.580757E-3,-0E0,2.146697E-3,-0E0,4.468573E-3,-0E0,1.3341765E-2,-0E0,4.4017374E-3,-0E0],"categories":[],"categories_nodes":[],"categories_segments":[],"categories_sizes":[],"default_left":[0,0,0,0,0,0,0,0,0,0,0,0,0,0,0,0,0,0,0,0,0,0,0,0,0],"id":34,"left_children":[1,3,5,7,9,11,13,15,17,19,-1,21,-1,-1,23,-1,-1,-1,-1,-1,-1,-1,-1,-1,-1],"loss_changes":[1.1098363E0,1.3511163E-1,2.9709482E-1,1.3984734E-2,6.0058355E-2,1.5458345E-1,4.388632E-2,2.350794E-2,1.1964546E-2,6.575033E-2,0E0,8.9102745E-2,0E0,0E0,3.185109E-2,0E0,0E0,0E0,0E0,0E0,0E0,0E0,0E0,0E0,0E0],"parents":[2147483647,0,0,1,1,2,2,3,3,4,4,5,5,6,6,7,7,8,8,9,9,11,11,14,14],"right_children":[2,4,6,8,10,12,14,16,18,20,-1,22,-1,-1,24,-1,-1,-1,-1,-1,-1,-1,-1,-1,-1],"split_conditions":[2.7938446E-1,1.6957742E-1,3.822687E-1,3.3487344E-1,9.354839E-1,6.0358447E-1,2.1900345E-1,2.5983286E-1,3.4911183E-1,5.3420776E-1,-0E0,4.7829813E-1,-0E0,-0E0,5.3888726E-1,-2.580757E-3,-0E0,2.146697E-3,-0E0,4.468573E-3,-0E0,1.3341765E-2,-0E0,4.4017374E-3,-0E0],"split_indices":[170,167,26,84,1,88,103,172,29,49,0,24,0,0,97,0,0,0,0,0,0,0,0,0,0],"split_type":[0,0,0,0,0,0,0,0,0,0,0,0,0,0,0,0,0,0,0,0,0,0,0,0,0],"sum_hessian":[1.7200629E2,8.250961E1,8.9496666E1,2.7762604E1,5.474701E1,6.85585E1,2.0938168E1,1.5532728E1,1.2229875E1,4.9804115E1,4.942892E0,6.713487E1,1.4236307E0,4.2163444E0,1.6721823E1,1.307318E1,2.4595485E0,5.4907484E0,6.739126E0,4.657264E1,3.2314763E0,6.3651424E1,3.483448E0,1.5716842E1,1.0049812E0],"tree_param":{"num_deleted":"0","num_feature":"174","num_nodes":"25","size_leaf_vector":"1"}},{"base_weights":[1.3426392E-1,5.9119433E-2,2.1035613E-1,-2.9047532E-3,1.0248505E-1,2.2037347E-1,-0E0,-0E0,-3.2708745E-2,1.13222264E-1,-0E0,-0E0,2.2727188E-1,8.6798705E-4,-0E0,-2.652318E-3,-0E0,5.980868E-3,-0E0,-0E0,1.1591574E-2],"categories":[],"categories_nodes":[],"categories_segments":[],"categories_sizes":[],"default_left":[0,0,0,0,0,0,0,0,0,0,0,0,0,0,0,0,0,0,0,0,0],"id":35,"left_children":[1,3,5,7,9,11,-1,13,15,17,-1,-1,19,-1,-1,-1,-1,-1,-1,-1,-1],"loss_changes":[7.86721E-1,3.3809385E-1,2.0161676E-1,2.772485E-2,7.423246E-2,1.6908431E-1,0E0,1.8478702E-3,3.1897776E-2,5.573362E-2,0E0,0E0,8.763313E-2,0E0,0E0,0E0,0E0,0E0,0E0,0E0,0E0],"parents":[2147483647,0,0,1,1,2,2,3,3,4,4,5,5,7,7,8,8,9,9,12,12],"right_children":[2,4,6,8,10,12,-1,14,16,18,-1,-1,20,-1,-1,-1,-1,-1,-1,-1,-1],"split_conditions":[3.0573845E-1,1.9787012E-1,6.4204276E-1,2.2246169E-1,5.512614E-1,4.829385E-3,-0E0,3.814132E-1,2.309016E-1,6.4204276E-1,-0E0,-0E0,6.48304E-2,8.6798705E-4,-0E0,-2.652318E-3,-0E0,5.980868E-3,-0E0,-0E0,1.1591574E-2],"split_indices":[153,166,88,78,25,108,0,56,170,65,0,0,168,0,0,0,0,0,0,0,0],"split_type":[0,0,0,0,0,0,0,0,0,0,0,0,0,0,0,0,0,0,0,0,0],"sum_hessian":[1.7646648E2,9.49699E1,8.149657E1,3.1871105E1,6.30988E1,7.831859E1,3.1779783E0,6.697447E0,2.5173658E1,5.730858E1,5.7902193E0,1.4685576E0,7.685003E1,5.1317577E0,1.5656892E0,2.0287052E1,4.8866076E0,5.513574E1,2.1728406E0,1.4016325E0,7.54484E1],"tree_param":{"num_deleted":"0","num_feature":"174","num_nodes":"21","size_leaf_vector":"1"}},{"base_weights":[1.2984091E-1,4.5291957E-2,2.0855506E-1,-0E0,1.02006465E-1,2.2486465E-1,-0E0,2.5666885E-3,-2.7457442E-2,1.189291E-1,-0E0,2.3522866E-1,-0E0,-0E0,9.202462E-3,1.1543047E-3,-0E0,-2.804938E-3,-0E0,-0E0,6.8154815E-3,-0E0,1.2218923E-2,-0E0,1.5735095E-3],"categories":[],"categories_nodes":[],"categories_segments":[],"categories_sizes":[],"default_left":[0,0,0,0,0,0,0,0,0,0,0,0,0,0,0,0,0,0,0,0,0,0,0,0,0],"id":36,"left_children":[1,3,5,7,9,11,13,15,17,19,-1,21,-1,-1,23,-1,-1,-1,-1,-1,-1,-1,-1,-1,-1],"loss_changes":[9.2671084E-1,3.0243516E-1,1.7318559E-1,2.1307446E-2,5.8418274E-2,1.7344642E-1,6.0455344E-4,6.066127E-3,4.0843517E-2,5.3725064E-2,0E0,1.4071608E-1,0E0,0E0,5.396989E-3,0E0,0E0,0E0,0E0,0E0,0E0,0E0,0E0,0E0,0E0],"parents":[2147483647,0,0,1,1,2,2,3,3,4,4,5,5,6,6,7,7,8,8,9,9,11,11,14,14],"right_children":[2,4,6,8,10,12,14,16,18,20,-1,22,-1,-1,24,-1,-1,-1,-1,-1,-1,-1,-1,-1,-1],"split_conditions":[3.018537E-1,2.309016E-1,4.6898705E-1,2.230787E-1,4.8948866E-1,6.0358447E-1,1.6035645E-1,3.5298288E-1,3.7536055E-1,1.3324146E-1,-0E0,8.831183E-3,-0E0,-0E0,3.1257904E-1,1.1543047E-3,-0E0,-2.804938E-3,-0E0,-0E0,6.8154815E-3,-0E0,1.2218923E-2,-0E0,1.5735095E-3],"split_indices":[160,170,26,112,12,144,112,84,61,103,0,109,0,0,59,0,0,0,0,0,0,0,0,0,0],"split_type":[0,0,0,0,0,0,0,0,0,0,0,0,0,0,0,0,0,0,0,0,0,0,0,0,0],"sum_hessian":[1.7017961E2,8.770842E1,8.247119E1,4.215452E1,4.5553905E1,7.422694E1,8.24426E0,1.5032067E1,2.712245E1,3.737821E1,8.175696E0,7.0878685E1,3.3482447E0,2.1054354E0,6.1388245E0,1.057996E1,4.4521074E0,1.8715267E1,8.407183E0,6.2715583E0,3.110665E1,2.9254372E0,6.7953255E1,1.0789427E0,5.0598817E0],"tree_param":{"num_deleted":"0","num_feature":"174","num_nodes":"25","size_leaf_vector":"1"}},{"base_weights":[1.229511E-1,3.5416845E-2,1.9988477E-1,-1.31841805E-2,7.536389E-2,-0E0,2.0925029E-1,-0E0,-3.5677798E-2,-0E0,8.9436576E-2,-0E0,2.1428125E-1,-0E0,-2.352659E-3,5.1601445E-3,-0E0,1.2940833E-2,5.2680136E-3],"categories":[],"categories_nodes":[],"categories_segments":[],"categories_sizes":[],"default_left":[0,0,0,0,0,0,0,0,0,0,0,0,0,0,0,0,0,0,0],"id":37,"left_children":[1,3,5,7,9,-1,11,-1,13,-1,15,-1,17,-1,-1,-1,-1,-1,-1],"loss_changes":[1.0060046E0,2.245467E-1,2.3286724E-1,2.7534211E-2,9.876034E-2,0E0,1.199007E-1,0E0,2.0642065E-2,0E0,6.472647E-2,0E0,9.7965E-2,0E0,0E0,0E0,0E0,0E0,0E0],"parents":[2147483647,0,0,1,1,2,2,3,3,4,4,6,6,8,8,10,10,12,12],"right_children":[2,4,6,8,10,-1,12,-1,14,-1,16,-1,18,-1,-1,-1,-1,-1,-1],"split_conditions":[2.916264E-1,1.9585942E-1,6.48304E-2,1.2341277E-1,1.3095753E-1,-0E0,6.451613E-2,-0E0,1.4101882E-1,-0E0,5.2628595E-1,-0E0,3.428359E-1,-0E0,-2.352659E-3,5.1601445E-3,-0E0,1.2940833E-2,5.2680136E-3],"split_indices":[153,166,172,143,169,0,1,0,123,0,7,0,26,0,0,0,0,0,0],"split_type":[0,0,0,0,0,0,0,0,0,0,0,0,0,0,0,0,0,0,0],"sum_hessian":[1.7738818E2,8.8524704E1,8.886348E1,3.1204105E1,5.7320602E1,2.5457678E0,8.631771E1,6.1754503E0,2.5028656E1,4.5626163E0,5.2757984E1,1.4407349E0,8.4876976E1,1.7404703E0,2.3288185E1,4.5449993E1,7.3079906E0,5.4054356E1,3.082262E1],"tree_param":{"num_deleted":"0","num_feature":"174","num_nodes":"19","size_leaf_vector":"1"}},{"base_weights":[1.2734506E-1,2.943935E-2,1.7457034E-1,-0E0,1.03643E-1,-0E0,1.8355522E-1,3.397378E-2,-2.6267748E-2,1.1804318E-1,-0E0,-0E0,1.8756732E-1,3.5714265E-3,-0E0,-2.0423655E-3,-0E0,6.3308305E-3,-0E0,1.0195449E-2,6.9339905E-4],"categories":[],"categories_nodes":[],"categories_segments":[],"categories_sizes":[],"default_left":[0,0,0,0,0,0,0,0,0,0,0,0,0,0,0,0,0,0,0,0,0],"id":38,"left_children":[1,3,5,7,9,-1,11,13,15,17,-1,-1,19,-1,-1,-1,-1,-1,-1,-1,-1],"loss_changes":[6.129432E-1,1.6169797E-1,2.328434E-1,3.6969744E-2,3.825982E-2,0E0,1.1903596E-1,3.147139E-2,2.4233377E-2,2.1729022E-2,0E0,0E0,1.17572784E-1,0E0,0E0,0E0,0E0,0E0,0E0,0E0,0E0],"parents":[2147483647,0,0,1,1,2,2,3,3,4,4,6,6,7,7,8,8,9,9,12,12],"right_children":[2,4,6,8,10,-1,12,14,16,18,-1,-1,20,-1,-1,-1,-1,-1,-1,-1,-1],"split_conditions":[2.4068817E-1,2.8590673E-1,9.1540396E-2,2.1495758E-1,6.208179E-1,-0E0,4.829385E-3,2.1624254E-1,5.156012E-1,5.9295565E-1,-0E0,-0E0,4.7000024E-1,3.5714265E-3,-0E0,-2.0423655E-3,-0E0,6.3308305E-3,-0E0,1.0195449E-2,6.9339905E-4],"split_indices":[168,152,173,112,71,0,52,144,26,97,0,0,26,0,0,0,0,0,0,0,0],"split_type":[0,0,0,0,0,0,0,0,0,0,0,0,0,0,0,0,0,0,0,0,0],"sum_hessian":[1.6797784E2,6.0700092E1,1.0727775E2,4.1668957E1,1.9031137E1,3.4299533E0,1.0384779E2,1.37308445E1,2.7938112E1,1.718776E1,1.8433781E0,1.0539836E0,1.0279381E2,8.500913E0,5.2299314E0,2.549113E1,2.446981E0,1.6163473E1,1.0242869E0,8.9585976E1,1.3207837E1],"tree_param":{"num_deleted":"0","num_feature":"174","num_nodes":"21","size_leaf_vector":"1"}},{"base_weights":[1.2393754E-1,5.0545424E-2,1.9038883E-1,-0E0,6.378423E-2,2.0437558E-1,-0E0,-0E0,-3.517466E-4,-0E0,8.645867E-2,2.1396676E-1,-0E0,1.9836247E-3,-0E0,-0E0,5.1465877E-3,1.0976357E-2,-0E0],"categories":[],"categories_nodes":[],"categories_segments":[],"categories_sizes":[],"default_left":[0,0,0,0,0,0,0,0,0,0,0,0,0,0,0,0,0,0,0],"id":39,"left_children":[1,3,5,7,9,11,-1,-1,-1,13,15,17,-1,-1,-1,-1,-1,-1,-1],"loss_changes":[5.5272055E-1,8.8201016E-2,2.0474315E-1,3.9492064E-4,4.808429E-2,1.1879897E-1,0E0,0E0,0E0,1.7652161E-2,7.284066E-2,1.0708165E-1,0E0,0E0,0E0,0E0,0E0,0E0,0E0],"parents":[2147483647,0,0,1,1,2,2,3,3,4,4,5,5,9,9,10,10,11,11],"right_children":[2,4,6,8,10,12,-1,-1,-1,14,16,18,-1,-1,-1,-1,-1,-1,-1],"split_conditions":[2.8744048E-1,2.1781202E-2,5.858795E-1,2.5144926E-1,2.0705877E-1,5.3996265E-1,-0E0,-0E0,-3.517466E-4,2.0898965E-1,1.967487E-1,6.915016E-1,-0E0,1.9836247E-3,-0E0,-0E0,5.1465877E-3,1.0976357E-2,-0E0],"split_indices":[167,173,53,45,141,11,0,0,0,106,59,114,0,0,0,0,0,0,0],"split_type":[0,0,0,0,0,0,0,0,0,0,0,0,0,0,0,0,0,0,0],"sum_hessian":[1.5382698E2,7.965336E1,7.4173615E1,8.326288E0,7.132707E1,6.9138214E1,5.035403E0,1.3465242E0,6.979764E0,2.6529463E1,4.479761E1,6.558607E1,3.5521455E0,1.0215508E1,1.6313953E1,6.610772E0,3.8186836E1,6.4477646E1,1.1084194E0],"tree_param":{"num_deleted":"0","num_feature":"174","num_nodes":"19","size_leaf_vector":"1"}},{"base_weights":[1.1863102E-1,3.5069525E-2,1.8989359E-1,-0E0,7.2229676E-2,-0E0,2.0031308E-1,2.9095446E-3,-3.36913E-2,-0E0,8.512632E-2,2.092868E-1,-0E0,2.4129106E-3,-0E0,-0E0,-2.4079715E-3,4.7005937E-3,-0E0,1.0818353E-2,-0E0],"categories":[],"categories_nodes":[],"categories_segments":[],"categories_sizes":[],"default_left":[0,0,0,0,0,0,0,0,0,0,0,0,0,0,0,0,0,0,0,0,0],"id":40,"left_children":[1,3,5,7,9,-1,11,13,15,-1,17,19,-1,-1,-1,-1,-1,-1,-1,-1,-1],"loss_changes":[8.090801E-1,1.6288947E-1,1.8619013E-1,2.6503533E-2,7.7325314E-2,0E0,1.1197901E-1,1.645204E-2,2.0664664E-2,0E0,5.0361097E-2,1.095767E-1,0E0,0E0,0E0,0E0,0E0,0E0,0E0,0E0,0E0],"parents":[2147483647,0,0,1,1,2,2,3,3,4,4,6,6,7,7,8,8,10,10,11,11],"right_children":[2,4,6,8,10,-1,12,14,16,-1,18,20,-1,-1,-1,-1,-1,-1,-1,-1,-1],"split_conditions":[2.916264E-1,1.9787012E-1,1.3095753E-1,2.6890692E-1,6.718927E-2,-0E0,6.4204276E-1,3.4911183E-1,2.5441682E-1,-0E0,5.163235E-1,6.0358596E-1,-0E0,2.4129106E-3,-0E0,-0E0,-2.4079715E-3,4.7005937E-3,-0E0,1.0818353E-2,-0E0],"split_indices":[153,166,171,66,173,0,88,39,8,0,79,69,0,0,0,0,0,0,0,0,0],"split_type":[0,0,0,0,0,0,0,0,0,0,0,0,0,0,0,0,0,0,0,0,0],"sum_hessian":[1.6621117E2,8.235778E1,8.3853386E1,3.248517E1,4.9872612E1,3.9576705E0,7.989571E1,1.0219845E1,2.2265326E1,3.5760403E0,4.6296574E1,7.566376E1,4.231963E0,6.105218E0,4.114627E0,2.96929E0,1.9296036E1,4.3476685E1,2.819889E0,7.30691E1,2.594653E0],"tree_param":{"num_deleted":"0","num_feature":"174","num_nodes":"21","size_leaf_vector":"1"}},{"base_weights":[1.0732503E-1,4.2629346E-2,1.7063425E-1,9.507514E-2,2.9190339E-3,2.212519E-1,4.69218E-2,-0E0,1.1526088E-1,-1.7752633E-3,4.370788E-2,2.3354818E-1,-0E0,-0E0,8.152844E-2,6.7042494E-3,-0E0,-0E0,-1.4625699E-3,-0E0,3.7208013E-3,1.2294754E-2,-0E0,5.359405E-3,-0E0],"categories":[],"categories_nodes":[],"categories_segments":[],"categories_sizes":[],"default_left":[0,0,0,0,0,0,0,0,0,0,0,0,0,0,0,0,0,0,0,0,0,0,0,0,0],"id":41,"left_children":[1,3,5,7,9,11,13,-1,15,17,19,21,-1,-1,23,-1,-1,-1,-1,-1,-1,-1,-1,-1,-1],"loss_changes":[4.95618E-1,1.0649525E-1,2.5428677E-1,6.602451E-2,4.517178E-2,1.1195564E-1,9.197734E-2,0E0,4.630491E-2,1.924121E-2,4.1088205E-2,1.2498903E-1,0E0,0E0,7.6719746E-2,0E0,0E0,0E0,0E0,0E0,0E0,0E0,0E0,0E0,0E0],"parents":[2147483647,0,0,1,1,2,2,3,3,4,4,5,5,6,6,8,8,9,9,10,10,11,11,14,14],"right_children":[2,4,6,8,10,12,14,-1,16,18,20,22,-1,-1,24,-1,-1,-1,-1,-1,-1,-1,-1,-1,-1],"split_conditions":[3.018537E-1,2.1472497E-1,3.5781765E-1,1.932366E-1,3.2205072E-1,4.540939E-1,2.1147633E-1,-0E0,2.578824E-1,2.4276254E-1,3.048658E-1,4.4480634E-1,-0E0,-0E0,5.172985E-1,6.7042494E-3,-0E0,-0E0,-1.4625699E-3,-0E0,3.7208013E-3,1.2294754E-2,-0E0,5.359405E-3,-0E0],"split_indices":[160,106,26,40,117,27,115,0,160,108,95,16,0,0,110,0,0,0,0,0,0,0,0,0,0],"split_type":[0,0,0,0,0,0,0,0,0,0,0,0,0,0,0,0,0,0,0,0,0,0,0,0,0],"sum_hessian":[1.6343614E2,8.7910324E1,7.552582E1,2.85991E1,5.931122E1,4.8447998E1,2.7077824E1,4.4897766E0,2.4109324E1,3.6458557E1,2.2852661E1,4.5430763E1,3.017235E0,4.939918E0,2.2137905E1,2.0129574E1,3.9797497E0,1.4833195E1,2.1625364E1,8.204446E0,1.4648215E1,4.2952198E1,2.4785633E0,1.9063452E1,3.0744534E0],"tree_param":{"num_deleted":"0","num_feature":"174","num_nodes":"25","size_leaf_vector":"1"}},{"base_weights":[1.0306581E-1,3.0920811E-2,1.7797318E-1,-0E0,5.696404E-2,2.0619948E-1,1.4422203E-2,-0E0,-2.8235365E-2,6.916545E-2,-0E0,-0E0,2.1642572E-1,4.6296045E-2,-0E0,-0E0,-2.2084017E-3,-0E0,4.031898E-3,1.13786645E-2,-0E0,3.1744323E-3,-0E0],"categories":[],"categories_nodes":[],"categories_segments":[],"categories_sizes":[],"default_left":[0,0,0,0,0,0,0,0,0,0,0,0,0,0,0,0,0,0,0,0,0,0,0],"id":42,"left_children":[1,3,5,7,9,11,13,-1,15,17,-1,-1,19,21,-1,-1,-1,-1,-1,-1,-1,-1,-1],"loss_changes":[6.71278E-1,1.14093445E-1,1.4811492E-1,1.4491294E-2,6.349403E-2,1.1864662E-1,2.4468275E-2,0E0,1.44869E-2,6.8374395E-2,0E0,0E0,1.0857558E-1,1.8861132E-2,0E0,0E0,0E0,0E0,0E0,0E0,0E0,0E0,0E0],"parents":[2147483647,0,0,1,1,2,2,3,3,4,4,5,5,6,6,8,8,9,9,12,12,13,13],"right_children":[2,4,6,8,10,12,14,-1,16,18,-1,-1,20,22,-1,-1,-1,-1,-1,-1,-1,-1,-1],"split_conditions":[3.1789663E-1,1.8077971E-1,3.987597E-1,2.4120235E-1,5.1600134E-1,6.718927E-2,4.6534076E-1,-0E0,1.1579065E-1,1.14833295E-1,-0E0,-0E0,5.1600134E-1,5.166041E-1,-0E0,-0E0,-2.2084017E-3,-0E0,4.031898E-3,1.13786645E-2,-0E0,3.1744323E-3,-0E0],"split_indices":[157,166,33,101,35,172,152,0,146,169,0,0,35,123,0,0,0,0,0,0,0,0,0],"split_type":[0,0,0,0,0,0,0,0,0,0,0,0,0,0,0,0,0,0,0,0,0,0,0],"sum_hessian":[1.551559E2,8.5195145E1,6.9960754E1,2.5637281E1,5.955786E1,5.5269844E1,1.4690908E1,8.460357E0,1.7176924E1,5.3349075E1,6.208786E0,2.6589139E0,5.261093E1,1.1938774E1,2.752135E0,3.3225226E0,1.3854401E1,3.8494725E0,4.9499603E1,4.9583828E1,3.0271013E0,1.0559248E1,1.3795258E0],"tree_param":{"num_deleted":"0","num_feature":"174","num_nodes":"23","size_leaf_vector":"1"}},{"base_weights":[1.08905904E-1,3.3767607E-2,1.8148969E-1,-1.9826374E-3,6.899835E-2,1.9426385E-1,-0E0,8.892704E-3,-3.8195148E-2,-0E0,8.2689464E-2,-0E0,2.0765509E-1,2.0620597E-3,-0E0,-0E0,-2.618117E-3,4.6664323E-3,-0E0,-0E0,1.0719731E-2],"categories":[],"categories_nodes":[],"categories_segments":[],"categories_sizes":[],"default_left":[0,0,0,0,0,0,0,0,0,0,0,0,0,0,0,0,0,0,0,0,0],"id":43,"left_children":[1,3,5,7,9,11,-1,13,15,-1,17,-1,19,-1,-1,-1,-1,-1,-1,-1,-1],"loss_changes":[6.9607484E-1,1.6133992E-1,1.498003E-1,3.6423422E-2,7.021886E-2,1.01665735E-1,0E0,8.38417E-3,2.1834206E-2,0E0,5.3227574E-2,0E0,9.970069E-2,0E0,0E0,0E0,0E0,0E0,0E0,0E0,0E0],"parents":[2147483647,0,0,1,1,2,2,3,3,4,4,5,5,7,7,8,8,10,10,12,12],"right_children":[2,4,6,8,10,12,-1,14,16,-1,18,-1,20,-1,-1,-1,-1,-1,-1,-1,-1],"split_conditions":[3.0573845E-1,1.9787012E-1,5.2392656E-1,1.9585942E-1,1.5316917E-1,2.1472497E-1,-0E0,3.7278718E-1,1.3977009E-1,-0E0,5.4892457E-1,-0E0,4.829385E-3,2.0620597E-3,-0E0,-0E0,-2.618117E-3,4.6664323E-3,-0E0,-0E0,1.0719731E-2],"split_indices":[153,166,114,121,167,154,0,36,146,0,43,0,108,0,0,0,0,0,0,0,0],"split_type":[0,0,0,0,0,0,0,0,0,0,0,0,0,0,0,0,0,0,0,0,0],"sum_hessian":[1.5932959E2,8.442269E1,7.49069E1,3.1100199E1,5.33225E1,6.922178E1,5.6851234E0,7.5080094E0,2.3592188E1,6.2298236E0,4.7092674E1,6.407176E0,6.28146E1,4.3250184E0,3.182991E0,3.543719E0,2.004847E1,4.2863743E1,4.2289295E0,1.7799441E0,6.1034657E1],"tree_param":{"num_deleted":"0","num_feature":"174","num_nodes":"21","size_leaf_vector":"1"}},{"base_weights":[1.006875E-1,3.7987065E-2,1.6933873E-1,-0E0,9.467047E-2,2.146178E-1,3.0308723E-2,3.282314E-2,-1.0959185E-2,1.2405744E-1,-0E0,-0E0,2.3545249E-1,5.7957407E-2,-0E0,-0E0,3.700217E-3,-0E0,-1.7482396E-3,6.923741E-3,-0E0,1.2164024E-2,-0E0,-0E0,3.4661943E-3],"categories":[],"categories_nodes":[],"categories_segments":[],"categories_sizes":[],"default_left":[0,0,0,0,0,0,0,0,0,0,0,0,0,0,0,0,0,0,0,0,0,0,0,0,0],"id":44,"left_children":[1,3,5,7,9,11,13,15,17,19,-1,-1,21,23,-1,-1,-1,-1,-1,-1,-1,-1,-1,-1,-1],"loss_changes":[4.9091935E-1,1.3564804E-1,2.2038639E-1,3.4193087E-2,1.0475528E-1,1.15409136E-1,4.114683E-2,5.3534247E-2,2.6571877E-2,6.8176836E-2,0E0,0E0,4.8721075E-2,2.0265184E-2,0E0,0E0,0E0,0E0,0E0,0E0,0E0,0E0,0E0,0E0,0E0],"parents":[2147483647,0,0,1,1,2,2,3,3,4,4,5,5,6,6,7,7,8,8,9,9,12,12,13,13],"right_children":[2,4,6,8,10,12,14,16,18,20,-1,-1,22,24,-1,-1,-1,-1,-1,-1,-1,-1,-1,-1,-1],"split_conditions":[3.000335E-1,3.0499852E-1,3.5781765E-1,2.827012E-1,4.7714537E-1,2.5983286E-1,4.1579378E-1,3.452971E-1,1.5316917E-1,6.0358447E-1,-0E0,-0E0,4.4160616E-1,1.3095753E-1,-0E0,-0E0,3.700217E-3,-0E0,-1.7482396E-3,6.923741E-3,-0E0,1.2164024E-2,-0E0,-0E0,3.4661943E-3],"split_indices":[171,136,26,81,52,173,163,11,152,140,0,0,44,173,0,0,0,0,0,0,0,0,0,0,0],"split_type":[0,0,0,0,0,0,0,0,0,0,0,0,0,0,0,0,0,0,0,0,0,0,0,0,0],"sum_hessian":[1.5307559E2,8.690766E1,6.616792E1,5.8618916E1,2.8288748E1,4.516185E1,2.1006071E1,2.7114283E1,3.1504633E1,2.2862877E1,5.425872E0,5.7262993E0,3.943555E1,1.7267609E1,3.738462E0,1.2808661E1,1.4305621E1,7.5762997E0,2.3928333E1,2.1708012E1,1.1548638E0,3.7698444E1,1.737109E0,1.2824674E0,1.5985141E1],"tree_param":{"num_deleted":"0","num_feature":"174","num_nodes":"25","size_leaf_vector":"1"}},{"base_weights":[8.640376E-2,-0E0,1.2906009E-1,-1.751717E-2,9.293192E-2,-0E0,1.4674228E-1,-5.535673E-2,-0E0,8.271433E-3,-0E0,-0E0,1.4506928E-2,1.626219E-1,-0E0,-0E0,-4.316132E-3,1.0294E-3,-6.169184E-5,-0E0,-1.3207933E-3,1.8246539E-3,-0E0,4.671932E-3,1.1876504E-2],"categories":[],"categories_nodes":[],"categories_segments":[],"categories_sizes":[],"default_left":[0,0,0,0,0,0,0,0,0,0,0,0,0,0,0,0,0,0,0,0,0,0,0,0,0],"id":45,"left_children":[1,3,5,7,9,11,13,15,17,-1,-1,19,21,23,-1,-1,-1,-1,-1,-1,-1,-1,-1,-1,-1],"loss_changes":[5.7719564E-1,9.46644E-2,2.0546985E-1,4.6422634E-2,7.480572E-2,2.1310255E-3,2.0308244E-1,5.9174262E-2,6.3470337E-3,0E0,0E0,3.4624196E-3,9.156233E-3,1.3873601E-1,0E0,0E0,0E0,0E0,0E0,0E0,0E0,0E0,0E0,0E0,0E0],"parents":[2147483647,0,0,1,1,2,2,3,3,4,4,5,5,6,6,7,7,8,8,11,11,12,12,13,13],"right_children":[2,4,6,8,10,12,14,16,18,-1,-1,20,22,24,-1,-1,-1,-1,-1,-1,-1,-1,-1,-1,-1],"split_conditions":[2.2147739E-1,3.571355E-1,2.0730706E-1,3.2103607E-1,3.780049E-1,3.4546018E-1,4.8657057E-1,1.6707213E-1,3.9174774E-1,8.271433E-3,-0E0,1.867256E-1,3.5415864E-1,3.7215108E-1,-0E0,-0E0,-4.316132E-3,1.0294E-3,-6.169184E-5,-0E0,-1.3207933E-3,1.8246539E-3,-0E0,4.671932E-3,1.1876504E-2],"split_indices":[171,154,173,63,42,9,71,124,30,0,0,27,138,132,0,0,0,0,0,0,0,0,0,0,0],"split_type":[0,0,0,0,0,0,0,0,0,0,0,0,0,0,0,0,0,0,0,0,0,0,0,0,0],"sum_hessian":[1.579474E2,5.305276E1,1.04894646E2,4.471589E1,8.336873E0,1.4440723E1,9.045392E1,1.8726946E1,2.5988943E1,4.6799855E0,3.656888E0,5.3147283E0,9.125995E0,8.114462E1,9.309298E0,3.6733582E0,1.5053587E1,1.3927248E1,1.2061695E1,1.3528057E0,3.9619224E0,7.4755406E0,1.6504545E0,4.890466E1,3.2239967E1],"tree_param":{"num_deleted":"0","num_feature":"174","num_nodes":"25","size_leaf_vector":"1"}},{"base_weights":[9.4455495E-2,3.8585685E-2,1.760274E-1,-6.394532E-3,5.642695E-2,-0E0,1.8629803E-1,-0E0,-3.958412E-2,-0E0,6.1903246E-2,1.9872811E-1,-0E0,-2.2173263E-3,-0E0,3.3618272E-3,-0E0,-0E0,1.0765865E-2],"categories":[],"categories_nodes":[],"categories_segments":[],"categories_sizes":[],"default_left":[0,0,0,0,0,0,0,0,0,0,0,0,0,0,0,0,0,0,0],"id":46,"left_children":[1,3,5,7,9,-1,11,-1,13,-1,15,17,-1,-1,-1,-1,-1,-1,-1],"loss_changes":[5.515021E-1,1.2237522E-1,1.6165519E-1,2.4247708E-2,3.5754293E-2,0E0,1.3982451E-1,0E0,4.332749E-3,0E0,3.9910167E-2,1.1872935E-1,0E0,0E0,0E0,0E0,0E0,0E0,0E0],"parents":[2147483647,0,0,1,1,2,2,3,3,4,4,6,6,8,8,10,10,11,11],"right_children":[2,4,6,8,10,-1,12,-1,14,-1,16,18,-1,-1,-1,-1,-1,-1,-1],"split_conditions":[3.3219332E-1,8.166567E-2,1.0338664E-1,1.3095753E-1,9.925312E-2,-0E0,5.399176E-1,-0E0,4.206746E-1,-0E0,5.859363E-1,2.1116488E-1,-0E0,-2.2173263E-3,-0E0,3.3618272E-3,-0E0,-0E0,1.0765865E-2],"split_indices":[167,173,171,138,97,0,68,0,97,0,67,173,0,0,0,0,0,0,0],"split_type":[0,0,0,0,0,0,0,0,0,0,0,0,0,0,0,0,0,0,0],"sum_hessian":[1.5917545E2,1.0116582E2,5.8009636E1,1.6178741E1,8.4987076E1,1.6693413E0,5.6340294E1,1.2555133E0,1.4923229E1,5.210402E0,7.977667E1,5.2932056E1,3.4082386E0,1.3890003E1,1.0332254E0,7.629849E1,3.47818E0,5.4293404E0,4.7502716E1],"tree_param":{"num_deleted":"0","num_feature":"174","num_nodes":"19","size_leaf_vector":"1"}},{"base_weights":[8.8930726E-2,3.1570714E-2,1.5651311E-1,7.4576E-2,-0E0,1.8182817E-1,-0E0,1.0240075E-1,-0E0,-3.627124E-2,4.0572688E-2,-0E0,1.8883479E-1,-0E0,6.1228913E-3,-0E0,5.8905664E-3,-0E0,-2.585518E-3,-0E0,3.1960916E-3,9.824921E-3,-0E0,1.3285411E-3,-0E0],"categories":[],"categories_nodes":[],"categories_segments":[],"categories_sizes":[],"default_left":[0,0,0,0,0,0,0,0,0,0,0,0,0,0,0,0,0,0,0,0,0,0,0,0,0],"id":47,"left_children":[1,3,5,7,9,11,13,15,-1,17,19,-1,21,-1,23,-1,-1,-1,-1,-1,-1,-1,-1,-1,-1],"loss_changes":[4.713291E-1,1.4236279E-1,1.5251279E-1,1.3242373E-1,7.938843E-2,8.788812E-2,4.368346E-4,4.7687173E-2,0E0,3.0384548E-2,3.2719776E-2,0E0,9.2466354E-2,0E0,6.723524E-3,0E0,0E0,0E0,0E0,0E0,0E0,0E0,0E0,0E0,0E0],"parents":[2147483647,0,0,1,1,2,2,3,3,4,4,5,5,6,6,7,7,9,9,10,10,12,12,14,14],"right_children":[2,4,6,8,10,12,14,16,-1,18,20,-1,22,-1,24,-1,-1,-1,-1,-1,-1,-1,-1,-1,-1],"split_conditions":[3.1789663E-1,2.8315806E-1,4.2405838E-1,3.6253393E-1,2.952281E-1,6.48304E-2,3.029658E-1,1.14833295E-1,-0E0,1.9787012E-1,1.9429484E-1,-0E0,6.5782225E-1,-0E0,5.166041E-1,-0E0,5.8905664E-3,-0E0,-2.585518E-3,-0E0,3.1960916E-3,9.824921E-3,-0E0,1.3285411E-3,-0E0],"split_indices":[157,73,12,78,116,172,41,108,0,55,165,0,88,0,124,0,0,0,0,0,0,0,0,0,0],"split_type":[0,0,0,0,0,0,0,0,0,0,0,0,0,0,0,0,0,0,0,0,0,0,0,0,0],"sum_hessian":[1.6067496E2,9.4106964E1,6.6567986E1,4.1641994E1,5.246497E1,5.3676384E1,1.2891603E1,3.4245434E1,7.396561E0,3.0066406E1,2.2398561E1,1.5174918E0,5.2158894E1,2.239511E0,1.0652093E1,5.1818476E0,2.9063587E1,4.418446E0,2.5647959E1,5.9641166E0,1.6434446E1,5.0488026E1,1.6708689E0,9.142028E0,1.5100644E0],"tree_param":{"num_deleted":"0","num_feature":"174","num_nodes":"25","size_leaf_vector":"1"}},{"base_weights":[8.5287124E-2,-0E0,1.2747523E-1,-2.024644E-2,2.2982286E-2,2.091892E-1,6.8232164E-2,-0E0,-4.6161316E-2,-0E0,8.058286E-2,2.329715E-1,-0E0,-0E0,8.9173935E-2,-0E0,-3.127828E-3,5.282428E-3,-0E0,-0E0,1.2068468E-2,-0E0,5.3279027E-3],"categories":[],"categories_nodes":[],"categories_segments":[],"categories_sizes":[],"default_left":[0,0,0,0,0,0,0,0,0,0,0,0,0,0,0,0,0,0,0,0,0,0,0],"id":48,"left_children":[1,3,5,7,9,11,13,-1,15,-1,17,19,-1,-1,21,-1,-1,-1,-1,-1,-1,-1,-1],"loss_changes":[5.684514E-1,2.3292009E-2,2.627281E-1,4.008905E-2,5.747792E-2,1.9488108E-1,9.54338E-2,0E0,3.360522E-2,0E0,2.4733812E-2,7.36649E-2,0E0,0E0,9.232792E-2,0E0,0E0,0E0,0E0,0E0,0E0,0E0,0E0],"parents":[2147483647,0,0,1,1,2,2,3,3,4,4,5,5,6,6,8,8,10,10,11,11,14,14],"right_children":[2,4,6,8,10,12,14,-1,16,-1,18,20,-1,-1,22,-1,-1,-1,-1,-1,-1,-1,-1],"split_conditions":[2.1611278E-1,4.074425E-1,2.4822803E-1,2.577683E-1,3.631113E-1,5.156012E-1,1.967487E-1,-0E0,1.727389E-1,-0E0,4.4846338E-1,1.3114409E-1,-0E0,-0E0,2.1116488E-1,-0E0,-3.127828E-3,5.282428E-3,-0E0,-0E0,1.2068468E-2,-0E0,5.3279027E-3],"split_indices":[170,13,8,43,40,115,114,0,96,0,47,156,0,0,172,0,0,0,0,0,0,0,0],"split_type":[0,0,0,0,0,0,0,0,0,0,0,0,0,0,0,0,0,0,0,0,0,0,0],"sum_hessian":[1.5109947E2,4.9034016E1,1.0206545E2,2.997579E1,1.9058226E1,3.6157997E1,6.5907455E1,6.2034364E0,2.3772354E1,9.575225E0,9.483002E0,3.254943E1,3.6085663E0,1.5734105E1,5.0173347E1,2.696023E0,2.107633E1,7.314761E0,2.1682408E0,1.0294904E0,3.151994E1,7.20376E0,4.296959E1],"tree_param":{"num_deleted":"0","num_feature":"174","num_nodes":"23","size_leaf_vector":"1"}},{"base_weights":[7.866688E-2,1.2482345E-2,1.458517E-1,-6.32304E-4,6.590177E-2,-0E0,1.6453066E-1,-2.1799102E-2,5.1436457E-3,-0E0,9.1062345E-2,-0E0,1.7546369E-1,-0E0,-2.7488864E-3,-0E0,1.069786E-3,5.4611205E-3,-0E0,9.729694E-3,-0E0],"categories":[],"categories_nodes":[],"categories_segments":[],"categories_sizes":[],"default_left":[0,0,0,0,0,0,0,0,0,0,0,0,0,0,0,0,0,0,0,0,0],"id":49,"left_children":[1,3,5,7,9,-1,11,13,15,-1,17,-1,19,-1,-1,-1,-1,-1,-1,-1,-1],"loss_changes":[5.8913934E-1,1.1418209E-1,2.0157874E-1,2.0764025E-2,9.3783736E-2,0E0,1.5832949E-1,4.9534038E-2,6.3057677E-3,0E0,5.8022276E-2,0E0,1.0100174E-1,0E0,0E0,0E0,0E0,0E0,0E0,0E0,0E0],"parents":[2147483647,0,0,1,1,2,2,3,3,4,4,6,6,7,7,8,8,10,10,12,12],"right_children":[2,4,6,8,10,-1,12,14,16,-1,18,-1,20,-1,-1,-1,-1,-1,-1,-1,-1],"split_conditions":[3.0159464E-1,2.8590673E-1,2.0898965E-1,2.4885435E-1,7.6409765E-2,-0E0,2.0094198E-1,1.9601221E-1,1.6980268E-1,-0E0,5.948894E-1,-0E0,4.1044238E-1,-0E0,-2.7488864E-3,-0E0,1.069786E-3,5.4611205E-3,-0E0,9.729694E-3,-0E0],"split_indices":[167,152,173,168,110,0,170,148,96,0,38,0,31,0,0,0,0,0,0,0,0],"split_type":[0,0,0,0,0,0,0,0,0,0,0,0,0,0,0,0,0,0,0,0,0],"sum_hessian":[1.60388E2,8.739119E1,7.299681E1,5.893483E1,2.845636E1,8.401333E0,6.4595474E1,4.173225E1,1.720258E1,2.7191892E0,2.5737171E1,2.7770944E0,6.1818382E1,1.962579E1,2.2106459E1,3.3758023E0,1.3826777E1,2.2449053E1,3.2881186E0,5.274167E1,9.076714E0],"tree_param":{"num_deleted":"0","num_feature":"174","num_nodes":"21","size_leaf_vector":"1"}},{"base_weights":[7.59757E-2,2.8002866E-2,1.5413076E-1,5.9696775E-2,-0E0,-0E0,1.6852976E-1,-0E0,7.549154E-2,-2.1946127E-2,9.050657E-3,1.8266588E-1,-0E0,4.5606135E-3,-0E0,-0E0,-2.377543E-3,-0E0,1.5710145E-3,9.937519E-3,-0E0],"categories":[],"categories_nodes":[],"categories_segments":[],"categories_sizes":[],"default_left":[0,0,0,0,0,0,0,0,0,0,0,0,0,0,0,0,0,0,0,0,0],"id":50,"left_children":[1,3,5,7,9,-1,11,-1,13,15,17,19,-1,-1,-1,-1,-1,-1,-1,-1,-1],"loss_changes":[4.4256353E-1,1.2107646E-1,1.3334572E-1,6.5142095E-2,1.5921174E-2,0E0,1.1562252E-1,0E0,4.3774396E-2,4.1327097E-2,1.3369309E-2,1.1351359E-1,0E0,0E0,0E0,0E0,0E0,0E0,0E0,0E0,0E0],"parents":[2147483647,0,0,1,1,2,2,3,3,4,4,6,6,8,8,9,9,10,10,11,11],"right_children":[2,4,6,8,10,-1,12,-1,14,16,18,20,-1,-1,-1,-1,-1,-1,-1,-1,-1],"split_conditions":[3.4094223E-1,3.0221215E-1,1.3787742E-1,1.14833295E-1,3.1171814E-1,-0E0,5.2801406E-1,-0E0,4.3992603E-1,1.2168953E-1,3.2863373E-1,5.3420776E-1,-0E0,4.5606135E-3,-0E0,-0E0,-2.377543E-3,-0E0,1.5710145E-3,9.937519E-3,-0E0],"split_indices":[146,73,115,169,128,0,14,0,13,145,61,113,0,0,0,0,0,0,0,0,0],"split_type":[0,0,0,0,0,0,0,0,0,0,0,0,0,0,0,0,0,0,0,0,0],"sum_hessian":[1.5705174E2,1.04501434E2,5.25503E1,5.6189503E1,4.831193E1,4.0647554E0,4.8485546E1,9.997033E0,4.619247E1,2.8520561E1,1.9791372E1,4.4587944E1,3.8976026E0,3.658836E1,9.604111E0,4.95484E0,2.356572E1,5.5240564E0,1.4267315E1,4.0381454E1,4.206487E0],"tree_param":{"num_deleted":"0","num_feature":"174","num_nodes":"21","size_leaf_vector":"1"}},{"base_weights":[5.817644E-2,-0E0,1.3203986E-1,-2.7400868E-2,3.3694852E-2,1.8802099E-1,2.440674E-2,-0E0,-4.93184E-2,-0E0,5.755414E-2,-0E0,1.9609334E-1,-0E0,6.320071E-2,-0E0,-2.922731E-3,-0E0,-5.721985E-4,-0E0,6.1118533E-3,1.024138E-2,-0E0,-0E0,4.6483185E-3],"categories":[],"categories_nodes":[],"categories_segments":[],"categories_sizes":[],"default_left":[0,0,0,0,0,0,0,0,0,0,0,0,0,0,0,0,0,0,0,0,0,0,0,0,0],"id":51,"left_children":[1,3,5,7,9,11,13,-1,15,17,19,-1,21,-1,23,-1,-1,-1,-1,-1,-1,-1,-1,-1,-1],"loss_changes":[5.8589846E-1,9.47247E-2,2.151258E-1,3.910517E-2,6.316475E-2,6.305933E-2,5.630822E-2,0E0,2.123338E-2,1.172922E-3,8.473045E-2,0E0,6.6652894E-2,0E0,4.8458204E-2,0E0,0E0,0E0,0E0,0E0,0E0,0E0,0E0,0E0,0E0],"parents":[2147483647,0,0,1,1,2,2,3,3,4,4,5,5,6,6,8,8,9,9,10,10,12,12,14,14],"right_children":[2,4,6,8,10,12,14,-1,16,18,20,-1,22,-1,24,-1,-1,-1,-1,-1,-1,-1,-1,-1,-1],"split_conditions":[3.1789663E-1,2.0507257E-1,3.2205072E-1,2.1931833E-1,2.0382287E-1,4.829385E-3,3.2667494E-1,-0E0,7.458369E-2,2.4138501E-1,3.2735512E-1,-0E0,5.163049E-1,-0E0,3.4200537E-1,-0E0,-2.922731E-3,-0E0,-5.721985E-4,-0E0,6.1118533E-3,1.024138E-2,-0E0,-0E0,4.6483185E-3],"split_indices":[157,166,39,112,115,37,125,0,145,148,166,0,19,0,118,0,0,0,0,0,0,0,0,0,0],"split_type":[0,0,0,0,0,0,0,0,0,0,0,0,0,0,0,0,0,0,0,0,0,0,0,0,0],"sum_hessian":[1.5901508E2,9.5346306E1,6.3668777E1,4.0080086E1,5.526622E1,3.6503426E1,2.716535E1,1.2322008E1,2.7758076E1,1.7912409E1,3.735381E1,1.3842363E0,3.511919E1,9.86791E0,1.729744E1,2.0728784E0,2.5685198E1,9.956372E0,7.9560356E0,2.4180468E1,1.3173343E1,3.369318E1,1.4260112E0,4.234292E0,1.3063148E1],"tree_param":{"num_deleted":"0","num_feature":"174","num_nodes":"25","size_leaf_vector":"1"}},{"base_weights":[6.56017E-2,1.102811E-2,1.219063E-1,-0E0,9.206219E-2,1.477296E-1,-0E0,-2.804965E-2,9.519651E-3,-0E0,1.1342353E-1,1.6567293E-1,-0E0,-2.133571E-3,-0E0,1.6327156E-3,-0E0,6.4327926E-3,-0E0,9.309797E-3,-0E0],"categories":[],"categories_nodes":[],"categories_segments":[],"categories_sizes":[],"default_left":[0,0,0,0,0,0,0,0,0,0,0,0,0,0,0,0,0,0,0,0,0],"id":52,"left_children":[1,3,5,7,9,11,-1,13,15,-1,17,19,-1,-1,-1,-1,-1,-1,-1,-1,-1],"loss_changes":[3.5692048E-1,7.6655775E-2,1.7755842E-1,2.0638255E-2,3.075964E-2,1.3810897E-1,0E0,1.7133817E-2,2.9351994E-2,0E0,1.4124133E-2,1.0968244E-1,0E0,0E0,0E0,0E0,0E0,0E0,0E0,0E0,0E0],"parents":[2147483647,0,0,1,1,2,2,3,3,4,4,5,5,7,7,8,8,10,10,11,11],"right_children":[2,4,6,8,10,12,-1,14,16,-1,18,20,-1,-1,-1,-1,-1,-1,-1,-1,-1],"split_conditions":[2.9664674E-1,4.5017046E-1,4.103851E-1,1.1671422E-1,1.04962975E-1,4.2683253E-1,-0E0,5.7372767E-1,2.7036035E-1,-0E0,4.9353355E-1,3.8673618E-1,-0E0,-2.133571E-3,-0E0,1.6327156E-3,-0E0,6.4327926E-3,-0E0,9.309797E-3,-0E0],"split_indices":[173,97,33,173,59,38,0,17,125,0,58,43,0,0,0,0,0,0,0,0,0],"split_type":[0,0,0,0,0,0,0,0,0,0,0,0,0,0,0,0,0,0,0,0,0],"sum_hessian":[1.502044E2,8.4097084E1,6.610732E1,7.483152E1,9.26556E0,5.283286E1,1.3274465E1,1.8644209E1,5.618731E1,1.1115911E0,8.15397E0,4.6835255E1,5.997604E0,1.6897984E1,1.7462256E0,3.1387121E1,2.480019E1,6.968001E0,1.1859686E0,4.003507E1,6.8001866E0],"tree_param":{"num_deleted":"0","num_feature":"174","num_nodes":"21","size_leaf_vector":"1"}},{"base_weights":[7.469434E-2,1.16719045E-1,3.6441837E-3,4.2882245E-2,1.7012568E-1,-0E0,4.720934E-2,6.7694284E-2,-0E0,1.8115859E-1,-0E0,-1.5328694E-2,2.682604E-3,6.265142E-2,-0E0,4.369545E-3,-0E0,9.458435E-3,-0E0,-0E0,-1.7226652E-3,-0E0,1.0278096E-3,-0E0,3.7394748E-3],"categories":[],"categories_nodes":[],"categories_segments":[],"categories_sizes":[],"default_left":[0,0,0,0,0,0,0,0,0,0,0,0,0,0,0,0,0,0,0,0,0,0,0,0,0],"id":53,"left_children":[1,3,5,7,9,11,13,15,-1,17,-1,19,21,23,-1,-1,-1,-1,-1,-1,-1,-1,-1,-1,-1],"loss_changes":[3.6372674E-1,1.7636824E-1,3.9329924E-2,5.5393457E-2,9.9277854E-2,9.783958E-3,2.51039E-2,5.4373443E-2,0E0,7.511079E-2,0E0,2.4432875E-2,2.634132E-3,1.694271E-2,0E0,0E0,0E0,0E0,0E0,0E0,0E0,0E0,0E0,0E0,0E0],"parents":[2147483647,0,0,1,1,2,2,3,3,4,4,5,5,6,6,7,7,9,9,11,11,12,12,13,13],"right_children":[2,4,6,8,10,12,14,16,-1,18,-1,20,22,24,-1,-1,-1,-1,-1,-1,-1,-1,-1,-1,-1],"split_conditions":[3.513708E-1,3.0697688E-1,3.9699385E-1,3.6253393E-1,4.575492E-1,3.901249E-1,6.13067E-1,3.75481E-1,-0E0,5.9295565E-1,-0E0,2.4551316E-1,2.6927468E-1,1.8448573E-1,-0E0,4.369545E-3,-0E0,9.458435E-3,-0E0,-0E0,-1.7226652E-3,-0E0,1.0278096E-3,-0E0,3.7394748E-3],"split_indices":[39,161,98,56,57,164,85,80,0,115,0,100,170,118,0,0,0,0,0,0,0,0,0,0,0],"split_type":[0,0,0,0,0,0,0,0,0,0,0,0,0,0,0,0,0,0,0,0,0,0,0,0,0],"sum_hessian":[1.5320761E2,8.878858E1,6.441903E1,4.431025E1,4.4478333E1,4.738237E1,1.7036657E1,2.9270247E1,1.5040002E1,4.2132637E1,2.3456929E0,4.0394745E1,6.987623E0,1.5636754E1,1.3999038E0,2.4282581E1,4.9876647E0,4.0656143E1,1.4764961E0,1.2617586E1,2.777716E1,1.6177989E0,5.3698244E0,1.9329433E0,1.3703811E1],"tree_param":{"num_deleted":"0","num_feature":"174","num_nodes":"25","size_leaf_vector":"1"}},{"base_weights":[7.786058E-2,1.8202618E-2,1.4308172E-1,-0E0,5.1747248E-2,1.5783034E-1,-0E0,4.2063114E-3,-4.5015212E-2,6.995179E-2,-0E0,1.6810362E-1,-0E0,2.2383397E-3,-0E0,-0E0,-3.4244743E-3,-0E0,4.864141E-3,-0E0,8.738975E-3],"categories":[],"categories_nodes":[],"categories_segments":[],"categories_sizes":[],"default_left":[0,0,0,0,0,0,0,0,0,0,0,0,0,0,0,0,0,0,0,0,0],"id":54,"left_children":[1,3,5,7,9,11,-1,13,15,17,-1,19,-1,-1,-1,-1,-1,-1,-1,-1,-1],"loss_changes":[4.6439034E-1,9.360109E-2,1.2418735E-1,3.994245E-2,4.4545166E-2,1.01361394E-1,0E0,1.8181847E-2,2.8638922E-2,4.0031165E-2,0E0,8.703065E-2,0E0,0E0,0E0,0E0,0E0,0E0,0E0,0E0,0E0],"parents":[2147483647,0,0,1,1,2,2,3,3,4,4,5,5,7,7,8,8,9,9,11,11],"right_children":[2,4,6,8,10,12,-1,14,16,18,-1,20,-1,-1,-1,-1,-1,-1,-1,-1,-1],"split_conditions":[3.029036E-1,2.1611278E-1,5.166041E-1,2.151275E-1,4.258213E-1,5.449541E-1,-0E0,1.5251493E-1,2.1511036E-1,2.2527547E-1,-0E0,2.1781202E-2,-0E0,2.2383397E-3,-0E0,-0E0,-3.4244743E-3,-0E0,4.864141E-3,-0E0,8.738975E-3],"split_indices":[160,170,121,148,21,14,0,146,101,133,0,94,0,0,0,0,0,0,0,0,0],"split_type":[0,0,0,0,0,0,0,0,0,0,0,0,0,0,0,0,0,0,0,0,0],"sum_hessian":[1.521813E2,8.655461E1,6.56267E1,4.176625E1,4.4788357E1,5.8741848E1,6.884853E0,2.3266798E1,1.8499453E1,3.3160553E1,1.1627804E1,5.524988E1,3.4919662E0,8.286721E0,1.4980078E1,4.9706116E0,1.3528842E1,1.2268276E1,2.0892277E1,1.365988E0,5.3883896E1],"tree_param":{"num_deleted":"0","num_feature":"174","num_nodes":"21","size_leaf_vector":"1"}},{"base_weights":[5.8049537E-2,8.539572E-3,1.2661143E-1,5.4098543E-2,-0E0,-0E0,1.4712796E-1,-0E0,7.843765E-2,-2.314327E-2,-0E0,1.6295564E-1,-0E0,-0E0,4.4303E-3,-2.9112948E-3,-0E0,-0E0,8.784771E-4,8.549155E-3,-0E0],"categories":[],"categories_nodes":[],"categories_segments":[],"categories_sizes":[],"default_left":[0,0,0,0,0,0,0,0,0,0,0,0,0,0,0,0,0,0,0,0,0],"id":55,"left_children":[1,3,5,7,9,-1,11,-1,13,15,17,19,-1,-1,-1,-1,-1,-1,-1,-1,-1],"loss_changes":[4.1808236E-1,7.88501E-2,2.0925134E-1,4.6590045E-2,1.654983E-2,0E0,8.12372E-2,0E0,2.4640754E-2,4.800341E-2,1.0493244E-2,7.034862E-2,0E0,0E0,0E0,0E0,0E0,0E0,0E0,0E0,0E0],"parents":[2147483647,0,0,1,1,2,2,3,3,4,4,6,6,8,8,9,9,10,10,11,11],"right_children":[2,4,6,8,10,-1,12,-1,14,16,18,20,-1,-1,-1,-1,-1,-1,-1,-1,-1],"split_conditions":[3.2735512E-1,2.1404332E-1,2.0730706E-1,1.6957742E-1,3.580586E-1,-0E0,4.9353355E-1,-0E0,5.897119E-2,2.4144036E-1,6.48304E-2,5.0348663E-1,-0E0,-0E0,4.4303E-3,-2.9112948E-3,-0E0,-0E0,8.784771E-4,8.549155E-3,-0E0],"split_indices":[169,103,173,131,19,0,128,0,165,170,173,44,0,0,0,0,0,0,0,0,0],"split_type":[0,0,0,0,0,0,0,0,0,0,0,0,0,0,0,0,0,0,0,0,0],"sum_hessian":[1.5433508E2,9.704774E1,5.7287354E1,2.8385166E1,6.8662575E1,5.455866E0,5.1831486E1,7.834422E0,2.0550743E1,2.9898977E1,3.8763596E1,4.512624E1,6.7052464E0,1.5239336E0,1.902681E1,1.8040821E1,1.1858158E1,5.770638E0,3.2992958E1,4.3303074E1,1.8231665E0],"tree_param":{"num_deleted":"0","num_feature":"174","num_nodes":"21","size_leaf_vector":"1"}},{"base_weights":[5.670351E-2,2.6145454E-2,1.3747114E-1,-0E0,7.514909E-2,1.6768868E-1,-0E0,2.9169736E-2,-2.5717618E-2,-0E0,9.619091E-2,1.9113629E-1,-0E0,1.9870426E-3,-0E0,-2.580371E-3,-0E0,5.454059E-3,-0E0,-0E0,1.0095519E-2],"categories":[],"categories_nodes":[],"categories_segments":[],"categories_sizes":[],"default_left":[0,0,0,0,0,0,0,0,0,0,0,0,0,0,0,0,0,0,0,0,0],"id":56,"left_children":[1,3,5,7,9,11,-1,13,15,-1,17,19,-1,-1,-1,-1,-1,-1,-1,-1,-1],"loss_changes":[2.3237881E-1,1.061797E-1,1.6604829E-1,6.602128E-2,5.710508E-2,1.0437411E-1,0E0,2.8755553E-2,4.4875406E-2,0E0,5.727473E-2,5.2984178E-2,0E0,0E0,0E0,0E0,0E0,0E0,0E0,0E0,0E0],"parents":[2147483647,0,0,1,1,2,2,3,3,4,4,5,5,7,7,8,8,10,10,11,11],"right_children":[2,4,6,8,10,12,-1,14,16,-1,18,20,-1,-1,-1,-1,-1,-1,-1,-1,-1],"split_conditions":[3.9526668E-1,3.694979E-1,4.459106E-1,2.604866E-1,2.176083E-1,5.2392656E-1,-0E0,5.1600134E-1,3.719694E-1,-0E0,5.858795E-1,1.2168953E-1,-0E0,1.9870426E-3,-0E0,-2.580371E-3,-0E0,5.454059E-3,-0E0,-0E0,1.0095519E-2],"split_indices":[147,111,31,125,171,151,0,35,115,0,144,115,0,0,0,0,0,0,0,0,0],"split_type":[0,0,0,0,0,0,0,0,0,0,0,0,0,0,0,0,0,0,0,0,0],"sum_hessian":[1.4764311E2,1.1526268E2,3.2380432E1,8.338816E1,3.1874521E1,2.7339132E1,5.0413E0,4.9380104E1,3.4008057E1,6.637809E0,2.5236712E1,2.3669596E1,3.669537E0,4.4349876E1,5.0302267E0,2.4543098E1,9.464959E0,2.4215765E1,1.0209464E0,1.2628745E0,2.2406721E1],"tree_param":{"num_deleted":"0","num_feature":"174","num_nodes":"21","size_leaf_vector":"1"}},{"base_weights":[5.3834386E-2,2.0114187E-2,1.4932227E-1,-0E0,1.0472083E-1,1.6459702E-1,-0E0,2.8644629E-2,-1.8333076E-2,1.2637855E-1,-0E0,-0E0,1.7607144E-1,-0E0,2.2116313E-3,-0E0,-2.253111E-3,7.05712E-3,-0E0,9.343008E-3,-0E0],"categories":[],"categories_nodes":[],"categories_segments":[],"categories_sizes":[],"default_left":[0,0,0,0,0,0,0,0,0,0,0,0,0,0,0,0,0,0,0,0,0],"id":57,"left_children":[1,3,5,7,9,11,-1,13,15,17,-1,-1,19,-1,-1,-1,-1,-1,-1,-1,-1],"loss_changes":[3.5474938E-1,1.272749E-1,1.0249883E-1,6.360775E-2,4.974331E-2,6.5101266E-2,0E0,4.393513E-2,4.966627E-2,3.4850165E-2,0E0,0E0,4.776454E-2,0E0,0E0,0E0,0E0,0E0,0E0,0E0,0E0],"parents":[2147483647,0,0,1,1,2,2,3,3,4,4,5,5,7,7,8,8,9,9,12,12],"right_children":[2,4,6,8,10,12,-1,14,16,18,-1,-1,20,-1,-1,-1,-1,-1,-1,-1,-1],"split_conditions":[3.922046E-1,9.166667E-1,5.03444E-1,5.483871E-1,2.894115E-1,9.925312E-2,-0E0,1.5115064E-1,2.0388211E-1,4.8948866E-1,-0E0,-0E0,5.03444E-1,-0E0,2.2116313E-3,-0E0,-2.253111E-3,7.05712E-3,-0E0,9.343008E-3,-0E0],"split_indices":[125,0,23,1,42,48,0,168,125,142,0,0,46,0,0,0,0,0,0,0,0],"split_type":[0,0,0,0,0,0,0,0,0,0,0,0,0,0,0,0,0,0,0,0,0],"sum_hessian":[1.5220554E2,1.1956982E2,3.263572E1,1.0451585E2,1.5053971E1,3.0465883E1,2.1698365E0,5.6404713E1,4.8111134E1,1.3137549E1,1.9164224E0,1.8676085E0,2.8598274E1,1.0875003E1,4.552971E1,1.6523483E1,3.1587652E1,1.2083995E1,1.0535545E0,2.6647078E1,1.9511966E0],"tree_param":{"num_deleted":"0","num_feature":"174","num_nodes":"21","size_leaf_vector":"1"}},{"base_weights":[6.2397227E-2,-0E0,9.249183E-2,2.526794E-2,-1.2094022E-2,1.149331E-1,-0E0,6.084254E-2,-0E0,-0E0,-2.8197223E-2,1.24929905E-1,-0E0,-0E0,2.1794088E-2,4.005281E-3,-0E0,-2.0297798E-3,-0E0,6.5716985E-3,-0E0,-0E0,-3.327807E-4,1.8324119E-3,-0E0],"categories":[],"categories_nodes":[],"categories_segments":[],"categories_sizes":[],"default_left":[0,0,0,0,0,0,0,0,0,0,0,0,0,0,0,0,0,0,0,0,0,0,0,0,0],"id":58,"left_children":[1,3,5,7,9,11,13,15,-1,-1,17,19,-1,21,23,-1,-1,-1,-1,-1,-1,-1,-1,-1,-1],"loss_changes":[2.3335445E-1,2.2242779E-2,1.4928842E-1,5.5523112E-2,1.2627278E-2,7.367915E-2,5.5272193E-3,3.771224E-2,0E0,0E0,1.4264474E-2,6.9140196E-2,0E0,4.5820125E-4,8.357339E-3,0E0,0E0,0E0,0E0,0E0,0E0,0E0,0E0,0E0,0E0],"parents":[2147483647,0,0,1,1,2,2,3,3,4,4,5,5,6,6,7,7,10,10,11,11,13,13,14,14],"right_children":[2,4,6,8,10,12,14,16,-1,-1,18,20,-1,22,24,-1,-1,-1,-1,-1,-1,-1,-1,-1,-1],"split_conditions":[2.2147739E-1,3.9342445E-1,4.1129395E-1,4.0873384E-1,1.5074371E-1,4.6898705E-1,3.2624108E-1,4.6268222E-1,-0E0,-0E0,4.2648238E-1,5.858795E-1,-0E0,1.3390794E-1,4.6518454E-1,4.005281E-3,-0E0,-2.0297798E-3,-0E0,6.5716985E-3,-0E0,-0E0,-3.327807E-4,1.8324119E-3,-0E0],"split_indices":[171,21,18,45,140,10,129,38,0,0,109,144,0,79,123,0,0,0,0,0,0,0,0,0,0],"split_type":[0,0,0,0,0,0,0,0,0,0,0,0,0,0,0,0,0,0,0,0,0,0,0,0,0],"sum_hessian":[1.4464175E2,5.2079784E1,9.256197E1,2.8119623E1,2.3960163E1,7.089356E1,2.1668411E1,1.9021282E1,9.09834E0,4.4867296E0,1.9473433E1,6.4568924E1,6.3246417E0,1.1031724E1,1.0636687E1,1.6426971E1,2.5943108E0,1.7533081E1,1.9403527E0,6.2242435E1,2.3264875E0,1.6879263E0,9.343798E0,9.337747E0,1.29894E0],"tree_param":{"num_deleted":"0","num_feature":"174","num_nodes":"25","size_leaf_vector":"1"}},{"base_weights":[5.4560408E-2,2.3807567E-2,1.7133273E-1,-0E0,5.7851452E-2,1.8684888E-1,-0E0,1.2703792E-2,-2.0428678E-2,1.09982215E-1,-0E0,1.9681239E-1,-0E0,2.4607272E-3,-0E0,-2.5002712E-3,-0E0,6.7886533E-3,-0E0,-0E0,6.3132856E-4,-0E0,1.0327724E-2],"categories":[],"categories_nodes":[],"categories_segments":[],"categories_sizes":[],"default_left":[0,0,0,0,0,0,0,0,0,0,0,0,0,0,0,0,0,0,0,0,0,0,0],"id":59,"left_children":[1,3,5,7,9,11,-1,13,15,17,19,21,-1,-1,-1,-1,-1,-1,-1,-1,-1,-1,-1],"loss_changes":[3.7689498E-1,1.09283425E-1,7.258892E-2,2.0051977E-2,1.1559847E-1,4.596293E-2,0E0,2.5722826E-2,3.5763398E-2,7.639757E-2,2.8404384E-3,4.02655E-2,0E0,0E0,0E0,0E0,0E0,0E0,0E0,0E0,0E0,0E0,0E0],"parents":[2147483647,0,0,1,1,2,2,3,3,4,4,5,5,7,7,8,8,9,9,10,10,11,11],"right_children":[2,4,6,8,10,12,-1,14,16,18,20,22,-1,-1,-1,-1,-1,-1,-1,-1,-1,-1,-1],"split_conditions":[4.1945377E-1,2.952281E-1,5.449541E-1,2.604866E-1,2.847721E-1,5.858795E-1,-0E0,2.304408E-1,3.4655073E-1,4.8290518E-1,2.969675E-1,1.6184462E-2,-0E0,2.4607272E-3,-0E0,-2.5002712E-3,-0E0,6.7886533E-3,-0E0,-0E0,6.3132856E-4,-0E0,1.0327724E-2],"split_indices":[153,162,95,125,7,28,0,81,125,143,143,36,0,0,0,0,0,0,0,0,0,0,0],"split_type":[0,0,0,0,0,0,0,0,0,0,0,0,0,0,0,0,0,0,0,0,0,0,0],"sum_hessian":[1.4856117E2,1.2396809E2,2.459308E1,7.115074E1,5.2817345E1,2.2598173E1,1.994907E0,3.993108E1,3.1219666E1,2.3447065E1,2.937028E1,2.145596E1,1.1422138E0,1.234748E1,2.75836E1,1.8679596E1,1.2540071E1,1.9185787E1,4.2612777E0,1.2554099E1,1.681618E1,1.1245359E0,2.0331423E1],"tree_param":{"num_deleted":"0","num_feature":"174","num_nodes":"23","size_leaf_vector":"1"}},{"base_weights":[5.2528765E-2,2.4263736E-2,1.5944692E-1,-0E0,5.3464014E-2,1.8854025E-1,-0E0,4.6451773E-2,-1.7301267E-3,6.9446705E-2,-0E0,-0E0,2.0934866E-1,3.4078117E-3,-0E0,-1.206526E-3,1.5035985E-4,4.1967747E-3,-0E0,1.1171342E-2,-0E0],"categories":[],"categories_nodes":[],"categories_segments":[],"categories_sizes":[],"default_left":[0,0,0,0,0,0,0,0,0,0,0,0,0,0,0,0,0,0,0,0,0],"id":60,"left_children":[1,3,5,7,9,11,-1,13,15,17,-1,-1,19,-1,-1,-1,-1,-1,-1,-1,-1],"loss_changes":[3.1545624E-1,7.03594E-2,1.4061451E-1,2.4099983E-2,6.381391E-2,1.3902164E-1,0E0,2.155863E-2,2.4277221E-2,5.54187E-2,0E0,0E0,7.633972E-2,0E0,0E0,0E0,0E0,0E0,0E0,0E0,0E0],"parents":[2147483647,0,0,1,1,2,2,3,3,4,4,5,5,7,7,8,8,9,9,12,12],"right_children":[2,4,6,8,10,12,-1,14,16,18,-1,-1,20,-1,-1,-1,-1,-1,-1,-1,-1],"split_conditions":[4.2730066E-1,3.0396184E-1,5.03444E-1,1.2664182E-1,4.6268222E-1,6.270806E-2,-0E0,3.9892277E-1,3.5690096E-1,4.575492E-1,-0E0,-0E0,6.4357406E-1,3.4078117E-3,-0E0,-1.206526E-3,1.5035985E-4,4.1967747E-3,-0E0,1.1171342E-2,-0E0],"split_indices":[160,171,115,144,130,103,0,63,72,57,0,0,138,0,0,0,0,0,0,0,0],"split_type":[0,0,0,0,0,0,0,0,0,0,0,0,0,0,0,0,0,0,0,0,0],"sum_hessian":[1.5329736E2,1.281332E2,2.5164167E1,7.792139E1,5.0211803E1,2.1668158E1,3.4960113E0,1.0073437E1,6.784795E1,4.2583763E1,7.6280375E0,1.1102321E0,2.0557924E1,8.784685E0,1.2887517E0,4.0608597E1,2.7239355E1,3.6701935E1,5.88183E0,1.9456034E1,1.101892E0],"tree_param":{"num_deleted":"0","num_feature":"174","num_nodes":"21","size_leaf_vector":"1"}},{"base_weights":[4.857569E-2,2.570247E-3,1.053619E-1,3.6639523E-2,-3.3158353E-3,1.6081525E-1,-0E0,5.6499384E-2,-0E0,-2.3763191E-2,3.1379532E-4,1.9305408E-1,-0E0,3.1254254E-2,-0E0,-0E0,4.077452E-3,-0E0,-1.9398764E-3,-0E0,7.004083E-4,1.0438302E-2,-0E0,-0E0,2.7498682E-3,-6.1972573E-4,-0E0],"categories":[],"categories_nodes":[],"categories_segments":[],"categories_sizes":[],"default_left":[0,0,0,0,0,0,0,0,0,0,0,0,0,0,0,0,0,0,0,0,0,0,0,0,0,0,0],"id":61,"left_children":[1,3,5,7,9,11,13,15,-1,17,19,21,-1,23,25,-1,-1,-1,-1,-1,-1,-1,-1,-1,-1,-1,-1],"loss_changes":[3.029912E-1,4.506821E-2,2.2642547E-1,4.0873583E-2,2.3120148E-2,2.1560591E-1,1.6253393E-2,2.8896935E-2,0E0,2.677925E-2,2.6877476E-3,9.784126E-2,0E0,1.9221958E-2,1.1604553E-3,0E0,0E0,0E0,0E0,0E0,0E0,0E0,0E0,0E0,0E0,0E0,0E0],"parents":[2147483647,0,0,1,1,2,2,3,3,4,4,5,5,6,6,7,7,9,9,10,10,11,11,13,13,14,14],"right_children":[2,4,6,8,10,12,14,16,-1,18,20,22,-1,24,26,-1,-1,-1,-1,-1,-1,-1,-1,-1,-1,-1,-1],"split_conditions":[3.1872323E-1,2.2315167E-1,3.0870062E-1,4.510485E-1,4.0295345E-1,4.5593956E-1,3.3352137E-1,1.9191247E-1,-0E0,2.6689476E-1,1.4417492E-1,5.4658383E-1,-0E0,2.303889E-1,3.9342445E-1,-0E0,4.077452E-3,-0E0,-1.9398764E-3,-0E0,7.004083E-4,1.0438302E-2,-0E0,-0E0,2.7498682E-3,-6.1972573E-4,-0E0],"split_indices":[157,119,8,24,66,85,163,111,0,45,171,88,0,170,109,0,0,0,0,0,0,0,0,0,0,0,0],"split_type":[0,0,0,0,0,0,0,0,0,0,0,0,0,0,0,0,0,0,0,0,0,0,0,0,0,0,0],"sum_hessian":[1.4813362E2,9.019511E1,5.793852E1,3.2539875E1,5.765523E1,3.3054794E1,2.4883724E1,2.5909302E1,6.6305747E0,4.1082123E1,1.6573109E1,2.841559E1,4.639202E0,1.5638943E1,9.244781E0,9.647337E0,1.6261965E1,8.504559E0,3.2577564E1,3.8672752E0,1.2705833E1,2.639944E1,2.0161507E0,4.9104285E0,1.0728515E1,6.553869E0,2.6909122E0],"tree_param":{"num_deleted":"0","num_feature":"174","num_nodes":"27","size_leaf_vector":"1"}},{"base_weights":[4.6642516E-2,2.6815003E-4,1.060839E-1,4.1516382E-2,-3.239542E-4,1.23271465E-1,-0E0,-0E0,7.947916E-2,-1.6747162E-2,1.9864892E-3,1.3634373E-1,-0E0,6.915826E-3,-0E0,-1.651948E-3,-0E0,-0E0,8.693525E-4,7.539625E-3,-0E0],"categories":[],"categories_nodes":[],"categories_segments":[],"categories_sizes":[],"default_left":[0,0,0,0,0,0,0,0,0,0,0,0,0,0,0,0,0,0,0,0,0],"id":62,"left_children":[1,3,5,7,9,11,-1,-1,13,15,17,19,-1,-1,-1,-1,-1,-1,-1,-1,-1],"loss_changes":[3.28735E-1,3.5236266E-2,1.4479947E-1,6.630924E-2,1.4629068E-2,8.470142E-2,0E0,0E0,7.3769875E-2,3.2587856E-2,6.2865354E-3,7.1149886E-2,0E0,0E0,0E0,0E0,0E0,0E0,0E0,0E0,0E0],"parents":[2147483647,0,0,1,1,2,2,3,3,4,4,5,5,8,8,9,9,10,10,11,11],"right_children":[2,4,6,8,10,12,-1,-1,14,16,18,20,-1,-1,-1,-1,-1,-1,-1,-1,-1],"split_conditions":[3.1872323E-1,2.4293295E-1,4.847974E-1,1.4525127E-1,2.8070223E-1,4.9353355E-1,-0E0,-0E0,3.4647825E-1,4.847974E-1,2.7596492E-1,4.6025625E-1,-0E0,6.915826E-3,-0E0,-1.651948E-3,-0E0,-0E0,8.693525E-4,7.539625E-3,-0E0],"split_indices":[155,45,53,103,162,102,0,0,35,44,45,38,0,0,0,0,0,0,0,0,0],"split_type":[0,0,0,0,0,0,0,0,0,0,0,0,0,0,0,0,0,0,0,0,0],"sum_hessian":[1.4913118E2,9.189817E1,5.723301E1,1.94427E1,7.245547E1,5.1655273E1,5.577737E0,4.367742E0,1.5074957E1,5.086929E1,2.158618E1,4.6598804E1,5.056471E0,8.163669E0,6.9112883E0,4.218127E1,8.688019E0,1.4963249E0,2.0089855E1,4.104315E1,5.5556498E0],"tree_param":{"num_deleted":"0","num_feature":"174","num_nodes":"21","size_leaf_vector":"1"}},{"base_weights":[3.624041E-2,-0E0,7.0547946E-2,-3.172466E-2,-0E0,1.035458E-1,-0E0,-0E0,-4.60426E-2,2.5706854E-2,-0E0,1.1299247E-1,-0E0,-0E0,1.0691567E-3,-2.4854597E-3,-0E0,-0E0,2.0044714E-3,-0E0,-6.508919E-4,-0E0,6.3118697E-3,9.594154E-4,-0E0],"categories":[],"categories_nodes":[],"categories_segments":[],"categories_sizes":[],"default_left":[0,0,0,0,0,0,0,0,0,0,0,0,0,0,0,0,0,0,0,0,0,0,0,0,0],"id":63,"left_children":[1,3,5,7,9,11,13,-1,15,17,19,21,-1,-1,23,-1,-1,-1,-1,-1,-1,-1,-1,-1,-1],"loss_changes":[2.2821027E-1,2.0598859E-2,1.7327198E-1,2.0098094E-2,1.1941866E-2,7.952988E-2,2.3171246E-5,0E0,3.1642802E-3,1.4306408E-2,2.5428152E-3,4.945141E-2,0E0,0E0,6.6667325E-3,0E0,0E0,0E0,0E0,0E0,0E0,0E0,0E0,0E0,0E0],"parents":[2147483647,0,0,1,1,2,2,3,3,4,4,5,5,6,6,8,8,9,9,10,10,11,11,14,14],"right_children":[2,4,6,8,10,12,14,-1,16,18,20,22,-1,-1,24,-1,-1,-1,-1,-1,-1,-1,-1,-1,-1],"split_conditions":[2.4144036E-1,1.2170422E-1,3.5781765E-1,1.3977009E-1,2.3156905E-1,5.858795E-1,3.322276E-1,-0E0,5.7237417E-1,1.7326826E-1,1.9528942E-1,1.6980268E-1,-0E0,-0E0,5.0898594E-1,-2.4854597E-3,-0E0,-0E0,2.0044714E-3,-0E0,-6.508919E-4,-0E0,6.3118697E-3,9.594154E-4,-0E0],"split_indices":[170,173,26,78,126,144,49,0,9,39,169,139,0,0,110,0,0,0,0,0,0,0,0,0,0],"split_type":[0,0,0,0,0,0,0,0,0,0,0,0,0,0,0,0,0,0,0,0,0,0,0,0,0],"sum_hessian":[1.4348505E2,6.0504498E1,8.2980545E1,1.9466764E1,4.103773E1,5.4144455E1,2.8836086E1,1.2693725E0,1.8197393E1,1.7070675E1,2.3967058E1,5.1538445E1,2.606012E0,9.565483E0,1.9270603E1,1.6750372E1,1.4470216E0,1.7386069E0,1.5332067E1,9.962022E0,1.4005036E1,7.343232E0,4.4195213E1,1.7169651E1,2.1009533E0],"tree_param":{"num_deleted":"0","num_feature":"174","num_nodes":"25","size_leaf_vector":"1"}},{"base_weights":[4.6842262E-2,3.7832088E-3,9.960667E-2,4.1832246E-2,-0E0,1.3074723E-1,-0E0,8.042293E-2,-0E0,-3.0822864E-2,5.441852E-3,1.4299034E-1,-0E0,5.277237E-3,-0E0,-0E0,-2.805139E-3,1.1403203E-3,-0E0,-0E0,7.4561327E-3],"categories":[],"categories_nodes":[],"categories_segments":[],"categories_sizes":[],"default_left":[0,0,0,0,0,0,0,0,0,0,0,0,0,0,0,0,0,0,0,0,0],"id":64,"left_children":[1,3,5,7,9,11,-1,13,-1,15,17,19,-1,-1,-1,-1,-1,-1,-1,-1,-1],"loss_changes":[2.5242257E-1,4.417863E-2,1.3050914E-1,4.237813E-2,3.0073259E-2,6.328148E-2,0E0,4.9678907E-2,0E0,4.7158264E-2,1.2374523E-2,4.1372597E-2,0E0,0E0,0E0,0E0,0E0,0E0,0E0,0E0,0E0],"parents":[2147483647,0,0,1,1,2,2,3,3,4,4,5,5,7,7,9,9,10,10,11,11],"right_children":[2,4,6,8,10,12,-1,14,-1,16,18,20,-1,-1,-1,-1,-1,-1,-1,-1,-1],"split_conditions":[3.1306824E-1,5E-1,3.7417793E-1,3.814132E-1,3.543237E-1,4.9395224E-1,-0E0,4.115868E-1,-0E0,2.596825E-1,3.969831E-1,4.829385E-3,-0E0,5.277237E-3,-0E0,-0E0,-2.805139E-3,1.1403203E-3,-0E0,-0E0,7.4561327E-3],"split_indices":[173,2,19,18,9,96,0,171,0,26,86,55,0,0,0,0,0,0,0,0,0],"split_type":[0,0,0,0,0,0,0,0,0,0,0,0,0,0,0,0,0,0,0,0,0],"sum_hessian":[1.4667319E2,8.970321E1,5.6969982E1,2.4987705E1,6.47155E1,4.027899E1,1.669099E1,1.2583339E1,1.2404366E1,2.9526386E1,3.5189114E1,3.6607857E1,3.6711338E0,1.1346291E1,1.2370477E0,6.329625E0,2.3196762E1,2.4851543E1,1.0337571E1,1.1689895E0,3.543887E1],"tree_param":{"num_deleted":"0",