{"learner":{"attributes":{"best_iteration":"10","best_score":"0.5561907760837361"},"feature_names":["month","day","hour","day_of_week","hour_sin","hour_cos","lag_1h","lag_2h","lag_3h","lag_4h","lag_5h","lag_6h","lag_7h","lag_8h","lag_9h","lag_10h","lag_11h","lag_12h","lag_13h","lag_14h","lag_15h","lag_16h","lag_17h","lag_18h","lag_19h","lag_20h","lag_21h","lag_22h","lag_23h","lag_24h","lag_25h","lag_26h","lag_27h","lag_28h","lag_29h","lag_30h","lag_31h","lag_32h","lag_33h","lag_34h","lag_35h","lag_36h","lag_37h","lag_38h","lag_39h","lag_40h","lag_41h","lag_42h","lag_43h","lag_44h","lag_45h","lag_46h","lag_47h","lag_48h","lag_49h","lag_50h","lag_51h","lag_52h","lag_53h","lag_54h","lag_55h","lag_56h","lag_57h","lag_58h","lag_59h","lag_60h","lag_61h","lag_62h","lag_63h","lag_64h","lag_65h","lag_66h","lag_67h","lag_68h","lag_69h","lag_70h","lag_71h","lag_72h","lag_73h","lag_74h","lag_75h","lag_76h","lag_77h","lag_78h","lag_79h","lag_80h","lag_81h","lag_82h","lag_83h","lag_84h","lag_85h","lag_86h","lag_87h","lag_88h","lag_89h","lag_90h","lag_91h","lag_92h","lag_93h","lag_94h","lag_95h","lag_96h","lag_97h","lag_98h","lag_99h","lag_100h","lag_101h","lag_102h","lag_103h","lag_104h","lag_105h","lag_106h","lag_107h","lag_108h","lag_109h","lag_110h","lag_111h","lag_112h","lag_113h","lag_114h","lag_115h","lag_116h","lag_117h","lag_118h","lag_119h","lag_120h","lag_121h","lag_122h","lag_123h","lag_124h","lag_125h","lag_126h","lag_127h","lag_128h","lag_129h","lag_130h","lag_131h","lag_132h","lag_133h","lag_134h","lag_135h","lag_136h","lag_137h","lag_138h","lag_139h","lag_140h","lag_141h","lag_142h","lag_143h","lag_144h","lag_145h","lag_146h","lag_147h","lag_148h","lag_149h","lag_150h","lag_151h","lag_152h","lag_153h","lag_154h","lag_155h","lag_156h","lag_157h","lag_158h","lag_159h","lag_160h","lag_161h","lag_162h","lag_163h","lag_164h","lag_165h","lag_166h","lag_167h","lag_168h"],"feature_types":[],"gradient_booster":{"model":{"gbtree_model_param":{"num_parallel_tree":"1","num_trees":"211"},"iteration_indptr":[0,1,2,3,4,5,6,7,8,9,10,11,12,13,14,15,16,17,18,19,20,21,22,23,24,25,26,27,28,29,30,31,32,33,34,35,36,37,38,39,40,41,42,43,44,45,46,47,48,49,50,51,52,53,54,55,56,57,58,59,60,61,62,63,64,65,66,67,68,69,70,71,72,73,74,75,76,77,78,79,80,81,82,83,84,85,86,87,88,89,90,91,92,93,94,95,96,97,98,99,100,101,102,103,104,105,106,107,108,109,110,111,112,113,114,115,116,117,118,119,120,121,122,123,124,125,126,127,128,129,130,131,132,133,134,135,136,137,138,139,140,141,142,143,144,145,146,147,148,149,150,151,152,153,154,155,156,157,158,159,160,161,162,163,164,165,166,167,168,169,170,171,172,173,174,175,176,177,178,179,180,181,182,183,184,185,186,187,188,189,190,191,192,193,194,195,196,197,198,199,200,201,202,203,204,205,206,207,208,209,210,211],"tree_info":[0,0,0,0,0,0,0,0,0,0,0,0,0,0,0,0,0,0,0,0,0,0,0,0,0,0,0,0,0,0,0,0,0,0,0,0,0,0,0,0,0,0,0,0,0,0,0,0,0,0,0,0,0,0,0,0,0,0,0,0,0,0,0,0,0,0,0,0,0,0,0,0,0,0,0,0,0,0,0,0,0,0,0,0,0,0,0,0,0,0,0,0,0,0,0,0,0,0,0,0,0,0,0,0,0,0,0,0,0,0,0,0,0,0,0,0,0,0,0,0,0,0,0,0,0,0,0,0,0,0,0,0,0,0,0,0,0,0,0,0,0,0,0,0,0,0,0,0,0,0,0,0,0,0,0,0,0,0,0,0,0,0,0,0,0,0,0,0,0,0,0,0,0,0,0,0,0,0,0,0,0,0,0,0,0,0,0,0,0,0,0,0,0,0,0,0,0,0,0,0,0,0,0,0,0,0,0,0,0,0,0],"trees":[{"base_weights":[-1.8082728E-3,-4.3134913E-1,7.548963E-1,-6.270248E-1,-1.425337E-1,4.9251634E-1,1.3042022E0,-6.996204E-1,-3.9415473E-1,-3.378279E-1,1.4825426E-1,3.010088E-1,6.66265E-1,1.2144816E0,2.1206353E0,-8.03556E-1,-6.544697E-1,-5.280459E-1,-1.7167456E-1,-4.315322E-1,-1.907085E-1,-1.154809E-1,3.263753E-1,1.8676788E-1,5.309428E-1,5.291041E-1,8.9642376E-1,1.4651903E0,1.0060781E0,2.6133568E0,1.8417411E0,-8.582599E-1,-7.310555E-1,-5.873117E-1,-7.1045923E-1,-6.3709927E-1,-4.4717577E-1,-3.6552173E-1,-2.3493513E-2,-4.618293E-1,-2.0886698E-1,-9.444898E-2,-3.459578E-1,-2.338807E-1,8.633247E-2,1.11282416E-1,4.9263036E-1,2.1273015E-1,-2.1422681E-1,8.9394766E-1,3.7451157E-1,3.5953185E-1,6.54576E-1,7.5424564E-1,1.1847783E0,1.2070675E0,1.724766E0,8.0224514E-1,1.163857E0,-0E0,2.6406028E0,7.253863E-1,1.9288169E0,-8.6023366E-1,-0E0,-7.3638105E-1,-0E0,-6.6922885E-1,-4.836469E-1,-0E0,-7.1122247E-1,-6.917633E-1,-5.030424E-1,-2.8213078E-1,-5.379459E-1,-4.3980825E-1,-7.7076234E-2,-3.062284E-1,1.0928189E-1,-3.7533104E-1,-5.421531E-1,-2.3061873E-1,9.3976915E-1,-2.1973231E-1,2.4253955E-2,-1.1388909E-1,-4.0830716E-1,-3.2127556E-1,-1.247309E-1,-1.16344E-1,3.9733195E-1,-8.821565E-2,2.654119E-1,9.5498E-2,5.8318263E-1,1.362871E-1,3.162451E-1,-3.280127E-1,-0E0,5.9398353E-1,1.0858011E0,8.947031E-4,4.1429868E-1,4.22112E-1,1.1161366E-1,5.5235213E-1,8.7280494E-1,7.233455E-1,1.5415101E0,8.8295656E-1,1.3197871E0,8.4590614E-1,1.3317307E0,1.2595326E0,1.8476797E0,6.1514765E-1,9.6761423E-1,1.0239702E0,1.3689797E0,2.6626923E0,-0E0,-0E0,2.7164873E-1,8.770389E-1,2.0085545E0,-2.2397916E-1,-0E0,-1.9225779E-1,-0E0,1.0248179E-1,-1.24331325E-1,-1.8736553E-1,-1.5098657E-1,-8.8783644E-2,-1.495745E-1,-1.901356E-1,-1.7160769E-1,-0E0,-1.8190491E-1,-1.4223428E-1,-0E0,-9.040279E-2,2.5897054E-2,-1.0020391E-1,-1.6345744E-1,-1.21314056E-1,2.4813432E-2,-1.060979E-1,8.383048E-3,2.0075881E-1,-9.1409326E-2,5.0794873E-2,-7.473131E-2,-3.8198415E-2,-1.0888518E-1,-5.405633E-2,-1.4822108E-1,-1.73269E-2,-8.7042265E-2,3.1109345E-1,-0E0,-5.958444E-2,3.3542645E-1,-3.186081E-2,7.165507E-2,-9.704718E-2,4.5875568E-2,-1.6791136E-3,-1.1634953E-1,5.0467804E-2,-9.184829E-2,-5.9831636E-3,-9.00455E-2,-6.521506E-3,-1.2635614E-1,-3.843307E-2,1.4272358E-1,1.2018687E-1,-3.3533655E-2,2.8586842E-3,1.0567828E-1,-3.1701423E-2,7.1255565E-2,8.6479686E-2,1.8613096E-1,1.1612181E-2,5.6220602E-2,3.806186E-2,1.06371045E-1,-1.0557551E-1,-0E0,-5.8838572E-2,4.6044193E-2,6.5990835E-2,2.1330975E-1,2.0409201E-1,3.406315E-1,5.9239592E-2,-8.4527835E-2,9.647727E-2,1.9194283E-1,9.772902E-2,2.1149246E-1,-3.884059E-3,1.2470463E-1,1.5171714E-1,-1.2077105E-2,3.0922028E-1,1.9788083E-1,1.4616574E-1,2.1985489E-1,2.2006708E-1,6.0840166E-1,2.5707006E-1,6.478027E-2,3.48538E-1,-0E0,1.9508743E-1,4.0759534E-1,2.2086933E-1,3.7260497E-1,3.8034117E-1,1.5864325E-1,3.6670667E-1,5.009699E-1,9.166137E-2,2.075199E-1,2.765775E-1,1.3252167E-1,2.5312588E-1,4.091054E-1,2.3879486E-1,3.9213142E-1,7.2747433E-1,4.289401E-1,1.5433327E-3,3.025194E-1,5.347029E-1,1.2373325E-1],"categories":[],"categories_nodes":[],"categories_segments":[],"categories_sizes":[],"default_left":[0,0,0,0,0,0,0,0,0,0,0,0,0,0,0,0,0,0,0,0,0,0,0,0,0,0,0,0,0,0,0,0,0,0,0,0,0,0,0,0,0,0,0,0,0,0,0,0,0,0,0,0,0,0,0,0,0,0,0,0,0,0,0,0,0,0,0,0,0,0,0,0,0,0,0,0,0,0,0,0,0,0,0,0,0,0,0,0,0,0,0,0,0,0,0,0,0,0,0,0,0,0,0,0,0,0,0,0,0,0,0,0,0,0,0,0,0,0,0,0,0,0,0,0,0,0,0,0,0,0,0,0,0,0,0,0,0,0,0,0,0,0,0,0,0,0,0,0,0,0,0,0,0,0,0,0,0,0,0,0,0,0,0,0,0,0,0,0,0,0,0,0,0,0,0,0,0,0,0,0,0,0,0,0,0,0,0,0,0,0,0,0,0,0,0,0,0,0,0,0,0,0,0,0,0,0,0,0,0,0,0,0,0,0,0,0,0,0,0,0,0,0,0,0,0,0,0,0,0,0,0,0,0,0,0,0,0,0,0],"id":0,"left_children":[1,3,5,7,9,11,13,15,17,19,21,23,25,27,29,31,33,35,37,39,41,43,45,47,49,51,53,55,57,59,61,63,65,67,69,71,73,75,77,79,81,83,85,87,89,91,93,95,97,99,101,103,105,107,109,111,113,115,117,-1,119,121,123,125,-1,127,129,131,133,-1,135,137,139,141,143,145,147,149,151,153,155,157,159,161,163,165,167,169,171,173,175,177,179,181,183,185,187,189,191,193,195,197,199,201,203,205,207,209,211,213,215,217,219,221,223,225,227,229,231,233,-1,-1,-1,235,237,-1,-1,-1,-1,-1,-1,-1,-1,-1,-1,-1,-1,-1,-1,-1,-1,-1,-1,-1,-1,-1,-1,-1,-1,-1,-1,-1,-1,-1,-1,-1,-1,-1,-1,-1,-1,-1,-1,-1,-1,-1,-1,-1,-1,-1,-1,-1,-1,-1,-1,-1,-1,-1,-1,-1,-1,-1,-1,-1,-1,-1,-1,-1,-1,-1,-1,-1,-1,-1,-1,-1,-1,-1,-1,-1,-1,-1,-1,-1,-1,-1,-1,-1,-1,-1,-1,-1,-1,-1,-1,-1,-1,-1,-1,-1,-1,-1,-1,-1,-1,-1,-1,-1,-1,-1,-1,-1,-1,-1,-1,-1,-1,-1,-1],"loss_changes":[6.941818E3,7.6922363E2,1.1122734E3,1.3601123E2,3.1290204E2,1.7315247E2,1.7740381E2,2.7191406E1,5.6919617E1,4.479541E1,1.0409317E2,6.479326E1,8.480432E1,1.14069824E2,2.4844604E1,5.3310547E0,1.4673584E1,9.366333E0,2.063889E1,1.2852844E1,1.8819115E1,2.1419235E1,4.6676743E1,1.7440563E1,4.5371475E1,3.5511475E1,3.9179016E1,6.3555176E1,3.704724E1,5.194824E0,1.1862488E1,2.078003E0,2.5733337E0,1.5444214E1,1.5340576E0,2.2846985E0,9.596954E0,6.2291756E0,1.5902538E1,1.1226807E1,5.7247667E0,1.2078461E1,6.5590286E0,4.938593E0,2.0910673E1,1.801704E1,2.6052704E1,1.1988853E1,2.1890044E0,1.2000336E1,8.247734E0,1.0922409E1,2.023117E1,1.3583252E1,1.0421509E1,2.0145813E1,2.3696777E1,1.4842651E1,1.6300781E1,0E0,2.7504883E0,3.5495362E0,8.053589E0,1.4655762E0,0E0,2.0229187E0,1.7648146E0,3.4064026E0,1.046962E1,0E0,6.732178E-1,1.8970795E0,2.9739418E0,6.6158485E0,5.032196E0,3.9196014E0,2.811892E0,6.543353E0,9.637746E0,7.946228E0,7.6479187E0,3.766777E0,7.622678E-1,4.9413567E0,1.5225072E1,8.375784E0,5.6046257E0,5.2893715E0,5.452574E0,6.1734324E0,1.1268986E1,5.391416E0,1.1461466E1,5.64453E0,1.8869095E1,6.42865E0,9.883202E0,1.7956748E0,1.6002802E0,6.527775E0,7.005966E0,4.3517156E0,6.038185E0,9.225304E0,7.551173E0,1.3148651E1,8.301483E0,1.1360138E1,8.472408E0,5.879875E0,7.0806885E0,6.1876755E0,1.5303223E1,1.1764755E1,7.946045E0,1.1226143E1,1.0589233E1,7.7545166E0,1.36796875E1,2.7548828E0,0E0,0E0,0E0,2.1849623E0,6.746277E0,0E0,0E0,0E0,0E0,0E0,0E0,0E0,0E0,0E0,0E0,0E0,0E0,0E0,0E0,0E0,0E0,0E0,0E0,0E0,0E0,0E0,0E0,0E0,0E0,0E0,0E0,0E0,0E0,0E0,0E0,0E0,0E0,0E0,0E0,0E0,0E0,0E0,0E0,0E0,0E0,0E0,0E0,0E0,0E0,0E0,0E0,0E0,0E0,0E0,0E0,0E0,0E0,0E0,0E0,0E0,0E0,0E0,0E0,0E0,0E0,0E0,0E0,0E0,0E0,0E0,0E0,0E0,0E0,0E0,0E0,0E0,0E0,0E0,0E0,0E0,0E0,0E0,0E0,0E0,0E0,0E0,0E0,0E0,0E0,0E0,0E0,0E0,0E0,0E0,0E0,0E0,0E0,0E0,0E0,0E0,0E0,0E0,0E0,0E0,0E0,0E0,0E0,0E0,0E0,0E0,0E0,0E0,0E0,0E0,0E0,0E0,0E0,0E0,0E0],"parents":[2147483647,0,0,1,1,2,2,3,3,4,4,5,5,6,6,7,7,8,8,9,9,10,10,11,11,12,12,13,13,14,14,15,15,16,16,17,17,18,18,19,19,20,20,21,21,22,22,23,23,24,24,25,25,26,26,27,27,28,28,29,29,30,30,31,31,32,32,33,33,34,34,35,35,36,36,37,37,38,38,39,39,40,40,41,41,42,42,43,43,44,44,45,45,46,46,47,47,48,48,49,49,50,50,51,51,52,52,53,53,54,54,55,55,56,56,57,57,58,58,60,60,61,61,62,62,63,63,65,65,66,66,67,67,68,68,70,70,71,71,72,72,73,73,74,74,75,75,76,76,77,77,78,78,79,79,80,80,81,81,82,82,83,83,84,84,85,85,86,86,87,87,88,88,89,89,90,90,91,91,92,92,93,93,94,94,95,95,96,96,97,97,98,98,99,99,100,100,101,101,102,102,103,103,104,104,105,105,106,106,107,107,108,108,109,109,110,110,111,111,112,112,113,113,114,114,115,115,116,116,117,117,118,118,119,119,123,123,124,124],"right_children":[2,4,6,8,10,12,14,16,18,20,22,24,26,28,30,32,34,36,38,40,42,44,46,48,50,52,54,56,58,60,62,64,66,68,70,72,74,76,78,80,82,84,86,88,90,92,94,96,98,100,102,104,106,108,110,112,114,116,118,-1,120,122,124,126,-1,128,130,132,134,-1,136,138,140,142,144,146,148,150,152,154,156,158,160,162,164,166,168,170,172,174,176,178,180,182,184,186,188,190,192,194,196,198,200,202,204,206,208,210,212,214,216,218,220,222,224,226,228,230,232,234,-1,-1,-1,236,238,-1,-1,-1,-1,-1,-1,-1,-1,-1,-1,-1,-1,-1,-1,-1,-1,-1,-1,-1,-1,-1,-1,-1,-1,-1,-1,-1,-1,-1,-1,-1,-1,-1,-1,-1,-1,-1,-1,-1,-1,-1,-1,-1,-1,-1,-1,-1,-1,-1,-1,-1,-1,-1,-1,-1,-1,-1,-1,-1,-1,-1,-1,-1,-1,-1,-1,-1,-1,-1,-1,-1,-1,-1,-1,-1,-1,-1,-1,-1,-1,-1,-1,-1,-1,-1,-1,-1,-1,-1,-1,-1,-1,-1,-1,-1,-1,-1,-1,-1,-1,-1,-1,-1,-1,-1,-1,-1,-1,-1,-1,-1,-1,-1,-1],"split_conditions":[1.7182322E-1,4.6780452E-2,3.1228676E-1,1.5780522E-1,1.5095751E-1,2.147668E-1,5.596938E-1,2.0499134E-2,1.952941E-1,9.9695005E-2,1.6012688E-1,2.0782623E-1,2.0079279E-1,-5E-1,-7.0710677E-1,1.8993715E-2,5E-1,8.3047405E-2,1.6241434E-1,1.4997996E-1,1.2127922E-1,1.8299168E-1,1.8411097E-1,9.659258E-1,1.4997508E-1,9.9695005E-2,2.6732457E-1,2.2850132E-1,7.9386495E-2,1.9824628E-2,2.229293E-2,4.0311056E-1,4.3792585E-1,4.6061955E-2,4.6580057E-3,3.2957956E-2,3.58075E-2,1E0,9.804295E-2,5E-1,4.185802E-1,9.586303E-2,3.217592E-2,1.19065076E-1,1.9344653E-1,1.0139105E-1,-5E-1,1.1349795E-1,3.3598736E-1,1.631084E-1,1.7849009E-1,3.5539165E-1,2.4538355E-1,4.9228227E-1,1.9925804E-1,4.5182165E-2,1.7456035E-1,3.8076875E-1,2.1806113E-1,-0E0,5.107921E-1,1.2761371E-1,3.191198E-2,5.107921E-1,-0E0,5.1041573E-1,7.543721E-2,3.0362573E-2,6.9743E-2,-0E0,3.3348974E-2,5.801734E-3,2.8807786E-1,2.64519E-1,4.418507E-2,4.2919636E-1,9.2920616E-2,2.2283155E-2,2.0748898E-1,3.5392046E-2,-5E-1,8.11754E-2,9.166667E-1,5.999492E-1,1.829037E-1,1.3177806E-1,2.802135E-2,1.3333725E-2,1.6725808E-1,2.5692347E-1,3.2229684E-2,1.6378779E-2,9.979765E-2,5.3769905E-2,9.2055485E-2,9.240252E-2,1.2328807E-1,1.2778479E-1,2.9243281E-2,1.3196379E-1,4.088585E-2,1.6780551E-1,4.0386814E-1,3.3093834E-1,1.3672933E-1,9.659258E-1,3.421899E-2,5.066131E-2,1.14675894E-1,3.4458488E-1,4.4967106E-1,3.364175E-1,4.9576234E-2,2.091166E-1,5.2992757E-2,4.24206E-2,4.1111666E-1,4.9105057E-1,1.12632826E-1,3.5603195E-1,-0E0,-0E0,2.7164873E-1,1.9638894E-1,5.107921E-1,-2.2397916E-1,-0E0,-1.9225779E-1,-0E0,1.0248179E-1,-1.24331325E-1,-1.8736553E-1,-1.5098657E-1,-8.8783644E-2,-1.495745E-1,-1.901356E-1,-1.7160769E-1,-0E0,-1.8190491E-1,-1.4223428E-1,-0E0,-9.040279E-2,2.5897054E-2,-1.0020391E-1,-1.6345744E-1,-1.21314056E-1,2.4813432E-2,-1.060979E-1,8.383048E-3,2.0075881E-1,-9.1409326E-2,5.0794873E-2,-7.473131E-2,-3.8198415E-2,-1.0888518E-1,-5.405633E-2,-1.4822108E-1,-1.73269E-2,-8.7042265E-2,3.1109345E-1,-0E0,-5.958444E-2,3.3542645E-1,-3.186081E-2,7.165507E-2,-9.704718E-2,4.5875568E-2,-1.6791136E-3,-1.1634953E-1,5.0467804E-2,-9.184829E-2,-5.9831636E-3,-9.00455E-2,-6.521506E-3,-1.2635614E-1,-3.843307E-2,1.4272358E-1,1.2018687E-1,-3.3533655E-2,2.8586842E-3,1.0567828E-1,-3.1701423E-2,7.1255565E-2,8.6479686E-2,1.8613096E-1,1.1612181E-2,5.6220602E-2,3.806186E-2,1.06371045E-1,-1.0557551E-1,-0E0,-5.8838572E-2,4.6044193E-2,6.5990835E-2,2.1330975E-1,2.0409201E-1,3.406315E-1,5.9239592E-2,-8.4527835E-2,9.647727E-2,1.9194283E-1,9.772902E-2,2.1149246E-1,-3.884059E-3,1.2470463E-1,1.5171714E-1,-1.2077105E-2,3.0922028E-1,1.9788083E-1,1.4616574E-1,2.1985489E-1,2.2006708E-1,6.0840166E-1,2.5707006E-1,6.478027E-2,3.48538E-1,-0E0,1.9508743E-1,4.0759534E-1,2.2086933E-1,3.7260497E-1,3.8034117E-1,1.5864325E-1,3.6670667E-1,5.009699E-1,9.166137E-2,2.075199E-1,2.765775E-1,1.3252167E-1,2.5312588E-1,4.091054E-1,2.3879486E-1,3.9213142E-1,7.2747433E-1,4.289401E-1,1.5433327E-3,3.025194E-1,5.347029E-1,1.2373325E-1],"split_indices":[173,173,173,151,7,173,173,173,7,151,151,6,7,4,4,151,5,163,163,173,109,54,126,5,172,151,126,151,36,63,10,67,104,163,123,173,159,4,30,5,132,173,169,30,103,102,5,7,98,42,173,172,126,78,54,91,102,173,7,0,24,78,150,116,0,165,19,173,167,0,173,59,30,162,168,15,6,43,28,172,4,27,0,101,127,163,134,48,172,24,161,96,127,163,173,128,79,35,81,104,95,50,13,35,131,5,87,117,113,135,85,73,127,74,143,104,148,173,158,81,0,0,0,76,135,0,0,0,0,0,0,0,0,0,0,0,0,0,0,0,0,0,0,0,0,0,0,0,0,0,0,0,0,0,0,0,0,0,0,0,0,0,0,0,0,0,0,0,0,0,0,0,0,0,0,0,0,0,0,0,0,0,0,0,0,0,0,0,0,0,0,0,0,0,0,0,0,0,0,0,0,0,0,0,0,0,0,0,0,0,0,0,0,0,0,0,0,0,0,0,0,0,0,0,0,0,0,0,0,0,0,0,0,0,0,0,0,0,0],"split_type":[0,0,0,0,0,0,0,0,0,0,0,0,0,0,0,0,0,0,0,0,0,0,0,0,0,0,0,0,0,0,0,0,0,0,0,0,0,0,0,0,0,0,0,0,0,0,0,0,0,0,0,0,0,0,0,0,0,0,0,0,0,0,0,0,0,0,0,0,0,0,0,0,0,0,0,0,0,0,0,0,0,0,0,0,0,0,0,0,0,0,0,0,0,0,0,0,0,0,0,0,0,0,0,0,0,0,0,0,0,0,0,0,0,0,0,0,0,0,0,0,0,0,0,0,0,0,0,0,0,0,0,0,0,0,0,0,0,0,0,0,0,0,0,0,0,0,0,0,0,0,0,0,0,0,0,0,0,0,0,0,0,0,0,0,0,0,0,0,0,0,0,0,0,0,0,0,0,0,0,0,0,0,0,0,0,0,0,0,0,0,0,0,0,0,0,0,0,0,0,0,0,0,0,0,0,0,0,0,0,0,0,0,0,0,0,0,0,0,0,0,0,0,0,0,0,0,0,0,0,0,0,0,0,0,0,0,0,0,0],"sum_hessian":[2.1356E4,1.3624E4,7.732E3,8.119E3,5.505E3,5.235E3,2.497E3,6.185E3,1.934E3,3.295E3,2.21E3,2.494E3,2.741E3,2.253E3,2.44E2,1.862E3,4.323E3,1.204E3,7.3E2,2.008E3,1.287E3,8.89E2,1.321E3,1.67E3,8.24E2,1.722E3,1.019E3,1.018E3,1.235E3,8.4E1,1.6E2,1.048E3,8.14E2,1.978E3,2.345E3,5.05E2,6.99E2,3.13E2,4.17E2,1.763E3,2.45E2,7.99E2,4.88E2,5.63E2,3.26E2,5.79E2,7.42E2,1.571E3,9.9E1,2.45E2,5.79E2,7.37E2,9.85E2,6.87E2,3.32E2,5.15E2,5.03E2,5.44E2,6.91E2,1E0,8.3E1,1.3E1,1.47E2,1.046E3,2E0,8.07E2,7E0,1.097E3,8.81E2,2E0,2.343E3,3.51E2,1.54E2,2.53E2,4.46E2,2.46E2,6.7E1,1.35E2,2.82E2,8.57E2,9.06E2,2.42E2,3E0,3.92E2,4.07E2,1.07E2,3.81E2,3.07E2,2.56E2,1.96E2,1.3E2,2.5E2,3.29E2,1.4E2,6.02E2,9.1E2,6.61E2,6.2E1,3.7E1,9.9E1,1.46E2,5.8E1,5.21E2,5.85E2,1.52E2,6.76E2,3.09E2,6.64E2,2.3E1,1.07E2,2.25E2,1.36E2,3.79E2,1.09E2,3.94E2,2.6E2,2.84E2,4.17E2,2.74E2,8.2E1,1E0,4E0,9E0,1.2E1,1.35E2,1.045E3,1E0,8.04E2,3E0,3E0,4E0,6.83E2,4.14E2,3.51E2,5.3E2,1.661E3,6.82E2,4E0,3.47E2,1.4E2,1.4E1,2.18E2,3.5E1,1.72E2,2.74E2,2.36E2,1E1,1.8E1,4.9E1,4E0,1.31E2,2.34E2,4.8E1,1.41E2,7.16E2,7.3E1,8.33E2,9.8E1,1.44E2,2E0,1E0,3.91E2,1E0,2.55E2,1.52E2,5.8E1,4.9E1,3.6E1,3.45E2,1.6E1,2.91E2,1.79E2,7.7E1,1.6E2,3.6E1,2.7E1,1.03E2,1.5E1,2.35E2,1.2E2,2.09E2,6.1E1,7.9E1,2.12E2,3.9E2,4.3E2,4.8E2,2.38E2,4.23E2,5.1E1,1.1E1,1.8E1,1.9E1,4.2E1,5.7E1,6.6E1,8E1,3.6E1,2.2E1,4.64E2,5.7E1,5.27E2,5.8E1,1.12E2,4E1,6.44E2,3.2E1,7.6E1,2.33E2,2.92E2,3.72E2,1.4E1,9E0,9E1,1.7E1,2.22E2,3E0,1.23E2,1.3E1,6.9E1,3.1E2,8.1E1,2.8E1,6.5E1,3.29E2,1.1E2,1.5E2,2.32E2,5.2E1,3.86E2,3.1E1,6.8E1,2.06E2,7E1,1.2E1,4E0,8E0,1.3E2,5E0],"tree_param":{"num_deleted":"0","num_feature":"174","num_nodes":"239","size_leaf_vector":"1"}},{"base_weights":[3.043795E-3,-3.0126318E-1,6.015791E-1,-4.435128E-1,-4.810695E-2,4.1918287E-1,1.044509E0,-5.0130564E-1,-2.687295E-1,-2.0489097E-1,1.7017375E-1,2.860446E-1,5.774425E-1,9.6056795E-1,1.6458145E0,-5.558338E-1,-4.138315E-1,-3.7116322E-1,-1.2473905E-1,-4.045682E-1,-1.1727723E-1,8.3163485E-2,4.881413E-1,1.6759199E-1,4.0280753E-1,4.8320588E-1,8.525884E-1,8.2723314E-1,1.2734683E0,1.9817326E0,1.4331106E0,-6.268058E-1,-5.2386206E-1,-4.960484E-1,-3.234332E-1,-4.5364437E-1,-2.5586495E-1,-2.9063514E-1,-2.5981937E-2,-4.503407E-1,-1.6426225E-1,-8.051236E-3,-2.264702E-1,-1.9005904E-1,1.4895949E-1,6.128482E-1,1.1599552E-1,1.0368255E-1,3.1030735E-1,3.3693507E-1,6.546429E-1,3.308796E-1,5.692804E-1,7.454866E-1,1.2045457E0,7.273275E-1,1.0513207E0,1.0558634E0,1.5709046E0,2.075323E0,9.9655694E-1,1.0933688E0,1.7174252E0,-6.278368E-1,-0E0,-5.349033E-1,-3.177859E-1,-4.9701783E-1,-0E0,-3.9023122E-1,-1.9858712E-1,-4.864863E-1,-2.83865E-1,-4.8133072E-1,-2.0251957E-1,-6.005727E-2,-3.4669805E-1,3.775078E-2,-2.7073252E-1,1.1900512E-1,-4.53191E-1,-2.4095996E-1,2.75498E-1,-1.0728178E-1,1.0249914E-1,-2.8802058E-1,-1.0175455E-2,-4.7252518E-1,-1.287096E-1,2.1642843E-2,2.8377602E-1,2.3177734E-1,7.3495466E-1,3.5822257E-2,8.10788E-1,2.4017715E-1,2.3129998E-2,4.8288557E-1,2.095235E-1,1.7153284E-1,3.902028E-1,1.0230643E0,4.9789354E-1,3.7675565E-1,-2.8112935E-2,8.551934E-1,5.081475E-1,6.404434E-1,1.0002853E0,1.2694365E0,5.5025935E-2,5.99841E-1,9.317624E-1,9.5405203E-1,1.54855E0,8.486808E-1,1.3243835E0,1.255218E0,1.8495995E0,2.1125114E0,1.4215547E-2,2.9373404E-1,-0E0,1.3737481E0,6.839385E-1,2.0919635E0,1.3348392E0,-0E0,-1.6347967E-1,-1.419913E-1,-1.1003268E-1,-1.0513589E-1,-9.425172E-3,-1.2942564E-1,-0E0,5.965193E-3,-0E0,1.9049121E-2,-1.044841E-1,-9.593021E-3,-7.71936E-2,1.850789E-2,-1.2826814E-1,-8.598365E-2,7.483852E-2,-1.2812917E-1,-0E0,-6.343568E-2,4.4659037E-2,-3.93317E-2,1.8019101E-1,-9.810829E-2,6.2340987E-3,-4.070908E-2,4.0305026E-2,4.1301697E-2,-9.136073E-2,-0E0,1.3714017E-1,-1.3008789E-2,-1.1961578E-1,2.0434506E-1,-7.024595E-2,1.8701848E-1,-0E0,-5.3015202E-2,4.429855E-3,5.1899258E-2,-2.9536711E-2,-7.6838695E-2,3.9427146E-1,-3.2495532E-2,2.7007762E-2,-1.3306664E-1,-0E0,-4.8459332E-2,4.1728113E-2,-2.2978865E-2,2.6474433E-2,4.4284295E-2,1.2710269E-1,1.3683063E-2,1.7707935E-1,2.0919023E-1,6.412434E-2,-1.7465629E-2,8.39422E-2,3.0969626E-1,-0E0,1.1091586E-1,3.8087245E-2,-2.8931784E-2,2.6193902E-2,1.8948491E-1,9.754357E-2,8.433651E-2,9.774337E-3,6.764223E-2,-1.5554955E-2,8.317384E-2,1.4056729E-1,-0E0,2.8017104E-1,8.596307E-2,1.907842E-1,7.129883E-2,1.3753204E-1,-4.006683E-2,6.652553E-2,3.7276026E-2,2.4717471E-1,1.1526311E-1,1.9782428E-1,1.8080965E-1,6.644863E-2,4.067754E-2,2.8005794E-1,2.2178331E-1,3.800515E-1,-5.1860884E-3,5.404556E-2,1.1700325E-1,1.9561832E-1,1.4037551E-1,2.7209958E-1,1.9843754E-1,2.953908E-1,6.5791704E-2,4.4004166E-1,9.2748515E-2,2.4301691E-1,3.5987937E-1,1.9527934E-2,3.4081367E-1,2.7385563E-2,4.8878783E-1,-0E0,4.4309005E-2,5.5828476E-1,3.97541E-1,9.658258E-2,6.837307E-2,2.6439583E-1,1.7296164E-1,5.852757E-1,3.865433E-1,8.193601E-2],"categories":[],"categories_nodes":[],"categories_segments":[],"categories_sizes":[],"default_left":[0,0,0,0,0,0,0,0,0,0,0,0,0,0,0,0,0,0,0,0,0,0,0,0,0,0,0,0,0,0,0,0,0,0,0,0,0,0,0,0,0,0,0,0,0,0,0,0,0,0,0,0,0,0,0,0,0,0,0,0,0,0,0,0,0,0,0,0,0,0,0,0,0,0,0,0,0,0,0,0,0,0,0,0,0,0,0,0,0,0,0,0,0,0,0,0,0,0,0,0,0,0,0,0,0,0,0,0,0,0,0,0,0,0,0,0,0,0,0,0,0,0,0,0,0,0,0,0,0,0,0,0,0,0,0,0,0,0,0,0,0,0,0,0,0,0,0,0,0,0,0,0,0,0,0,0,0,0,0,0,0,0,0,0,0,0,0,0,0,0,0,0,0,0,0,0,0,0,0,0,0,0,0,0,0,0,0,0,0,0,0,0,0,0,0,0,0,0,0,0,0,0,0,0,0,0,0,0,0,0,0,0,0,0,0,0,0,0,0,0,0,0,0,0,0,0,0,0,0,0,0,0,0,0,0,0,0,0,0,0,0,0,0,0,0,0,0],"id":1,"left_children":[1,3,5,7,9,11,13,15,17,19,21,23,25,27,29,31,33,35,37,39,41,43,45,47,49,51,53,55,57,59,61,63,65,67,69,71,73,75,77,79,81,83,85,87,89,91,93,95,97,99,101,103,105,107,109,111,113,115,117,119,121,123,125,127,-1,129,131,133,135,137,139,141,143,145,147,149,151,153,155,157,159,161,163,165,167,169,171,173,175,177,179,181,183,185,187,189,191,193,195,197,199,201,203,205,207,209,211,213,215,217,219,221,223,225,227,229,231,233,235,237,-1,-1,-1,239,241,243,245,-1,-1,-1,-1,-1,-1,-1,-1,-1,-1,-1,-1,-1,-1,-1,-1,-1,-1,-1,-1,-1,-1,-1,-1,-1,-1,-1,-1,-1,-1,-1,-1,-1,-1,-1,-1,-1,-1,-1,-1,-1,-1,-1,-1,-1,-1,-1,-1,-1,-1,-1,-1,-1,-1,-1,-1,-1,-1,-1,-1,-1,-1,-1,-1,-1,-1,-1,-1,-1,-1,-1,-1,-1,-1,-1,-1,-1,-1,-1,-1,-1,-1,-1,-1,-1,-1,-1,-1,-1,-1,-1,-1,-1,-1,-1,-1,-1,-1,-1,-1,-1,-1,-1,-1,-1,-1,-1,-1,-1,-1,-1,-1,-1,-1,-1,-1,-1,-1,-1,-1],"loss_changes":[3.9164287E3,5.128063E2,5.83802E2,9.1325806E1,1.7566396E2,1.0729645E2,1.0267505E2,3.1575195E1,3.303296E1,5.177388E1,5.8734413E1,3.8076447E1,5.9137024E1,7.453076E1,1.2378052E1,8.191284E0,1.8730682E1,1.1836517E1,1.527174E1,9.360336E0,2.461852E1,3.0300459E1,2.0528358E1,1.2300594E1,2.2161377E1,2.1946442E1,1.9737976E1,2.6895203E1,3.1640015E1,3.926422E0,1.1240662E1,8.855591E-1,5.7020874E0,8.3065796E-1,9.950348E0,3.4397125E0,6.0104637E0,4.1504307E0,9.579076E0,1.5864105E0,5.094591E0,1.1489893E1,1.3534294E1,5.0300407E0,2.3096876E1,1.4826736E1,5.782052E0,1.0400616E1,6.685112E0,9.268959E0,1.4695953E1,1.0831696E1,1.7792236E1,1.0194565E1,8.808228E0,2.1779724E1,1.551947E1,1.4889648E1,1.5031494E1,4.321289E0,1.8388844E0,6.16259E0,6.3033752E0,7.2106934E-1,0E0,2.3596802E0,3.3670855E0,5.611572E-1,1.052767E-3,4.7402496E0,6.8100605E0,2.8455658E0,3.6418781E0,4.2266273E-1,7.1992207E0,4.632105E0,3.4959717E0,1.082444E1,4.6294165E0,5.1394606E-1,1.6144714E0,3.6485157E0,2.0278845E0,6.8503942E0,1.0404404E1,1.0248863E1,3.0959628E0,1.0782299E0,4.5732245E0,6.2405114E0,1.4632996E1,6.226108E0,7.5590973E0,3.444677E0,2.7005448E0,5.621977E0,6.407003E0,2.7857056E0,5.0723753E0,5.8963413E0,7.9368057E0,4.860466E0,6.8880615E0,7.996483E0,2.4881344E0,1.1928146E1,1.3684021E1,5.9701996E0,7.152725E0,6.8397827E0,2.7640533E-1,1.1514877E1,1.352359E1,9.132202E0,9.380447E0,6.415909E0,8.812042E0,5.748474E0,6.289856E0,3.147705E0,0E0,0E0,0E0,4.568405E0,3.4865742E0,4.9573517E0,5.033272E0,0E0,0E0,0E0,0E0,0E0,0E0,0E0,0E0,0E0,0E0,0E0,0E0,0E0,0E0,0E0,0E0,0E0,0E0,0E0,0E0,0E0,0E0,0E0,0E0,0E0,0E0,0E0,0E0,0E0,0E0,0E0,0E0,0E0,0E0,0E0,0E0,0E0,0E0,0E0,0E0,0E0,0E0,0E0,0E0,0E0,0E0,0E0,0E0,0E0,0E0,0E0,0E0,0E0,0E0,0E0,0E0,0E0,0E0,0E0,0E0,0E0,0E0,0E0,0E0,0E0,0E0,0E0,0E0,0E0,0E0,0E0,0E0,0E0,0E0,0E0,0E0,0E0,0E0,0E0,0E0,0E0,0E0,0E0,0E0,0E0,0E0,0E0,0E0,0E0,0E0,0E0,0E0,0E0,0E0,0E0,0E0,0E0,0E0,0E0,0E0,0E0,0E0,0E0,0E0,0E0,0E0,0E0,0E0,0E0,0E0,0E0,0E0,0E0,0E0,0E0,0E0,0E0,0E0,0E0,0E0],"parents":[2147483647,0,0,1,1,2,2,3,3,4,4,5,5,6,6,7,7,8,8,9,9,10,10,11,11,12,12,13,13,14,14,15,15,16,16,17,17,18,18,19,19,20,20,21,21,22,22,23,23,24,24,25,25,26,26,27,27,28,28,29,29,30,30,31,31,32,32,33,33,34,34,35,35,36,36,37,37,38,38,39,39,40,40,41,41,42,42,43,43,44,44,45,45,46,46,47,47,48,48,49,49,50,50,51,51,52,52,53,53,54,54,55,55,56,56,57,57,58,58,59,59,60,60,61,61,62,62,63,63,65,65,66,66,67,67,68,68,69,69,70,70,71,71,72,72,73,73,74,74,75,75,76,76,77,77,78,78,79,79,80,80,81,81,82,82,83,83,84,84,85,85,86,86,87,87,88,88,89,89,90,90,91,91,92,92,93,93,94,94,95,95,96,96,97,97,98,98,99,99,100,100,101,101,102,102,103,103,104,104,105,105,106,106,107,107,108,108,109,109,110,110,111,111,112,112,113,113,114,114,115,115,116,116,117,117,118,118,119,119,123,123,124,124,125,125,126,126],"right_children":[2,4,6,8,10,12,14,16,18,20,22,24,26,28,30,32,34,36,38,40,42,44,46,48,50,52,54,56,58,60,62,64,66,68,70,72,74,76,78,80,82,84,86,88,90,92,94,96,98,100,102,104,106,108,110,112,114,116,118,120,122,124,126,128,-1,130,132,134,136,138,140,142,144,146,148,150,152,154,156,158,160,162,164,166,168,170,172,174,176,178,180,182,184,186,188,190,192,194,196,198,200,202,204,206,208,210,212,214,216,218,220,222,224,226,228,230,232,234,236,238,-1,-1,-1,240,242,244,246,-1,-1,-1,-1,-1,-1,-1,-1,-1,-1,-1,-1,-1,-1,-1,-1,-1,-1,-1,-1,-1,-1,-1,-1,-1,-1,-1,-1,-1,-1,-1,-1,-1,-1,-1,-1,-1,-1,-1,-1,-1,-1,-1,-1,-1,-1,-1,-1,-1,-1,-1,-1,-1,-1,-1,-1,-1,-1,-1,-1,-1,-1,-1,-1,-1,-1,-1,-1,-1,-1,-1,-1,-1,-1,-1,-1,-1,-1,-1,-1,-1,-1,-1,-1,-1,-1,-1,-1,-1,-1,-1,-1,-1,-1,-1,-1,-1,-1,-1,-1,-1,-1,-1,-1,-1,-1,-1,-1,-1,-1,-1,-1,-1,-1,-1,-1,-1,-1,-1,-1],"split_conditions":[1.8169154E-1,6.0295023E-2,3.350196E-1,1.5780522E-1,1.4845988E-1,2.3728946E-1,5.596938E-1,2.9487668E-2,1.8558706E-1,2.9166666E-1,2.9617682E-1,1.6610947E-1,2.778527E-1,3.1412944E-1,-7.0710677E-1,2.1056335E-2,2.5E-1,3.2185696E-2,7.3232844E-2,1.41358E-1,1.4997508E-1,4.0876076E-2,1.7182322E-1,1.7968269E-1,3.0006745E-1,1.0864444E-1,3.6199498E-1,2.2399972E-1,2.4271972E-1,2.0525528E-1,1.9914074E-1,6.6449165E-1,1E0,1.5528315E-1,9.0212815E-2,2.3550056E-1,2.5E-1,3.7278708E-2,9.024703E-2,8.377567E-3,3.0879694E-1,9.576038E-2,1.7182322E-1,2.5E-1,1.9117862E-1,8.1053205E-2,3.6834902E-1,5.5070043E-2,9.601943E-2,8.685983E-2,1.2297526E-1,9.166667E-1,-7.0710677E-1,2.8788722E-1,3.268131E-1,1.7430618E-1,2.96299E-1,1.9344164E-1,3.4600723E-1,3.7471285E-1,2.2655112E-1,7.930829E-2,1.452242E-1,1.6666667E-1,-0E0,2.0356902E-1,2.5305238E-1,4.9223828E-1,5E-1,1.0772554E-2,3.9517287E-2,6.613097E-3,2.0251817E-1,4.0307635E-1,3.3599225E-1,2.9169965E-1,4.9256086E-1,1.0162077E-1,2.780629E-2,5E-1,1.0772554E-2,7.463562E-3,2.479056E-2,6.9674574E-2,1.5547866E-1,5.603439E-1,1.274231E-1,3.1868482E-1,2.507796E-1,9.9519044E-2,2.400266E-1,2.594309E-1,2.7128363E-1,2.562343E-1,2.1946391E-1,3.3436954E-2,3.7278708E-2,2.9839585E-2,1.8078242E-1,6.666667E-1,1.4776093E-1,2.0181432E-2,2.8406015E-1,1.1698779E-1,3.8310017E-2,2.0797286E-2,2.1801226E-1,9.166667E-1,2.6261767E-2,2.0374987E-1,6.2215902E-2,5.79929E-2,5.218628E-2,1.674878E-1,3.38964E-2,1.3431479E-1,5.1072365E-1,3.9587182E-1,4.4967106E-1,1.984418E-2,1.4215547E-2,2.9373404E-1,-0E0,2.3370676E-1,1.8205813E-1,2.1320274E-2,5.999492E-1,-0E0,-1.6347967E-1,-1.419913E-1,-1.1003268E-1,-1.0513589E-1,-9.425172E-3,-1.2942564E-1,-0E0,5.965193E-3,-0E0,1.9049121E-2,-1.044841E-1,-9.593021E-3,-7.71936E-2,1.850789E-2,-1.2826814E-1,-8.598365E-2,7.483852E-2,-1.2812917E-1,-0E0,-6.343568E-2,4.4659037E-2,-3.93317E-2,1.8019101E-1,-9.810829E-2,6.2340987E-3,-4.070908E-2,4.0305026E-2,4.1301697E-2,-9.136073E-2,-0E0,1.3714017E-1,-1.3008789E-2,-1.1961578E-1,2.0434506E-1,-7.024595E-2,1.8701848E-1,-0E0,-5.3015202E-2,4.429855E-3,5.1899258E-2,-2.9536711E-2,-7.6838695E-2,3.9427146E-1,-3.2495532E-2,2.7007762E-2,-1.3306664E-1,-0E0,-4.8459332E-2,4.1728113E-2,-2.2978865E-2,2.6474433E-2,4.4284295E-2,1.2710269E-1,1.3683063E-2,1.7707935E-1,2.0919023E-1,6.412434E-2,-1.7465629E-2,8.39422E-2,3.0969626E-1,-0E0,1.1091586E-1,3.8087245E-2,-2.8931784E-2,2.6193902E-2,1.8948491E-1,9.754357E-2,8.433651E-2,9.774337E-3,6.764223E-2,-1.5554955E-2,8.317384E-2,1.4056729E-1,-0E0,2.8017104E-1,8.596307E-2,1.907842E-1,7.129883E-2,1.3753204E-1,-4.006683E-2,6.652553E-2,3.7276026E-2,2.4717471E-1,1.1526311E-1,1.9782428E-1,1.8080965E-1,6.644863E-2,4.067754E-2,2.8005794E-1,2.2178331E-1,3.800515E-1,-5.1860884E-3,5.404556E-2,1.1700325E-1,1.9561832E-1,1.4037551E-1,2.7209958E-1,1.9843754E-1,2.953908E-1,6.5791704E-2,4.4004166E-1,9.2748515E-2,2.4301691E-1,3.5987937E-1,1.9527934E-2,3.4081367E-1,2.7385563E-2,4.8878783E-1,-0E0,4.4309005E-2,5.5828476E-1,3.97541E-1,9.658258E-2,6.837307E-2,2.6439583E-1,1.7296164E-1,5.852757E-1,3.865433E-1,8.193601E-2],"split_indices":[173,173,173,151,7,173,173,173,7,2,150,7,6,6,4,163,2,173,162,173,172,151,172,151,78,126,150,151,127,83,112,133,4,151,163,90,2,23,170,160,160,164,173,2,31,114,96,85,123,55,172,2,4,31,63,167,96,73,7,95,27,68,140,0,0,127,156,128,0,159,170,56,6,81,92,146,7,30,24,0,132,13,28,171,72,15,151,40,133,55,102,77,76,161,98,38,31,18,156,2,93,15,103,55,153,36,9,2,161,55,17,9,22,117,24,30,74,97,93,13,0,0,0,30,41,157,172,0,0,0,0,0,0,0,0,0,0,0,0,0,0,0,0,0,0,0,0,0,0,0,0,0,0,0,0,0,0,0,0,0,0,0,0,0,0,0,0,0,0,0,0,0,0,0,0,0,0,0,0,0,0,0,0,0,0,0,0,0,0,0,0,0,0,0,0,0,0,0,0,0,0,0,0,0,0,0,0,0,0,0,0,0,0,0,0,0,0,0,0,0,0,0,0,0,0,0,0,0,0,0,0,0,0,0,0,0,0,0,0,0,0,0,0,0,0,0,0],"split_type":[0,0,0,0,0,0,0,0,0,0,0,0,0,0,0,0,0,0,0,0,0,0,0,0,0,0,0,0,0,0,0,0,0,0,0,0,0,0,0,0,0,0,0,0,0,0,0,0,0,0,0,0,0,0,0,0,0,0,0,0,0,0,0,0,0,0,0,0,0,0,0,0,0,0,0,0,0,0,0,0,0,0,0,0,0,0,0,0,0,0,0,0,0,0,0,0,0,0,0,0,0,0,0,0,0,0,0,0,0,0,0,0,0,0,0,0,0,0,0,0,0,0,0,0,0,0,0,0,0,0,0,0,0,0,0,0,0,0,0,0,0,0,0,0,0,0,0,0,0,0,0,0,0,0,0,0,0,0,0,0,0,0,0,0,0,0,0,0,0,0,0,0,0,0,0,0,0,0,0,0,0,0,0,0,0,0,0,0,0,0,0,0,0,0,0,0,0,0,0,0,0,0,0,0,0,0,0,0,0,0,0,0,0,0,0,0,0,0,0,0,0,0,0,0,0,0,0,0,0,0,0,0,0,0,0,0,0,0,0,0,0,0,0,0,0,0,0],"sum_hessian":[2.1499E4,1.4252E4,7.247E3,9.122E3,5.13E3,5.136E3,2.111E3,6.85E3,2.272E3,2.988E3,2.142E3,2.794E3,2.342E3,1.856E3,2.55E2,4.21E3,2.64E3,1.323E3,9.49E2,9.07E2,2.081E3,1.685E3,4.57E2,1.392E3,1.402E3,1.749E3,5.93E2,1.306E3,5.5E2,9.4E1,1.61E2,1.293E3,2.917E3,1.375E3,1.265E3,7.65E2,5.58E2,3.5E2,5.99E2,7.58E2,1.49E2,1.045E3,1.036E3,3.24E2,1.361E3,3.4E2,1.17E2,9.67E2,4.25E2,1.116E3,2.86E2,6.37E2,1.112E3,4.59E2,1.34E2,9.09E2,3.97E2,3.22E2,2.28E2,8.4E1,1E1,7.7E1,8.4E1,1.291E3,2E0,2.763E3,1.54E2,1.373E3,2E0,8.18E2,4.47E2,6.35E2,1.3E2,1.02E2,4.56E2,7.2E1,2.78E2,4.73E2,1.26E2,2E0,7.56E2,1.29E2,2E1,5.55E2,4.9E2,8.03E2,2.33E2,5.4E1,2.7E2,7.04E2,6.57E2,8.5E1,2.55E2,1.07E2,1E1,3.54E2,6.13E2,1.52E2,2.73E2,2.77E2,8.39E2,8.2E1,2.04E2,5.67E2,7E1,1.91E2,9.21E2,3.3E2,1.29E2,1.26E2,8E0,5.65E2,3.44E2,3.36E2,6.1E1,1.86E2,1.36E2,1.11E2,1.17E2,8.2E1,2E0,9E0,1E0,4.3E1,3.4E1,3.9E1,4.5E1,2E0,1.289E3,2.5E3,2.63E2,1.15E2,3.9E1,1.371E3,2E0,1E0,1E0,1.8E1,8E2,1.73E2,2.74E2,6E0,6.29E2,1.22E2,8E0,9.9E1,3E0,4.13E2,4.3E1,6.6E1,6E0,2.59E2,1.9E1,1.75E2,2.98E2,1.8E1,1.08E2,1E0,1E0,1.5E1,7.41E2,2E0,1.27E2,6E0,1.4E1,3.16E2,2.39E2,3.41E2,1.49E2,8.01E2,2E0,1.2E2,1.13E2,5E1,4E0,2.28E2,4.2E1,2.92E2,4.12E2,4.27E2,2.3E2,6.3E1,2.2E1,2.21E2,3.4E1,7.7E1,3E1,6E0,4E0,1.14E2,2.4E2,2.2E2,3.93E2,4.2E1,1.1E2,1.6E2,1.13E2,2.03E2,7.4E1,5.78E2,2.61E2,4E0,7.8E1,1.23E2,8.1E1,3.44E2,2.23E2,5.1E1,1.9E1,2.4E1,1.67E2,7.38E2,1.83E2,2.86E2,4.4E1,1.2E1,1.17E2,4.3E1,8.3E1,2E0,6E0,2.9E2,2.75E2,8.1E1,2.63E2,1.69E2,1.67E2,7E0,5.4E1,3E1,1.56E2,1.29E2,7E0,1.05E2,6E0,1.15E2,2E0,2E0,8E1,3.6E1,7E0,1.7E1,1.7E1,5E0,3.4E1,3.8E1,7E0],"tree_param":{"num_deleted":"0","num_feature":"174","num_nodes":"247","size_leaf_vector":"1"}},{"base_weights":[1.8955824E-3,-2.6052466E-1,3.8631004E-1,-3.6016825E-1,-1.294125E-1,1.8854399E-1,6.4724165E-1,-4.0100056E-1,-2.3033607E-1,-3.384901E-1,-5.5977527E-2,1.14911586E-1,3.7707573E-1,5.2921396E-1,9.6912235E-1,-4.107678E-1,-2.019346E-1,-3.227948E-1,-1.2337291E-1,-0E0,-3.4066185E-1,-1.2331079E-1,1.4486471E-1,1.3963189E-2,1.7410757E-1,2.8070703E-1,5.6643045E-1,5.902879E-1,2.4035811E-1,7.4901956E-1,1.174455E0,-4.6643975E-1,-3.893396E-1,-2.8157493E-1,2.0240083E-1,-3.8314793E-1,-2.5291982E-1,-3.5909292E-1,-1.7908484E-2,1.7315817E-1,-5.2414633E-2,-3.424111E-1,-0E0,-7.3130205E-2,-2.52975E-1,-3.856646E-2,3.3601195E-1,-5.2326698E-2,1.607835E-1,1.2398166E-1,2.7206147E-1,5.9685403E-1,2.4090679E-1,2.3118785E-1,6.510411E-1,4.690268E-1,7.485374E-1,1.1615809E-1,3.9044857E-1,5.6982195E-1,1.0199718E0,9.876526E-1,1.3718518E0,-4.6775216E-1,-0E0,-2.9268545E-1,-3.966467E-1,-4.124151E-1,-1.3891123E-1,-6.8671785E-2,3.7253255E-1,-5.661994E-2,-3.9578277E-1,-7.426371E-2,-3.2574347E-1,1.4004514E-1,-3.8006437E-1,5.6658503E-2,-2.2264305E-1,7.362745E-2,-0E0,-3.4390193E-1,-0E0,-7.217424E-2,6.804155E-2,-1.2656635E-1,7.5618155E-2,-2.9618087E-1,-3.3739507E-2,-5.7341736E-2,7.519046E-1,4.888125E-1,7.1193844E-2,-2.3957489E-3,-2.3750106E-1,2.650903E-1,-8.991196E-3,4.661945E-2,2.0529406E-1,3.98477E-1,1.6317983E-1,8.459965E-2,6.972928E-1,1.6430499E-1,4.388872E-1,8.7696396E-2,5.6662136E-1,7.2412364E-2,6.95965E-1,4.0683356E-1,6.790608E-1,5.209238E-1,8.309378E-1,3.411287E-1,3.2337576E-2,3.016827E-1,7.6022065E-1,-0E0,6.2799984E-1,4.388676E-1,1.1417652E0,4.7546303E-1,1.078616E0,6.9428295E-1,1.4771881E0,-1.21951625E-1,-0E0,-0E0,1.0666584E-2,-7.89421E-2,8.06547E-2,1.7063051E-2,-1.0340528E-1,-1.1123284E-1,-0E0,-1.1513539E-2,-1.03567675E-1,-6.459718E-2,1.8696877E-3,-0E0,1.1439201E-1,-5.4134887E-2,6.040451E-2,-1.0388642E-1,6.0565487E-2,7.1614414E-2,-4.4493582E-2,-3.2481246E-2,-9.625073E-2,1.0703082E-1,-0E0,-1.0217065E-1,6.6107005E-2,-3.279848E-4,9.143854E-2,-8.796642E-2,1.7569368E-3,-8.9766644E-2,-0E0,-2.164897E-2,-0E0,-3.97825E-2,1.4200062E-2,-6.467148E-3,5.7410985E-2,-3.5333514E-2,-9.210855E-2,-2.4466442E-2,2.033588E-1,-4.0035352E-2,2.0229839E-2,-0E0,3.5813752E-1,7.494726E-2,1.8961784E-1,-2.1779995E-2,7.207643E-2,-2.4221992E-2,2.871672E-2,-6.764581E-2,2.4832161E-1,-6.1464243E-2,7.8644566E-2,2.5995009E-2,-5.469291E-2,-3.457758E-2,2.3758212E-2,5.0502896E-2,2.1272634E-1,8.6835265E-2,2.0752071E-1,1.0716621E-2,7.2188735E-2,-3.2158893E-2,9.735111E-2,1.1309452E-1,2.6296413E-1,2.4656601E-2,9.025223E-2,9.584916E-2,3.19217E-1,-6.142068E-2,5.2673217E-2,-0E0,1.7494859E-1,6.516274E-2,-3.2745015E-2,1.3574767E-1,2.1975969E-1,9.7645275E-2,1.7471005E-1,-1.5046536E-2,1.8503304E-1,2.240267E-1,9.395358E-2,2.3424836E-1,1.5382993E-1,1.5924335E-1,3.229727E-2,-4.537514E-4,1.333301E-1,1.6723947E-1,4.512441E-2,3.2635427E-1,1.1175683E-1,-7.330997E-2,1.5397212E-1,2.056133E-1,1.0705261E-1,2.3862265E-1,-0E0,2.4968882E-1,3.9914212E-1,1.6269088E-1,-0E0,1.1536415E-2,2.9299757E-1,-1.5005744E-2,2.2791761E-1,-0E0,3.9329097E-1],"categories":[],"categories_nodes":[],"categories_segments":[],"categories_sizes":[],"default_left":[0,0,0,0,0,0,0,0,0,0,0,0,0,0,0,0,0,0,0,0,0,0,0,0,0,0,0,0,0,0,0,0,0,0,0,0,0,0,0,0,0,0,0,0,0,0,0,0,0,0,0,0,0,0,0,0,0,0,0,0,0,0,0,0,0,0,0,0,0,0,0,0,0,0,0,0,0,0,0,0,0,0,0,0,0,0,0,0,0,0,0,0,0,0,0,0,0,0,0,0,0,0,0,0,0,0,0,0,0,0,0,0,0,0,0,0,0,0,0,0,0,0,0,0,0,0,0,0,0,0,0,0,0,0,0,0,0,0,0,0,0,0,0,0,0,0,0,0,0,0,0,0,0,0,0,0,0,0,0,0,0,0,0,0,0,0,0,0,0,0,0,0,0,0,0,0,0,0,0,0,0,0,0,0,0,0,0,0,0,0,0,0,0,0,0,0,0,0,0,0,0,0,0,0,0,0,0,0,0,0,0,0,0,0,0,0,0,0,0,0,0,0,0,0,0,0,0,0,0,0,0,0,0,0,0,0,0,0,0,0,0],"id":2,"left_children":[1,3,5,7,9,11,13,15,17,19,21,23,25,27,29,31,33,35,37,39,41,43,45,47,49,51,53,55,57,59,61,63,65,67,69,71,73,75,77,79,-1,81,83,85,87,89,91,93,95,97,99,101,103,105,107,109,111,113,115,117,119,121,123,125,127,129,131,133,135,137,139,141,143,145,147,149,151,153,155,-1,-1,157,-1,159,-1,161,163,165,167,169,171,173,175,177,179,181,183,185,187,189,191,193,195,197,199,201,203,205,207,209,211,213,215,217,219,221,223,225,227,229,231,233,235,237,239,-1,-1,-1,-1,-1,-1,-1,-1,-1,-1,-1,-1,-1,-1,-1,-1,-1,-1,-1,-1,-1,-1,-1,-1,-1,-1,-1,-1,-1,-1,-1,-1,-1,-1,-1,-1,-1,-1,-1,-1,-1,-1,-1,-1,-1,-1,-1,-1,-1,-1,-1,-1,-1,-1,-1,-1,-1,-1,-1,-1,-1,-1,-1,-1,-1,-1,-1,-1,-1,-1,-1,-1,-1,-1,-1,-1,-1,-1,-1,-1,-1,-1,-1,-1,-1,-1,-1,-1,-1,-1,-1,-1,-1,-1,-1,-1,-1,-1,-1,-1,-1,-1,-1,-1,-1,-1,-1,-1,-1,-1,-1,-1,-1,-1,-1,-1],"loss_changes":[2.1598132E3,1.6571918E2,4.4740454E2,3.7636353E1,8.405552E1,6.816058E1,1.4033826E2,1.0037964E1,1.6727112E1,1.0588226E0,5.5092648E1,2.1107914E1,2.4351883E1,4.750128E1,4.26286E1,5.2838135E0,8.5972185E0,3.235733E0,1.981579E1,3.831047E-1,9.896698E-1,1.9565742E1,3.6044266E1,1.2982389E1,1.0603386E1,1.0716095E1,1.2188507E1,4.1940613E1,8.5024185E0,2.1682343E1,1.54748535E1,1.104187E0,1.9415894E0,3.5904007E0,2.2360153E0,1.5837402E0,5.327366E0,2.865219E0,8.772273E0,2.2105908E-1,0E0,8.523407E-1,2.3150355E-1,1.7613747E1,7.7160797E0,7.1206503E0,1.9774303E1,8.178829E0,7.5996723E0,9.13027E0,9.766495E0,4.382328E0,1.1881508E1,4.0302124E0,8.797958E0,1.5545074E1,1.6655823E1,4.725424E0,5.8719177E0,9.329529E0,1.159433E1,1.0667908E1,1.4506378E1,1.0751648E0,5.049231E-3,1.9281235E0,2.0565186E0,1.0835094E0,2.3089483E0,4.2349845E-1,9.5347047E-1,9.9030334E-1,1.3530197E0,4.424652E0,2.2575302E0,6.707936E-1,2.1885605E0,7.3390064E0,4.3877397E0,0E0,0E0,8.355408E-1,0E0,1.6868096E-3,0E0,7.906315E0,8.644465E0,6.0647163E0,6.546192E0,6.728504E0,5.1652794E0,1.411483E1,6.167485E0,7.3692822E0,4.7340155E0,5.024769E0,3.5435214E0,6.1647644E0,3.8069496E0,7.556156E0,5.411583E0,1.4189612E0,5.014694E0,7.1770897E0,1.0632736E1,2.6600022E0,1.2922478E0,1.1689153E0,7.125473E0,7.080124E0,7.573532E0,1.2994972E1,1.005249E1,3.3808956E0,3.7360053E0,6.899021E0,4.32189E0,5.44776E0,8.063957E0,7.3856516E0,7.4136963E0,3.3656034E0,1.0234894E1,5.7234364E0,1.0829498E1,0E0,0E0,0E0,0E0,0E0,0E0,0E0,0E0,0E0,0E0,0E0,0E0,0E0,0E0,0E0,0E0,0E0,0E0,0E0,0E0,0E0,0E0,0E0,0E0,0E0,0E0,0E0,0E0,0E0,0E0,0E0,0E0,0E0,0E0,0E0,0E0,0E0,0E0,0E0,0E0,0E0,0E0,0E0,0E0,0E0,0E0,0E0,0E0,0E0,0E0,0E0,0E0,0E0,0E0,0E0,0E0,0E0,0E0,0E0,0E0,0E0,0E0,0E0,0E0,0E0,0E0,0E0,0E0,0E0,0E0,0E0,0E0,0E0,0E0,0E0,0E0,0E0,0E0,0E0,0E0,0E0,0E0,0E0,0E0,0E0,0E0,0E0,0E0,0E0,0E0,0E0,0E0,0E0,0E0,0E0,0E0,0E0,0E0,0E0,0E0,0E0,0E0,0E0,0E0,0E0,0E0,0E0,0E0,0E0,0E0,0E0,0E0,0E0,0E0,0E0,0E0],"parents":[2147483647,0,0,1,1,2,2,3,3,4,4,5,5,6,6,7,7,8,8,9,9,10,10,11,11,12,12,13,13,14,14,15,15,16,16,17,17,18,18,19,19,20,20,21,21,22,22,23,23,24,24,25,25,26,26,27,27,28,28,29,29,30,30,31,31,32,32,33,33,34,34,35,35,36,36,37,37,38,38,39,39,41,41,42,42,43,43,44,44,45,45,46,46,47,47,48,48,49,49,50,50,51,51,52,52,53,53,54,54,55,55,56,56,57,57,58,58,59,59,60,60,61,61,62,62,63,63,64,64,65,65,66,66,67,67,68,68,69,69,70,70,71,71,72,72,73,73,74,74,75,75,76,76,77,77,78,78,81,81,83,83,85,85,86,86,87,87,88,88,89,89,90,90,91,91,92,92,93,93,94,94,95,95,96,96,97,97,98,98,99,99,100,100,101,101,102,102,103,103,104,104,105,105,106,106,107,107,108,108,109,109,110,110,111,111,112,112,113,113,114,114,115,115,116,116,117,117,118,118,119,119,120,120,121,121,122,122,123,123,124,124],"right_children":[2,4,6,8,10,12,14,16,18,20,22,24,26,28,30,32,34,36,38,40,42,44,46,48,50,52,54,56,58,60,62,64,66,68,70,72,74,76,78,80,-1,82,84,86,88,90,92,94,96,98,100,102,104,106,108,110,112,114,116,118,120,122,124,126,128,130,132,134,136,138,140,142,144,146,148,150,152,154,156,-1,-1,158,-1,160,-1,162,164,166,168,170,172,174,176,178,180,182,184,186,188,190,192,194,196,198,200,202,204,206,208,210,212,214,216,218,220,222,224,226,228,230,232,234,236,238,240,-1,-1,-1,-1,-1,-1,-1,-1,-1,-1,-1,-1,-1,-1,-1,-1,-1,-1,-1,-1,-1,-1,-1,-1,-1,-1,-1,-1,-1,-1,-1,-1,-1,-1,-1,-1,-1,-1,-1,-1,-1,-1,-1,-1,-1,-1,-1,-1,-1,-1,-1,-1,-1,-1,-1,-1,-1,-1,-1,-1,-1,-1,-1,-1,-1,-1,-1,-1,-1,-1,-1,-1,-1,-1,-1,-1,-1,-1,-1,-1,-1,-1,-1,-1,-1,-1,-1,-1,-1,-1,-1,-1,-1,-1,-1,-1,-1,-1,-1,-1,-1,-1,-1,-1,-1,-1,-1,-1,-1,-1,-1,-1,-1,-1,-1,-1],"split_conditions":[1.4458391E-1,3.8217153E-2,2.5860485E-1,1.5789808E-1,2.5E-1,2.2925404E-1,4.1820875E-1,1E0,9.2920616E-2,9.614163E-3,2.2028017E-1,5.307096E-2,2.5665465E-1,8.660254E-1,1.9806054E-1,1.8402299E-2,1.6540074E-1,7.312042E-2,3.6814373E-2,4.625258E-2,4.7601593E-1,1.5497033E-1,1.5006305E-1,1.807922E-1,1.3648494E-1,4.678534E-2,6.976256E-2,-2.5881904E-1,1.6931581E-1,4.1031018E-1,2.0017694E-1,5.3437537E-1,-8.660254E-1,1.2527739E-1,2.6051594E-2,2.4052514E-2,4.08663E-2,1.2585902E-2,1.413971E-1,1.6666667E-1,-5.2414633E-2,5.3456116E-1,8.717753E-2,1.9632052E-1,2.0410179E-1,5.3437537E-1,9.572128E-2,2.6732457E-1,2.0052885E-1,1.960077E-1,1.7725348E-1,2.625688E-2,2.2354516E-1,2.2400461E-1,3.542626E-2,3.2746807E-1,1.2827356E-1,5.386766E-2,3.0931503E-1,2.1828597E-2,7.899547E-2,8.907397E-2,2.9497445E-2,5.3437537E-1,5.833333E-1,4.1111666E-1,7.463562E-3,5.603439E-1,4.605218E-2,1.0705104E-1,2.8505234E-2,1.7735124E-1,6.614759E-1,2.360773E-2,3.6833923E-2,2.4902979E-1,6.006579E-1,2.619285E-1,2.7725643E-1,7.362745E-2,-0E0,6.6449165E-1,-0E0,1.135175E-1,6.804155E-2,2.2835958E-1,1.8980518E-1,4.0377527E-2,4.3792585E-1,1.8411097E-1,2.0058751E-1,2.5086758E-1,2.0533837E-1,1.9446807E-1,6.614759E-1,2.2077871E-2,2.8728116E-1,4.870622E-2,4.0284172E-1,3.3029807E-1,1.9739582E-1,1.3183671E-1,2.6836076E-1,2.5401527E-1,4.5000342E-1,2.9492555E-2,2.3871668E-2,2.195861E-1,2.736395E-1,4.1845313E-1,2.6555032E-2,3.3333334E-1,2.712152E-1,2.0353481E-1,3.5041595E-1,5.6291975E-2,6.3393846E-2,1.9909675E-1,1.319589E-1,9.166667E-1,2.2904386E-1,6.641935E-2,2.3153171E-2,3.1472087E-2,2.2077871E-2,-1.21951625E-1,-0E0,-0E0,1.0666584E-2,-7.89421E-2,8.06547E-2,1.7063051E-2,-1.0340528E-1,-1.1123284E-1,-0E0,-1.1513539E-2,-1.03567675E-1,-6.459718E-2,1.8696877E-3,-0E0,1.1439201E-1,-5.4134887E-2,6.040451E-2,-1.0388642E-1,6.0565487E-2,7.1614414E-2,-4.4493582E-2,-3.2481246E-2,-9.625073E-2,1.0703082E-1,-0E0,-1.0217065E-1,6.6107005E-2,-3.279848E-4,9.143854E-2,-8.796642E-2,1.7569368E-3,-8.9766644E-2,-0E0,-2.164897E-2,-0E0,-3.97825E-2,1.4200062E-2,-6.467148E-3,5.7410985E-2,-3.5333514E-2,-9.210855E-2,-2.4466442E-2,2.033588E-1,-4.0035352E-2,2.0229839E-2,-0E0,3.5813752E-1,7.494726E-2,1.8961784E-1,-2.1779995E-2,7.207643E-2,-2.4221992E-2,2.871672E-2,-6.764581E-2,2.4832161E-1,-6.1464243E-2,7.8644566E-2,2.5995009E-2,-5.469291E-2,-3.457758E-2,2.3758212E-2,5.0502896E-2,2.1272634E-1,8.6835265E-2,2.0752071E-1,1.0716621E-2,7.2188735E-2,-3.2158893E-2,9.735111E-2,1.1309452E-1,2.6296413E-1,2.4656601E-2,9.025223E-2,9.584916E-2,3.19217E-1,-6.142068E-2,5.2673217E-2,-0E0,1.7494859E-1,6.516274E-2,-3.2745015E-2,1.3574767E-1,2.1975969E-1,9.7645275E-2,1.7471005E-1,-1.5046536E-2,1.8503304E-1,2.240267E-1,9.395358E-2,2.3424836E-1,1.5382993E-1,1.5924335E-1,3.229727E-2,-4.537514E-4,1.333301E-1,1.6723947E-1,4.512441E-2,3.2635427E-1,1.1175683E-1,-7.330997E-2,1.5397212E-1,2.056133E-1,1.0705261E-1,2.3862265E-1,-0E0,2.4968882E-1,3.9914212E-1,1.6269088E-1,-0E0,1.1536415E-2,2.9299757E-1,-1.5005744E-2,2.2791761E-1,-0E0,3.9329097E-1],"split_indices":[173,173,173,79,2,6,173,4,6,156,6,32,54,5,7,173,150,150,163,14,150,172,164,126,164,172,91,5,166,172,168,36,4,67,74,81,157,66,168,2,0,129,10,91,8,12,170,123,50,173,172,70,173,145,128,12,6,146,72,129,169,77,141,59,0,143,169,141,169,47,161,167,42,148,85,9,108,134,33,0,0,115,0,6,0,162,150,39,95,151,28,90,68,173,26,162,125,126,166,150,173,157,7,29,9,89,21,62,150,108,39,0,93,135,71,86,38,124,142,2,21,77,138,106,162,0,0,0,0,0,0,0,0,0,0,0,0,0,0,0,0,0,0,0,0,0,0,0,0,0,0,0,0,0,0,0,0,0,0,0,0,0,0,0,0,0,0,0,0,0,0,0,0,0,0,0,0,0,0,0,0,0,0,0,0,0,0,0,0,0,0,0,0,0,0,0,0,0,0,0,0,0,0,0,0,0,0,0,0,0,0,0,0,0,0,0,0,0,0,0,0,0,0,0,0,0,0,0,0,0,0,0,0,0,0,0,0,0,0,0,0],"split_type":[0,0,0,0,0,0,0,0,0,0,0,0,0,0,0,0,0,0,0,0,0,0,0,0,0,0,0,0,0,0,0,0,0,0,0,0,0,0,0,0,0,0,0,0,0,0,0,0,0,0,0,0,0,0,0,0,0,0,0,0,0,0,0,0,0,0,0,0,0,0,0,0,0,0,0,0,0,0,0,0,0,0,0,0,0,0,0,0,0,0,0,0,0,0,0,0,0,0,0,0,0,0,0,0,0,0,0,0,0,0,0,0,0,0,0,0,0,0,0,0,0,0,0,0,0,0,0,0,0,0,0,0,0,0,0,0,0,0,0,0,0,0,0,0,0,0,0,0,0,0,0,0,0,0,0,0,0,0,0,0,0,0,0,0,0,0,0,0,0,0,0,0,0,0,0,0,0,0,0,0,0,0,0,0,0,0,0,0,0,0,0,0,0,0,0,0,0,0,0,0,0,0,0,0,0,0,0,0,0,0,0,0,0,0,0,0,0,0,0,0,0,0,0,0,0,0,0,0,0,0,0,0,0,0,0,0,0,0,0,0,0],"sum_hessian":[2.1407E4,1.2721E4,8.686E3,7.223E3,5.498E3,4.944E3,3.742E3,5.488E3,1.735E3,1.425E3,4.073E3,3.56E3,1.384E3,2.742E3,1E3,5.226E3,2.62E2,9.25E2,8.1E2,9E0,1.416E3,3.054E3,1.019E3,1.322E3,2.238E3,9.22E2,4.62E2,2.26E3,4.82E2,4.87E2,5.13E2,1.435E3,3.791E3,2.21E2,4.1E1,4.87E2,4.38E2,2.47E2,5.63E2,5E0,4E0,1.41E3,6E0,2.208E3,8.46E2,5.18E2,5.01E2,9.07E2,4.15E2,1.488E3,7.5E2,9.9E1,8.23E2,9.6E1,3.66E2,1.285E3,9.75E2,2.68E2,2.14E2,2.97E2,1.9E2,2.69E2,2.44E2,1.432E3,3E0,2.78E2,3.513E3,1.11E2,1.1E2,1.4E1,2.7E1,2.1E1,4.66E2,1.31E2,3.07E2,8E0,2.39E2,4.1E2,1.53E2,4E0,1E0,1.405E3,5E0,4E0,2E0,1.629E3,5.79E2,7.03E2,1.43E2,5.08E2,1E1,3.15E2,1.86E2,7.19E2,1.88E2,2.6E2,1.55E2,7.69E2,7.19E2,3.42E2,4.08E2,1.8E1,8.1E1,5.98E2,2.25E2,7E1,2.6E1,2.8E1,3.38E2,9.97E2,2.88E2,2.64E2,7.11E2,6.9E1,1.99E2,1.76E2,3.8E1,2.9E1,2.68E2,3.5E1,1.55E2,4.3E1,2.26E2,3.5E1,2.09E2,1.429E3,3E0,1E0,2E0,2.75E2,3E0,6E0,3.507E3,1.09E2,2E0,8.4E1,2.6E1,7E0,7E0,3E0,2.4E1,1.6E1,5E0,4.65E2,1E0,2.6E1,1.05E2,6E1,2.47E2,4E0,4E0,2.36E2,3E0,3.41E2,6.9E1,1.04E2,4.9E1,1.401E3,4E0,3E0,1E0,1.426E3,2.03E2,3.39E2,2.4E2,1.92E2,5.11E2,1.35E2,8E0,3E2,2.08E2,5E0,5E0,1.75E2,1.4E2,1.04E2,8.2E1,4.03E2,3.16E2,1.86E2,2E0,1.6E1,2.44E2,9.8E1,5.7E1,1.49E2,6.2E2,7.09E2,1E1,2.98E2,4.4E1,2.02E2,2.06E2,9E0,9E0,4.7E1,3.4E1,4.38E2,1.6E2,2.09E2,1.6E1,1.6E1,5.4E1,5E0,2.1E1,1.7E1,1.1E1,1.61E2,1.77E2,8.97E2,1E2,1.1E1,2.77E2,8.1E1,1.83E2,5.45E2,1.66E2,2.8E1,4.1E1,1.85E2,1.4E1,4.5E1,1.31E2,1.3E1,2.5E1,1.9E1,1E1,1.49E2,1.19E2,1.6E1,1.9E1,1.1E2,4.5E1,3.3E1,1E1,1.1E1,2.15E2,6E0,2.9E1,5E0,2.04E2],"tree_param":{"num_deleted":"0","num_feature":"174","num_nodes":"241","size_leaf_vector":"1"}},{"base_weights":[3.5251206E-4,-1.7708202E-1,3.1202272E-1,-2.620525E-1,-6.5774746E-2,1.9729565E-1,5.4180676E-1,-2.9330242E-1,-1.6454051E-1,-1.5304366E-1,6.356808E-2,1.3706653E-1,3.1268778E-1,4.55682E-1,7.5004756E-1,-3.2491845E-1,-2.5769448E-1,-3.4713036E-1,-1.2317041E-1,-2.3539425E-1,-1.0623814E-1,-1.4841841E-1,1.3949518E-1,1.5616533E-1,-9.293433E-2,2.5225863E-1,5.373367E-1,3.6818492E-1,6.377094E-1,1.002389E0,6.2804693E-1,-3.631826E-1,-3.0585057E-1,-2.0061804E-1,-2.8457588E-1,1.17696E-1,-3.5698825E-1,-2.5959727E-1,-4.0112633E-2,-3.277325E-1,-2.1288548E-1,-2.8873751E-2,-2.2117409E-1,-1.5958121E-1,4.6405226E-1,-3.1200064E-2,2.2061907E-1,6.1639093E-2,2.043269E-1,9.21262E-2,-1.7375861E-1,5.100987E-1,2.1840416E-1,2.4277638E-1,6.103481E-1,7.6358503E-1,3.3887592E-1,3.5970408E-1,7.196189E-1,1.0567697E0,1.7073883E-1,2.084738E-2,6.612716E-1,-3.6483732E-1,-0E0,-0E0,-3.0845857E-1,-2.864193E-1,-1.462526E-1,-2.858819E-1,1.633319E-1,1.1490965E-1,-0E0,-0E0,-3.5900557E-1,-2.65867E-1,4.8470807E-1,-1.9771552E-1,-0E0,-0E0,-3.3284998E-1,1.3886517E-1,-2.1644658E-1,-6.574668E-2,1.9497319E-1,-2.4748205E-1,-1.3072685E-4,-1.7183779E-1,3.5292274E-1,-0E0,2.978238E-1,-7.7277936E-2,2.217592E-1,1.2780224E-1,3.69111E-1,4.069776E-1,4.631817E-2,9.9968486E-2,2.6204154E-1,2.3483206E-1,-9.357044E-2,-2.1147203E-1,1.791994E-1,5.58463E-1,2.0322638E-2,1.2822235E-1,2.7795064E-1,1.11303024E-1,6.5504533E-1,7.260526E-1,3.242676E-1,6.2383205E-1,2.0632124E0,3.1982338E-1,9.543162E-1,2.1555462E-1,6.268855E-1,5.984745E-1,8.7221783E-1,-0E0,1.091954E0,-4.24839E-1,5.292995E-1,-1.88531E-1,6.070805E-1,6.077049E-1,1.068433E0,-9.517E-2,-0E0,1.4743829E-1,-4.934627E-2,-8.04863E-2,-0E0,-7.7781565E-2,1.1007014E-2,-5.043995E-2,-0E0,-7.506354E-2,-0E0,-9.373114E-2,-0E0,-7.1162105E-2,3.007083E-2,2.1484765E-1,-0E0,-5.68065E-2,2.4236006E-1,-1.9940343E-2,2.6130265E-2,-0E0,-8.749603E-2,-7.951836E-2,-4.944469E-2,4.505987E-2,-2.8074665E-2,3.3030648E-2,1.7927633E-1,4.767293E-2,-6.844039E-2,-1.3405984E-2,2.125895E-1,1.1659865E-1,-4.6882268E-2,-0E0,3.4077388E-1,-4.5101207E-2,1.1703579E-2,9.9668525E-2,-3.6115643E-2,5.2213013E-2,-5.5648736E-3,6.055267E-2,1.5881237E-1,2.9301536E-1,5.477462E-2,3.813723E-3,4.9418777E-2,5.493823E-2,8.330695E-3,1.0113033E-1,5.4580066E-2,-0E0,1.2070304E-1,-6.925411E-2,1.8456873E-2,-2.183043E-2,-9.7138986E-2,-9.844984E-3,7.837303E-2,6.628161E-2,1.7190759E-1,6.619158E-2,-2.0570658E-2,-1.0107445E-2,5.093418E-2,5.340105E-2,1.0332877E-1,1.0913716E-1,-0E0,2.5807038E-1,3.7629653E-2,-4.6548843E-2,1.9719398E-1,1.5627769E-1,8.550727E-3,1.8466114E-1,-9.541412E-2,6.6845274E-1,5.9594188E-2,6.675234E-2,1.1919377E-1,3.276129E-1,8.262779E-2,1.4160365E-1,1.7806709E-2,1.8255866E-1,-0E0,9.59758E-2,1.8088347E-1,2.3620161E-1,-7.047731E-2,1.1270151E-2,-2.3200558E-2,3.0167067E-1,1.1002157E-1,-0E0,-1.4236347E-1,-0E0,2.0070446E-1,4.013903E-2,-1.13177955E-1,-0E0,1.7693223E-1,1.472266E-1,2.7294093E-1,1.4593413E-1,3.6621958E-1],"categories":[],"categories_nodes":[],"categories_segments":[],"categories_sizes":[],"default_left":[0,0,0,0,0,0,0,0,0,0,0,0,0,0,0,0,0,0,0,0,0,0,0,0,0,0,0,0,0,0,0,0,0,0,0,0,0,0,0,0,0,0,0,0,0,0,0,0,0,0,0,0,0,0,0,0,0,0,0,0,0,0,0,0,0,0,0,0,0,0,0,0,0,0,0,0,0,0,0,0,0,0,0,0,0,0,0,0,0,0,0,0,0,0,0,0,0,0,0,0,0,0,0,0,0,0,0,0,0,0,0,0,0,0,0,0,0,0,0,0,0,0,0,0,0,0,0,0,0,0,0,0,0,0,0,0,0,0,0,0,0,0,0,0,0,0,0,0,0,0,0,0,0,0,0,0,0,0,0,0,0,0,0,0,0,0,0,0,0,0,0,0,0,0,0,0,0,0,0,0,0,0,0,0,0,0,0,0,0,0,0,0,0,0,0,0,0,0,0,0,0,0,0,0,0,0,0,0,0,0,0,0,0,0,0,0,0,0,0,0,0,0,0,0,0,0,0,0,0,0,0,0,0,0,0,0,0],"id":3,"left_children":[1,3,5,7,9,11,13,15,17,19,21,23,25,27,29,31,33,35,37,39,41,43,45,47,49,51,53,55,57,59,61,63,65,67,69,71,73,75,77,79,81,83,85,87,89,91,93,95,97,99,101,103,105,107,109,111,113,115,117,119,121,123,125,127,-1,129,131,133,135,137,-1,-1,-1,-1,139,141,143,145,147,-1,149,-1,151,153,155,157,159,161,163,-1,-1,165,167,169,171,173,175,177,179,181,183,185,187,189,191,193,195,197,199,201,203,205,207,209,211,213,215,217,219,221,223,225,227,229,231,233,235,-1,-1,-1,-1,-1,-1,-1,-1,-1,-1,-1,-1,-1,-1,-1,-1,-1,-1,-1,-1,-1,-1,-1,-1,-1,-1,-1,-1,-1,-1,-1,-1,-1,-1,-1,-1,-1,-1,-1,-1,-1,-1,-1,-1,-1,-1,-1,-1,-1,-1,-1,-1,-1,-1,-1,-1,-1,-1,-1,-1,-1,-1,-1,-1,-1,-1,-1,-1,-1,-1,-1,-1,-1,-1,-1,-1,-1,-1,-1,-1,-1,-1,-1,-1,-1,-1,-1,-1,-1,-1,-1,-1,-1,-1,-1,-1,-1,-1,-1,-1,-1,-1,-1,-1,-1,-1,-1,-1,-1,-1],"loss_changes":[1.1850571E3,1.2880609E2,2.0419592E2,2.311615E1,6.686775E1,3.562268E1,4.495215E1,5.978882E0,1.3787914E1,1.3300751E1,3.8320004E1,1.5081421E1,2.3236465E1,2.8085693E1,2.1053986E1,1.5354614E0,3.7562408E0,1.8336601E0,1.7215397E1,2.0915833E0,1.9899944E1,4.0730877E0,2.4493507E1,1.4129486E1,3.9634387E0,1.1479782E1,7.084343E0,1.3177063E1,1.2227615E1,9.614227E0,9.701416E0,8.1018066E-1,1.7133179E0,3.7715302E0,2.1007538E0,5.028724E-1,2.3187637E-1,2.638527E0,6.226486E0,4.7895432E-1,2.5828934E0,1.1113554E1,5.045685E0,3.7670984E0,3.0950177E0,6.4493327E0,1.5961971E1,5.255615E0,1.2211983E1,2.1631088E0,2.516213E0,3.234089E0,6.2844734E0,3.4651637E0,8.584007E0,1.1369579E1,1.2185043E1,4.4601307E0,6.5287476E0,8.663727E0,3.949245E0,4.05074E0,8.398361E0,7.4479675E-1,0E0,2.1121452E0,7.362366E-1,1.676281E0,3.791154E0,1.5324554E0,0E0,0E0,0E0,0E0,2.3347092E-1,1.8983345E0,1.1087316E0,4.2316055E0,5.934739E0,0E0,3.562317E-1,0E0,1.9193687E0,1.1782236E1,5.527132E0,5.5895233E0,3.600655E0,3.016121E0,3.5343504E0,0E0,0E0,5.7696676E0,5.168491E0,8.227743E0,1.4078922E1,4.6363597E0,4.508356E0,5.446109E0,8.22348E0,2.4202645E0,1.0762084E0,3.0507555E0,6.731542E-1,3.4655342E0,5.740753E-1,5.8372965E0,5.8167763E0,2.051074E0,1.7609925E0,6.7248306E0,6.5878935E0,7.1614685E0,3.4091816E0,9.128433E0,4.601446E0,3.9601316E0,2.1361942E0,4.5601883E0,8.901489E0,4.732833E-2,8.044464E0,4.1613615E-1,1.4052382E0,2.0970483E0,3.8781452E-1,5.8667297E0,6.578167E0,0E0,0E0,0E0,0E0,0E0,0E0,0E0,0E0,0E0,0E0,0E0,0E0,0E0,0E0,0E0,0E0,0E0,0E0,0E0,0E0,0E0,0E0,0E0,0E0,0E0,0E0,0E0,0E0,0E0,0E0,0E0,0E0,0E0,0E0,0E0,0E0,0E0,0E0,0E0,0E0,0E0,0E0,0E0,0E0,0E0,0E0,0E0,0E0,0E0,0E0,0E0,0E0,0E0,0E0,0E0,0E0,0E0,0E0,0E0,0E0,0E0,0E0,0E0,0E0,0E0,0E0,0E0,0E0,0E0,0E0,0E0,0E0,0E0,0E0,0E0,0E0,0E0,0E0,0E0,0E0,0E0,0E0,0E0,0E0,0E0,0E0,0E0,0E0,0E0,0E0,0E0,0E0,0E0,0E0,0E0,0E0,0E0,0E0,0E0,0E0,0E0,0E0,0E0,0E0,0E0,0E0,0E0,0E0,0E0,0E0],"parents":[2147483647,0,0,1,1,2,2,3,3,4,4,5,5,6,6,7,7,8,8,9,9,10,10,11,11,12,12,13,13,14,14,15,15,16,16,17,17,18,18,19,19,20,20,21,21,22,22,23,23,24,24,25,25,26,26,27,27,28,28,29,29,30,30,31,31,32,32,33,33,34,34,35,35,36,36,37,37,38,38,39,39,40,40,41,41,42,42,43,43,44,44,45,45,46,46,47,47,48,48,49,49,50,50,51,51,52,52,53,53,54,54,55,55,56,56,57,57,58,58,59,59,60,60,61,61,62,62,63,63,65,65,66,66,67,67,68,68,69,69,74,74,75,75,76,76,77,77,78,78,80,80,82,82,83,83,84,84,85,85,86,86,87,87,88,88,91,91,92,92,93,93,94,94,95,95,96,96,97,97,98,98,99,99,100,100,101,101,102,102,103,103,104,104,105,105,106,106,107,107,108,108,109,109,110,110,111,111,112,112,113,113,114,114,115,115,116,116,117,117,118,118,119,119,120,120,121,121,122,122,123,123,124,124,125,125,126,126],"right_children":[2,4,6,8,10,12,14,16,18,20,22,24,26,28,30,32,34,36,38,40,42,44,46,48,50,52,54,56,58,60,62,64,66,68,70,72,74,76,78,80,82,84,86,88,90,92,94,96,98,100,102,104,106,108,110,112,114,116,118,120,122,124,126,128,-1,130,132,134,136,138,-1,-1,-1,-1,140,142,144,146,148,-1,150,-1,152,154,156,158,160,162,164,-1,-1,166,168,170,172,174,176,178,180,182,184,186,188,190,192,194,196,198,200,202,204,206,208,210,212,214,216,218,220,222,224,226,228,230,232,234,236,-1,-1,-1,-1,-1,-1,-1,-1,-1,-1,-1,-1,-1,-1,-1,-1,-1,-1,-1,-1,-1,-1,-1,-1,-1,-1,-1,-1,-1,-1,-1,-1,-1,-1,-1,-1,-1,-1,-1,-1,-1,-1,-1,-1,-1,-1,-1,-1,-1,-1,-1,-1,-1,-1,-1,-1,-1,-1,-1,-1,-1,-1,-1,-1,-1,-1,-1,-1,-1,-1,-1,-1,-1,-1,-1,-1,-1,-1,-1,-1,-1,-1,-1,-1,-1,-1,-1,-1,-1,-1,-1,-1,-1,-1,-1,-1,-1,-1,-1,-1,-1,-1,-1,-1,-1,-1,-1,-1,-1,-1],"split_conditions":[1.7182322E-1,4.3202635E-2,3.080882E-1,1.5278551E-1,1.4206184E-1,2.0716639E-1,4.48063E-1,2.8754508E-2,2.5E-1,2.9166666E-1,7.0246436E-2,9.659258E-1,3.276098E-1,2.4005103E-1,-7.0710677E-1,1.6359229E-2,5.061243E-2,1.3314174E-2,1.0691418E-1,2.9516995E-2,1.4997508E-1,4.9256086E-1,1.2315121E-1,1.9739582E-1,1.0705104E-1,7.152214E-2,5.401918E-2,-8.660254E-1,3.6804598E-2,2.4851169E-1,2.2268493E-2,3.9617488E-1,6.613097E-3,3.6814373E-2,6.614759E-1,1.6393442E-2,1.43943615E-2,5.116035E-1,3.4531806E-2,5.801734E-3,1.0772554E-2,2.2387753E-1,2.6529127E-1,1.6719455E-1,1.8542089E-1,2.532772E-1,2.5742203E-1,3.256694E-2,7.356032E-2,1.884806E-1,3.356208E-1,2.7122986E-1,2.0664829E-1,3.1365046E-1,2.2152165E-1,4.3792585E-1,5.3456116E-1,2.6240262E-1,2.2152165E-1,1.94776E-2,5.216673E-2,2.7099034E-1,6.6212106E-1,4.394508E-1,-0E0,6.613097E-3,4.9223828E-1,1.5006305E-1,1.5539557E-1,4.9223828E-1,1.633319E-1,1.1490965E-1,-0E0,-0E0,6.614759E-1,4.2780337E-1,2.5E-1,4.9228227E-1,2.8720295E-2,-0E0,7.463562E-3,1.3886517E-1,3.621807E-2,2.2268493E-2,4.029297E-1,1.2585902E-2,4.1191337E-1,7.463562E-3,2.3347703E-1,-0E0,2.978238E-1,1.5539557E-1,2.2851598E-1,1.3640185E-1,1.2715426E-1,4.7850866E-2,2.4345289E-1,3.109573E-2,-5E-1,1.10633746E-1,4.1496817E-2,3.2181785E-1,1.3350831E-1,1.4547348E-1,2.4828686E-1,4.2391274E-2,2.2151187E-1,2.9516995E-2,2.591718E-1,2.1061223E-2,1.8621758E-1,3.4459466E-1,4.623303E-2,2.745975E-1,2.1545109E-1,3.0377235E-2,4.4959286E-1,1.10633746E-1,5.3456116E-1,3.9678585E-2,3.000088E-1,1.6129032E-1,1.6970684E-1,7.496799E-2,6.451613E-2,4.48542E-1,1.9638894E-1,-9.517E-2,-0E0,1.4743829E-1,-4.934627E-2,-8.04863E-2,-0E0,-7.7781565E-2,1.1007014E-2,-5.043995E-2,-0E0,-7.506354E-2,-0E0,-9.373114E-2,-0E0,-7.1162105E-2,3.007083E-2,2.1484765E-1,-0E0,-5.68065E-2,2.4236006E-1,-1.9940343E-2,2.6130265E-2,-0E0,-8.749603E-2,-7.951836E-2,-4.944469E-2,4.505987E-2,-2.8074665E-2,3.3030648E-2,1.7927633E-1,4.767293E-2,-6.844039E-2,-1.3405984E-2,2.125895E-1,1.1659865E-1,-4.6882268E-2,-0E0,3.4077388E-1,-4.5101207E-2,1.1703579E-2,9.9668525E-2,-3.6115643E-2,5.2213013E-2,-5.5648736E-3,6.055267E-2,1.5881237E-1,2.9301536E-1,5.477462E-2,3.813723E-3,4.9418777E-2,5.493823E-2,8.330695E-3,1.0113033E-1,5.4580066E-2,-0E0,1.2070304E-1,-6.925411E-2,1.8456873E-2,-2.183043E-2,-9.7138986E-2,-9.844984E-3,7.837303E-2,6.628161E-2,1.7190759E-1,6.619158E-2,-2.0570658E-2,-1.0107445E-2,5.093418E-2,5.340105E-2,1.0332877E-1,1.0913716E-1,-0E0,2.5807038E-1,3.7629653E-2,-4.6548843E-2,1.9719398E-1,1.5627769E-1,8.550727E-3,1.8466114E-1,-9.541412E-2,6.6845274E-1,5.9594188E-2,6.675234E-2,1.1919377E-1,3.276129E-1,8.262779E-2,1.4160365E-1,1.7806709E-2,1.8255866E-1,-0E0,9.59758E-2,1.8088347E-1,2.3620161E-1,-7.047731E-2,1.1270151E-2,-2.3200558E-2,3.0167067E-1,1.1002157E-1,-0E0,-1.4236347E-1,-0E0,2.0070446E-1,4.013903E-2,-1.13177955E-1,-0E0,1.7693223E-1,1.472266E-1,2.7294093E-1,1.4593413E-1,3.6621958E-1],"split_indices":[173,173,173,151,31,103,173,151,2,2,6,5,6,103,4,173,168,131,140,18,172,17,127,173,14,172,21,4,167,36,104,67,76,163,63,6,36,6,162,122,133,162,8,173,27,140,6,172,31,73,160,72,173,29,97,73,132,31,152,23,38,160,173,6,0,41,128,162,102,104,0,0,0,0,74,163,0,73,173,0,133,0,171,123,164,16,16,172,73,0,0,97,142,170,173,81,8,19,4,121,131,172,172,31,103,90,151,44,132,144,120,98,17,6,28,82,132,113,144,29,59,1,56,169,1,168,87,0,0,0,0,0,0,0,0,0,0,0,0,0,0,0,0,0,0,0,0,0,0,0,0,0,0,0,0,0,0,0,0,0,0,0,0,0,0,0,0,0,0,0,0,0,0,0,0,0,0,0,0,0,0,0,0,0,0,0,0,0,0,0,0,0,0,0,0,0,0,0,0,0,0,0,0,0,0,0,0,0,0,0,0,0,0,0,0,0,0,0,0,0,0,0,0,0,0,0,0,0,0,0,0,0,0,0,0,0,0],"split_type":[0,0,0,0,0,0,0,0,0,0,0,0,0,0,0,0,0,0,0,0,0,0,0,0,0,0,0,0,0,0,0,0,0,0,0,0,0,0,0,0,0,0,0,0,0,0,0,0,0,0,0,0,0,0,0,0,0,0,0,0,0,0,0,0,0,0,0,0,0,0,0,0,0,0,0,0,0,0,0,0,0,0,0,0,0,0,0,0,0,0,0,0,0,0,0,0,0,0,0,0,0,0,0,0,0,0,0,0,0,0,0,0,0,0,0,0,0,0,0,0,0,0,0,0,0,0,0,0,0,0,0,0,0,0,0,0,0,0,0,0,0,0,0,0,0,0,0,0,0,0,0,0,0,0,0,0,0,0,0,0,0,0,0,0,0,0,0,0,0,0,0,0,0,0,0,0,0,0,0,0,0,0,0,0,0,0,0,0,0,0,0,0,0,0,0,0,0,0,0,0,0,0,0,0,0,0,0,0,0,0,0,0,0,0,0,0,0,0,0,0,0,0,0,0,0,0,0,0,0,0,0,0,0,0,0,0,0],"sum_hessian":[2.1425E4,1.3651E4,7.774E3,7.736E3,5.915E3,5.189E3,2.585E3,5.85E3,1.886E3,3.536E3,2.379E3,3.416E3,1.773E3,1.834E3,7.51E2,3.081E3,2.769E3,3.43E2,1.543E3,1.273E3,2.263E3,6.24E2,1.755E3,3.158E3,2.58E2,1.402E3,3.71E2,1.244E3,5.9E2,2.4E2,5.11E2,1.003E3,2.078E3,9E2,1.869E3,5E0,3.38E2,5.79E2,9.64E2,2.39E2,1.034E3,1.358E3,9.05E2,6.15E2,9E0,5.62E2,1.193E3,1.073E3,2.085E3,7.5E1,1.83E2,1.58E2,1.244E3,7.7E1,2.94E2,8.2E1,1.162E3,1.38E2,4.52E2,2.24E2,1.6E1,2.8E1,4.83E2,1E3,3E0,1.7E1,2.061E3,3.41E2,5.59E2,1.868E3,1E0,2E0,3E0,2E0,3.36E2,5.76E2,3E0,1.98E2,7.66E2,3E0,2.36E2,3E0,1.031E3,1.17E3,1.88E2,8.05E2,1E2,6.03E2,1.2E1,6E0,3E0,4.79E2,8.3E1,7.39E2,4.54E2,4.2E1,1.031E3,7.49E2,1.336E3,4.5E1,3E1,1.68E2,1.5E1,1.42E2,1.6E1,5.02E2,7.42E2,6.1E1,1.6E1,2.06E2,8.8E1,7.6E1,6E0,1.13E3,3.2E1,9.3E1,4.5E1,2.58E2,1.94E2,7E0,2.17E2,5E0,1.1E1,2E1,8E0,4.31E2,5.2E1,9.99E2,1E0,4E0,1.3E1,2.054E3,7E0,3.31E2,1E1,4.18E2,1.41E2,1.85E3,1.8E1,3.35E2,1E0,5.67E2,9E0,2E0,1E0,1.96E2,2E0,4.31E2,3.35E2,2E0,2.34E2,2.24E2,8.07E2,1.72E2,9.98E2,1.68E2,2E1,2.6E1,7.79E2,9.6E1,4E0,6E0,5.97E2,1E1,2E0,2.72E2,2.07E2,5.9E1,2.4E1,5E2,2.39E2,2.94E2,1.6E2,7E0,3.5E1,8.51E2,1.8E2,2.78E2,4.71E2,3.82E2,9.54E2,2.3E1,2.2E1,1.7E1,1.3E1,9.8E1,7E1,3E0,1.2E1,3.9E1,1.03E2,7E0,9E0,1.41E2,3.61E2,4.68E2,2.74E2,1.5E1,4.6E1,8E0,8E0,6E0,2E2,4.3E1,4.5E1,7.1E1,5E0,4E0,2E0,7.83E2,3.47E2,2E1,1.2E1,2.6E1,6.7E1,4E1,5E0,8.1E1,1.77E2,1.89E2,5E0,3E0,4E0,1.95E2,2.2E1,1E0,4E0,4E0,7E0,7E0,1.3E1,1E0,7E0,3.98E2,3.3E1,2.3E1,2.9E1],"tree_param":{"num_deleted":"0","num_feature":"174","num_nodes":"237","size_leaf_vector":"1"}},{"base_weights":[1.6462096E-3,-1.453526E-1,2.164756E-1,-1.9111504E-1,-4.4584967E-2,1.4272912E-1,4.3713394E-1,-2.1974331E-1,-1.309094E-1,-1.12731345E-1,7.392697E-2,8.1826665E-2,2.4311477E-1,3.0576247E-1,5.3393185E-1,-2.5022656E-1,-1.954311E-1,-5.9448067E-2,-1.688603E-1,-2.387284E-2,-1.8441752E-1,1.4074646E-1,-1.1922249E-1,3.4092958E-3,1.3753837E-1,1.4358437E-1,3.4924537E-1,2.3936822E-1,4.9267736E-1,3.7276804E-1,6.2239116E-1,-2.510296E-1,-0E0,-2.0606145E-1,-6.501088E-2,7.7942275E-2,-1.12592325E-1,-1.957071E-1,-3.5155248E-2,-1.4143226E-1,9.782708E-2,-1.9868886E-1,7.1634255E-2,5.4013245E-2,3.0641413E-1,1.0009126E-1,-1.9250469E-1,-2.2129353E-2,2.5978923E-1,1.06120795E-1,2.7389467E-1,-8.314517E-3,1.777405E-1,1.4603291E-1,4.3640563E-1,3.7300718E-1,1.0243629E-1,2.3573624E-1,5.988278E-1,7.4089724E-1,2.955422E-1,5.132607E-1,7.6813036E-1,-2.5212517E-1,-0E0,1.9446304E-2,-1.5303911E-2,-2.079501E-1,-0E0,-1.4400187E-1,1.7640282E-1,-1.00823164E-1,2.6140326E-1,-1.207731E-1,7.2968465E-1,-3.3138308E-1,-1.8312821E-1,1.8168807E-1,-1.1646059E-1,-2.2102946E-1,-6.234517E-2,-2.9607786E-2,1.9715157E-1,-2.0238225E-1,6.3610303E-1,3.5963747E-1,-1.14359334E-1,-3.4244124E-2,1.6594945E-1,3.9776143E-1,1.0757624E-1,-3.3136606E-2,3.5848898E-1,2.9849932E-2,-2.6542643E-1,-8.349221E-2,5.8328755E-2,8.9939214E-2,4.849625E-1,8.251958E-2,2.9827914E-1,1.2961322E-1,4.3138826E-1,5.0376E-2,-2.506489E-1,1.374003E-1,3.313537E-1,3.22419E-1,-1.0498517E-2,1.5752485E-1,4.809982E-1,2.8545526E-3,4.368817E-1,-1.0145828E-2,3.8454285E-1,3.5976192E-1,-3.0467358E-1,3.336579E-1,8.090417E-1,1.7776863E-1,1.017705E0,5.179495E-1,1.639818E-1,3.196148E-1,6.0278445E-1,5.3979534E-1,9.5017093E-1,-7.2971925E-2,-6.189834E-2,3.6991227E-2,-4.0136103E-2,-5.476038E-2,-9.7645745E-3,1.76694E-1,-2.6755333E-2,-4.566527E-2,6.448457E-2,7.284909E-2,-3.321483E-2,2.231012E-1,-3.7231915E-2,1.250206E-1,-3.4403598E-3,-6.5560485E-3,-4.6145964E-2,-0E0,2.5669318E-1,3.332868E-3,-9.04101E-2,6.396474E-2,-4.8790112E-2,1.18784375E-1,-0E0,-4.3014854E-2,7.713987E-2,-6.397244E-2,-0E0,2.289157E-2,-3.806855E-2,-1.5157427E-2,1.1579375E-1,2.8713876E-2,1.14484794E-1,-3.8157925E-2,-6.42926E-2,3.233429E-1,-0E0,2.2478777E-1,2.4912823E-2,3.3935543E-2,-7.502861E-2,2.65204E-1,-1.2274713E-2,7.6348044E-2,-4.532012E-3,4.61498E-2,1.3774425E-1,3.64428E-3,1.6137493E-1,-6.558056E-2,3.8937878E-2,-0E0,1.637784E-1,1.3407381E-1,-1.0116421E-2,2.8896924E-2,-7.665116E-2,-3.6632717E-2,1.4156817E-2,5.3313594E-2,1.6876438E-3,-1.5449149E-2,8.3549574E-2,1.8029429E-1,4.451645E-2,3.4142494E-2,-0E0,1.11666776E-1,-0E0,-4.977591E-3,8.067726E-2,1.6753416E-1,6.994394E-2,-7.5123605E-4,1.0180867E-1,-9.364249E-2,-0E0,3.326385E-2,2.563343E-1,1.0986098E-1,1.04133105E-2,2.7213423E-2,1.1182641E-1,3.521608E-2,-7.420968E-2,1.2867597E-1,2.6338766E-3,1.0501004E-1,1.6043414E-1,9.8465435E-2,-6.739008E-2,1.4954902E-1,5.8550958E-2,-3.558548E-2,3.3168316E-2,1.874734E-1,5.3296708E-2,1.18315406E-1,-2.3735465E-2,8.737145E-3,-1.4527583E-1,1.2215355E-1,-3.161977E-2,2.4412248E-1,3.7206482E-2,9.850371E-2,-6.101731E-2,-0E0,3.091724E-1,5.4433394E-2,1.9799177E-1,-0E0,8.60227E-2,4.6639416E-2,1.8154572E-1,2.8087568E-1,1.3924126E-1,1.2074459E-1,3.6292586E-1,2.6277137E-1,2.0590972E-2],"categories":[],"categories_nodes":[],"categories_segments":[],"categories_sizes":[],"default_left":[0,0,0,0,0,0,0,0,0,0,0,0,0,0,0,0,0,0,0,0,0,0,0,0,0,0,0,0,0,0,0,0,0,0,0,0,0,0,0,0,0,0,0,0,0,0,0,0,0,0,0,0,0,0,0,0,0,0,0,0,0,0,0,0,0,0,0,0,0,0,0,0,0,0,0,0,0,0,0,0,0,0,0,0,0,0,0,0,0,0,0,0,0,0,0,0,0,0,0,0,0,0,0,0,0,0,0,0,0,0,0,0,0,0,0,0,0,0,0,0,0,0,0,0,0,0,0,0,0,0,0,0,0,0,0,0,0,0,0,0,0,0,0,0,0,0,0,0,0,0,0,0,0,0,0,0,0,0,0,0,0,0,0,0,0,0,0,0,0,0,0,0,0,0,0,0,0,0,0,0,0,0,0,0,0,0,0,0,0,0,0,0,0,0,0,0,0,0,0,0,0,0,0,0,0,0,0,0,0,0,0,0,0,0,0,0,0,0,0,0,0,0,0,0,0,0,0,0,0,0,0,0,0,0,0,0,0,0,0,0,0,0,0,0,0,0,0,0,0,0,0],"id":4,"left_children":[1,3,5,7,9,11,13,15,17,19,21,23,25,27,29,31,33,35,37,39,41,43,45,47,49,51,53,55,57,59,61,63,65,67,69,71,73,75,77,79,81,83,85,87,89,91,93,95,97,99,101,103,105,107,109,111,113,115,117,119,121,123,125,127,129,-1,-1,131,133,135,137,139,141,143,145,147,149,151,153,155,157,159,161,163,165,167,169,171,173,175,177,179,181,183,185,187,189,191,193,195,197,199,201,203,205,207,209,211,213,215,217,219,221,223,225,227,229,231,233,235,237,239,241,243,245,247,249,-1,-1,-1,-1,-1,-1,-1,-1,-1,-1,-1,-1,-1,-1,-1,-1,-1,-1,-1,-1,-1,-1,-1,-1,-1,-1,-1,-1,-1,-1,-1,-1,-1,-1,-1,-1,-1,-1,-1,-1,-1,-1,-1,-1,-1,-1,-1,-1,-1,-1,-1,-1,-1,-1,-1,-1,-1,-1,-1,-1,-1,-1,-1,-1,-1,-1,-1,-1,-1,-1,-1,-1,-1,-1,-1,-1,-1,-1,-1,-1,-1,-1,-1,-1,-1,-1,-1,-1,-1,-1,-1,-1,-1,-1,-1,-1,-1,-1,-1,-1,-1,-1,-1,-1,-1,-1,-1,-1,-1,-1,-1,-1,-1,-1,-1,-1,-1,-1,-1,-1,-1,-1,-1,-1],"loss_changes":[6.759004E2,5.8362213E1,1.409401E2,1.4702545E1,3.214599E1,3.9567535E1,2.673935E1,3.9263E0,7.448654E0,1.5917679E1,1.8711348E1,1.7640451E1,2.5460129E1,1.0752182E1,1.6650116E1,5.4244995E-1,4.3261185E0,7.2684536E0,6.3793488E0,1.63058E1,5.222542E0,1.5163095E1,6.0329328E0,1.1330915E1,9.786243E0,6.7638264E0,2.0383148E1,1.21788025E1,5.6263084E0,1.1584469E1,1.1176178E1,5.3886414E-1,4.5293525E-2,1.2173004E0,4.8971047E0,9.091522E0,4.494357E0,2.0771942E0,5.498438E0,3.3949375E0,7.181485E0,3.8205566E0,4.0651174E0,7.168084E0,6.168335E0,3.4030163E0,4.7599974E0,7.6356487E0,5.4435434E0,8.403687E0,9.392033E0,3.4641004E0,6.008236E0,1.02237015E1,9.609253E0,7.783577E0,1.1329873E1,5.119016E0,7.9548683E0,1.0434032E1,1.0244568E1,7.0210342E0,1.2153946E1,5.0027466E-1,3.5975114E-1,0E0,0E0,1.1423798E0,2.1121202E0,2.4214258E0,2.0985603E0,5.0058494E0,8.683852E0,3.6824026E0,7.042608E-1,9.9237823E-1,2.7187576E0,3.9392846E0,4.6258717E0,1.381424E0,3.8458676E0,2.9480507E0,6.119032E0,2.9053955E0,2.6166863E0,3.04912E0,1.971681E0,4.5722256E0,7.7237625E0,6.4812317E0,5.1807046E0,2.4541879E0,2.9013414E0,2.6872501E0,2.5661373E0,7.061441E0,4.8357315E0,3.4691355E0,3.3546467E0,6.8742294E0,7.7763824E0,6.530587E0,6.128353E0,3.6767733E0,1.5245254E0,5.567478E0,5.1981983E0,3.5067635E0,7.757014E0,5.4084005E0,6.2601166E0,5.5243344E0,7.7284584E0,4.318921E0,5.121379E0,3.033948E0,1.6087543E0,5.1438665E0,6.6767693E0,2.4580638E0,8.638275E0,9.188477E0,6.3808117E0,7.1556673E0,8.017044E0,7.6169815E0,8.632889E0,0E0,0E0,0E0,0E0,0E0,0E0,0E0,0E0,0E0,0E0,0E0,0E0,0E0,0E0,0E0,0E0,0E0,0E0,0E0,0E0,0E0,0E0,0E0,0E0,0E0,0E0,0E0,0E0,0E0,0E0,0E0,0E0,0E0,0E0,0E0,0E0,0E0,0E0,0E0,0E0,0E0,0E0,0E0,0E0,0E0,0E0,0E0,0E0,0E0,0E0,0E0,0E0,0E0,0E0,0E0,0E0,0E0,0E0,0E0,0E0,0E0,0E0,0E0,0E0,0E0,0E0,0E0,0E0,0E0,0E0,0E0,0E0,0E0,0E0,0E0,0E0,0E0,0E0,0E0,0E0,0E0,0E0,0E0,0E0,0E0,0E0,0E0,0E0,0E0,0E0,0E0,0E0,0E0,0E0,0E0,0E0,0E0,0E0,0E0,0E0,0E0,0E0,0E0,0E0,0E0,0E0,0E0,0E0,0E0,0E0,0E0,0E0,0E0,0E0,0E0,0E0,0E0,0E0,0E0,0E0,0E0,0E0,0E0,0E0],"parents":[2147483647,0,0,1,1,2,2,3,3,4,4,5,5,6,6,7,7,8,8,9,9,10,10,11,11,12,12,13,13,14,14,15,15,16,16,17,17,18,18,19,19,20,20,21,21,22,22,23,23,24,24,25,25,26,26,27,27,28,28,29,29,30,30,31,31,32,32,33,33,34,34,35,35,36,36,37,37,38,38,39,39,40,40,41,41,42,42,43,43,44,44,45,45,46,46,47,47,48,48,49,49,50,50,51,51,52,52,53,53,54,54,55,55,56,56,57,57,58,58,59,59,60,60,61,61,62,62,63,63,64,64,67,67,68,68,69,69,70,70,71,71,72,72,73,73,74,74,75,75,76,76,77,77,78,78,79,79,80,80,81,81,82,82,83,83,84,84,85,85,86,86,87,87,88,88,89,89,90,90,91,91,92,92,93,93,94,94,95,95,96,96,97,97,98,98,99,99,100,100,101,101,102,102,103,103,104,104,105,105,106,106,107,107,108,108,109,109,110,110,111,111,112,112,113,113,114,114,115,115,116,116,117,117,118,118,119,119,120,120,121,121,122,122,123,123,124,124,125,125,126,126],"right_children":[2,4,6,8,10,12,14,16,18,20,22,24,26,28,30,32,34,36,38,40,42,44,46,48,50,52,54,56,58,60,62,64,66,68,70,72,74,76,78,80,82,84,86,88,90,92,94,96,98,100,102,104,106,108,110,112,114,116,118,120,122,124,126,128,130,-1,-1,132,134,136,138,140,142,144,146,148,150,152,154,156,158,160,162,164,166,168,170,172,174,176,178,180,182,184,186,188,190,192,194,196,198,200,202,204,206,208,210,212,214,216,218,220,222,224,226,228,230,232,234,236,238,240,242,244,246,248,250,-1,-1,-1,-1,-1,-1,-1,-1,-1,-1,-1,-1,-1,-1,-1,-1,-1,-1,-1,-1,-1,-1,-1,-1,-1,-1,-1,-1,-1,-1,-1,-1,-1,-1,-1,-1,-1,-1,-1,-1,-1,-1,-1,-1,-1,-1,-1,-1,-1,-1,-1,-1,-1,-1,-1,-1,-1,-1,-1,-1,-1,-1,-1,-1,-1,-1,-1,-1,-1,-1,-1,-1,-1,-1,-1,-1,-1,-1,-1,-1,-1,-1,-1,-1,-1,-1,-1,-1,-1,-1,-1,-1,-1,-1,-1,-1,-1,-1,-1,-1,-1,-1,-1,-1,-1,-1,-1,-1,-1,-1,-1,-1,-1,-1,-1,-1,-1,-1,-1,-1,-1,-1,-1,-1],"split_conditions":[1.4458391E-1,1.2118146E-1,3.2957956E-1,4.2298406E-2,6.962081E-2,2.0356902E-1,1.4172947E-1,2.802135E-2,-2.5881904E-1,4.8691556E-2,1.7850964E-1,1.9739582E-1,-2.5881904E-1,4.0275374E-1,7.710392E-2,4.2860004E-1,1E0,2.5841422E-2,1.7633459E-1,1.5252647E-1,4.4959286E-1,2.2248453E-1,3.3837747E-2,3.3975092E-1,2.62603E-1,3.2610927E-2,1.367782E-1,1.4520465E-1,3.9481607E-1,3.544092E-2,2.848275E-1,4.6126476E-1,4.4209506E-2,5.603439E-1,1.3978416E-1,5.3730804E-2,4.9256086E-1,1.7072838E-2,2.5831647E-2,2.9243281E-2,1.787198E-1,6.614759E-1,5.201521E-2,1.367782E-1,1.7867582E-1,1.9341232E-1,8.122428E-2,1.297741E-1,1.8205813E-1,3.4053296E-1,2.1478635E-1,2.4828686E-1,3.5735652E-1,1.5803982E-1,1.0534033E-1,2.5206018E-2,1.3431479E-1,1.962472E-1,1.809926E-1,1.2560485E-1,4.870622E-2,7.9366945E-2,1.8624201E-1,2.246889E-2,2.5215793E-2,1.9446304E-2,-1.5303911E-2,4.6113768E-1,2.6061371E-2,3.1290752E-1,2.4276371E-1,1.0772554E-2,1.4997508E-1,8.8849135E-2,3.3333334E-1,4.6580057E-3,9.614163E-3,1.0162077E-1,3.443014E-1,1E0,3.219547E-2,5.107921E-1,2.5742203E-1,1.3230594E-1,0E0,1.3410462E-1,2.051722E-1,5.801734E-3,1.2997937E-1,1.8086064E-1,3.6205852E-1,2.1499653E-1,3.3906177E-2,2.3832565E-2,9.576038E-2,1.7612442E-1,1.4462301E-1,1.8548442E-1,1.884415E-1,2.00392E-1,2.6474872E-1,1.03135966E-1,1.787198E-1,3.9617488E-1,3.8196135E-1,5.1041573E-1,2.7631798E-1,2.4812067E-1,2.2400461E-1,3.2962844E-2,9.457266E-2,6.63998E-2,1.6978015E-1,4.3275952E-2,7.167854E-2,3.5735652E-1,2.6774978E-2,2.804139E-1,2.619285E-1,2.7114674E-1,2.1339824E-2,5.3950753E-2,2.5648358E-1,2.7685073E-1,5.630175E-2,6.006579E-1,2.7700225E-1,-7.2971925E-2,-6.189834E-2,3.6991227E-2,-4.0136103E-2,-5.476038E-2,-9.7645745E-3,1.76694E-1,-2.6755333E-2,-4.566527E-2,6.448457E-2,7.284909E-2,-3.321483E-2,2.231012E-1,-3.7231915E-2,1.250206E-1,-3.4403598E-3,-6.5560485E-3,-4.6145964E-2,-0E0,2.5669318E-1,3.332868E-3,-9.04101E-2,6.396474E-2,-4.8790112E-2,1.18784375E-1,-0E0,-4.3014854E-2,7.713987E-2,-6.397244E-2,-0E0,2.289157E-2,-3.806855E-2,-1.5157427E-2,1.1579375E-1,2.8713876E-2,1.14484794E-1,-3.8157925E-2,-6.42926E-2,3.233429E-1,-0E0,2.2478777E-1,2.4912823E-2,3.3935543E-2,-7.502861E-2,2.65204E-1,-1.2274713E-2,7.6348044E-2,-4.532012E-3,4.61498E-2,1.3774425E-1,3.64428E-3,1.6137493E-1,-6.558056E-2,3.8937878E-2,-0E0,1.637784E-1,1.3407381E-1,-1.0116421E-2,2.8896924E-2,-7.665116E-2,-3.6632717E-2,1.4156817E-2,5.3313594E-2,1.6876438E-3,-1.5449149E-2,8.3549574E-2,1.8029429E-1,4.451645E-2,3.4142494E-2,-0E0,1.11666776E-1,-0E0,-4.977591E-3,8.067726E-2,1.6753416E-1,6.994394E-2,-7.5123605E-4,1.0180867E-1,-9.364249E-2,-0E0,3.326385E-2,2.563343E-1,1.0986098E-1,1.04133105E-2,2.7213423E-2,1.1182641E-1,3.521608E-2,-7.420968E-2,1.2867597E-1,2.6338766E-3,1.0501004E-1,1.6043414E-1,9.8465435E-2,-6.739008E-2,1.4954902E-1,5.8550958E-2,-3.558548E-2,3.3168316E-2,1.874734E-1,5.3296708E-2,1.18315406E-1,-2.3735465E-2,8.737145E-3,-1.4527583E-1,1.2215355E-1,-3.161977E-2,2.4412248E-1,3.7206482E-2,9.850371E-2,-6.101731E-2,-0E0,3.091724E-1,5.4433394E-2,1.9799177E-1,-0E0,8.60227E-2,4.6639416E-2,1.8154572E-1,2.8087568E-1,1.3924126E-1,1.2074459E-1,3.6292586E-1,2.6277137E-1,2.0590972E-2],"split_indices":[173,150,173,173,173,150,127,78,4,169,172,173,5,171,166,54,4,158,30,163,104,6,110,162,12,33,79,135,173,66,29,100,126,80,6,171,14,104,95,173,103,13,133,90,123,142,51,128,36,32,170,82,14,52,54,32,33,126,40,6,158,42,80,133,10,0,0,130,118,107,84,68,172,74,3,106,146,18,163,4,171,68,6,24,4,106,154,94,52,80,58,150,13,141,171,102,172,20,106,75,99,162,144,64,82,169,169,150,146,171,107,143,34,80,79,21,82,76,118,110,68,48,89,109,101,123,63,0,0,0,0,0,0,0,0,0,0,0,0,0,0,0,0,0,0,0,0,0,0,0,0,0,0,0,0,0,0,0,0,0,0,0,0,0,0,0,0,0,0,0,0,0,0,0,0,0,0,0,0,0,0,0,0,0,0,0,0,0,0,0,0,0,0,0,0,0,0,0,0,0,0,0,0,0,0,0,0,0,0,0,0,0,0,0,0,0,0,0,0,0,0,0,0,0,0,0,0,0,0,0,0,0,0,0,0,0,0,0,0,0,0,0,0,0,0,0,0,0,0,0,0],"split_type":[0,0,0,0,0,0,0,0,0,0,0,0,0,0,0,0,0,0,0,0,0,0,0,0,0,0,0,0,0,0,0,0,0,0,0,0,0,0,0,0,0,0,0,0,0,0,0,0,0,0,0,0,0,0,0,0,0,0,0,0,0,0,0,0,0,0,0,0,0,0,0,0,0,0,0,0,0,0,0,0,0,0,0,0,0,0,0,0,0,0,0,0,0,0,0,0,0,0,0,0,0,0,0,0,0,0,0,0,0,0,0,0,0,0,0,0,0,0,0,0,0,0,0,0,0,0,0,0,0,0,0,0,0,0,0,0,0,0,0,0,0,0,0,0,0,0,0,0,0,0,0,0,0,0,0,0,0,0,0,0,0,0,0,0,0,0,0,0,0,0,0,0,0,0,0,0,0,0,0,0,0,0,0,0,0,0,0,0,0,0,0,0,0,0,0,0,0,0,0,0,0,0,0,0,0,0,0,0,0,0,0,0,0,0,0,0,0,0,0,0,0,0,0,0,0,0,0,0,0,0,0,0,0,0,0,0,0,0,0,0,0,0,0,0,0,0,0,0,0,0,0],"sum_hessian":[2.1399E4,1.2703E4,8.696E3,8.729E3,3.974E3,6.522E3,2.174E3,5.904E3,2.825E3,2.528E3,1.446E3,4.066E3,2.456E3,9.28E2,1.246E3,2.599E3,3.305E3,9.89E2,1.836E3,1.135E3,1.393E3,1.078E3,3.68E2,1.696E3,2.37E3,1.273E3,1.183E3,6.9E2,2.38E2,4.47E2,7.99E2,2.591E3,8E0,3.049E3,2.56E2,2.71E2,7.18E2,1.523E3,3.13E2,5.81E2,5.54E2,1.323E3,7E1,7.12E2,3.66E2,8.9E1,2.79E2,1.54E3,1.56E2,1.933E3,4.37E2,2.29E2,1.044E3,3.59E2,8.24E2,3.45E2,3.45E2,7.3E1,1.65E2,7.4E1,3.73E2,4.63E2,3.36E2,2.577E3,1.4E1,4E0,4E0,3.022E3,2.7E1,1.96E2,6E1,1.35E2,1.36E2,7.13E2,5E0,1.21E2,1.402E3,8.2E1,2.31E2,2.83E2,2.98E2,2.39E2,3.15E2,1.319E3,4E0,2.9E1,4.1E1,3.94E2,3.18E2,2.47E2,1.19E2,5.7E1,3.2E1,6.6E1,2.13E2,8.8E2,6.6E2,9.2E1,6.4E1,1.727E3,2.06E2,2.32E2,2.05E2,1.82E2,4.7E1,8.33E2,2.11E2,1.71E2,1.88E2,1.17E2,7.07E2,5.3E1,2.92E2,2.45E2,1E2,6.1E1,1.2E1,7.6E1,8.9E1,2.6E1,4.8E1,1.35E2,2.38E2,1.51E2,3.12E2,1.53E2,1.83E2,8.23E2,1.754E3,5E0,9E0,2.97E3,5.2E1,3E0,2.4E1,1.84E2,1.2E1,4.7E1,1.3E1,4E0,1.31E2,7.7E1,5.9E1,2.72E2,4.41E2,2E0,3E0,3E0,1.18E2,1.2E1,1.39E3,3.1E1,5.1E1,2.09E2,2.2E1,2.51E2,3.2E1,1.03E2,1.95E2,2.28E2,1.1E1,2.36E2,7.9E1,6E2,7.19E2,2E0,2E0,8E0,2.1E1,1.5E1,2.6E1,3E0,3.91E2,1.9E2,1.28E2,9.6E1,1.51E2,1.03E2,1.6E1,2.8E1,2.9E1,1.5E1,1.7E1,9E0,5.7E1,1.3E1,2E2,6.26E2,2.54E2,1.67E2,4.93E2,5.4E1,3.8E1,3.6E1,2.8E1,1.08E3,6.47E2,1.41E2,6.5E1,1.25E2,1.07E2,8.5E1,1.2E2,1.56E2,2.6E1,3.4E1,1.3E1,8.26E2,7E0,1.58E2,5.3E1,6E1,1.11E2,1.21E2,6.7E1,3.3E1,8.4E1,4.58E2,2.49E2,2.3E1,3E1,1.73E2,1.19E2,1.31E2,1.14E2,3.2E1,6.8E1,5.2E1,9E0,4E0,8E0,6E1,1.6E1,7.3E1,1.6E1,1.9E1,7E0,7E0,4.1E1,6.2E1,7.3E1,1.22E2,1.16E2,1.13E2,3.8E1,3.5E1,2.77E2,1.43E2,1E1,1.7E2,1.3E1],"tree_param":{"num_deleted":"0","num_feature":"174","num_nodes":"251","size_leaf_vector":"1"}},{"base_weights":[2.0793793E-3,-7.0652634E-2,1.2478824E-1,-1.0638461E-1,5.017739E-2,5.4412823E-2,2.4079883E-1,-1.3139524E-1,-1.1787943E-2,-3.2162335E-2,1.266596E-1,-5.5744316E-2,9.699701E-2,2.1160144E-1,4.946286E-1,-1.6526069E-1,-9.879022E-2,-7.5822555E-2,7.293835E-2,1.4316875E-1,-7.7103905E-2,8.021542E-2,2.3184606E-1,-6.499827E-2,5.336252E-1,5.7860896E-2,2.2326532E-1,1.2486911E-1,2.8308716E-1,1.5123507E0,4.5933053E-1,-1.931489E-1,-1.4970326E-1,-1.8966931E-1,-7.4590616E-2,-1.1563092E-2,-1.2895899E-1,-3.0211903E-2,1.9677109E-1,6.1188053E-2,6.766375E-1,-1.0504534E-1,2.2271039E-1,6.1152093E-2,3.5988027E-1,5.028137E-2,3.319225E-1,-1.03819355E-1,8.325807E-2,3.6621964E-1,-0E0,2.8191023E-2,1.8510814E-1,3.5387002E-2,3.1704417E-1,5.635446E-2,2.1953486E-1,1.8022807E-1,3.4394336E-1,-0E0,4.934607E-1,4.18578E-1,1.1430066E0,-1.8403342E-1,-2.793105E-1,-1.5104374E-1,3.0612418E-1,-1.9671722E-1,3.0061734E-1,-8.095979E-2,1.7085092E-1,-6.764021E-2,9.94448E-2,-1.493845E-1,2.9758656E-2,8.3788335E-2,-1.2246398E-1,1.4018159E-1,5.2111125E-1,-1.2575634E-2,5.455114E-1,-2.3465976E-3,9.8668087E-1,-1.3369052E-1,5.624107E-2,-0E0,5.9155875E-1,-8.859223E-3,1.23909935E-1,9.150646E-1,1.3922931E-1,-0E0,6.642039E-1,2.6585758E-1,6.495003E-1,4.051552E-2,-1.3273643E-1,3.3579287E-1,7.788433E-4,1.5429737E-1,-2.4957066E-2,6.258956E-2,-8.4044516E-2,4.91874E-2,3.2103777E-1,3.586114E-1,-6.6855215E-2,2.7833596E-1,6.1500746E-1,2.0515744E-2,2.973957E-1,5.738468E-1,1.7356774E-1,9.277963E-1,1.604141E-1,3.8591954E-1,1.5207177E-1,1.301207E-1,4.8932514E-1,4.8716572E-1,1.6253608E-1,-4.9120836E-2,-5.3314636E-3,-7.361758E-2,-0E0,-3.980295E-2,-0E0,-0E0,1.6957936E-1,-5.6147087E-2,-6.4623905E-3,3.051807E-1,-1.5869655E-2,-3.1181263E-2,-1.2548604E-2,2.1017812E-1,1.2028323E-2,1.7445186E-1,-2.065053E-2,-0E0,1.0054161E-1,-4.3564588E-2,6.77426E-3,-7.039006E-3,2.1291195E-1,-4.945753E-2,3.8906045E-2,-5.1552404E-2,8.177348E-3,-2.6295898E-2,5.1486507E-2,2.1882765E-2,2.1817963E-1,6.3206136E-2,-2.1071551E-2,2.4467492E-1,5.463013E-2,1.1997579E-2,-3.7663657E-2,1.5035401E-1,4.2619702E-1,-3.9305206E-2,7.5008E-2,2.507363E-3,1.15162544E-1,-3.5726245E-2,6.5280035E-2,3.0546902E-2,2.391846E-1,1.0984462E-1,-6.5687974E-3,4.6285138E-2,-1.7274162E-2,4.825559E-1,1.1683732E-1,-6.700725E-2,1.0688517E-1,1.4154482E-1,-1.0532833E-2,2.2565397E-2,2.432748E-1,1.17637254E-1,3.0947067E-2,3.177511E-1,1.0164834E-1,2.091597E-3,2.1179493E-1,-1.7528974E-2,-5.097848E-2,2.6920555E-2,2.338388E-1,2.1029405E-1,-5.743863E-3,4.8379004E-2,-0E0,1.17758205E-2,7.129059E-2,-3.7126545E-2,2.636618E-2,8.25353E-2,2.7805034E-4,9.884618E-2,-2.683529E-2,1.2982925E-3,1.8108371E-1,-3.8279854E-2,7.8426614E-2,4.114365E-2,1.0047929E-1,-0E0,1.9675858E-1,-1.558997E-2,3.3583745E-2,6.1453176E-3,1.4018522E-1,6.89581E-2,2.2416541E-1,5.796378E-2,-7.29205E-3,3.3951482E-1,-0E0,8.8351935E-2,2.6019054E-2,1.4243129E-2,1.0839775E-1,9.448727E-2,-0E0,-6.825541E-2,7.45771E-2,-7.6182615E-3,1.4221632E-1],"categories":[],"categories_nodes":[],"categories_segments":[],"categories_sizes":[],"default_left":[0,0,0,0,0,0,0,0,0,0,0,0,0,0,0,0,0,0,0,0,0,0,0,0,0,0,0,0,0,0,0,0,0,0,0,0,0,0,0,0,0,0,0,0,0,0,0,0,0,0,0,0,0,0,0,0,0,0,0,0,0,0,0,0,0,0,0,0,0,0,0,0,0,0,0,0,0,0,0,0,0,0,0,0,0,0,0,0,0,0,0,0,0,0,0,0,0,0,0,0,0,0,0,0,0,0,0,0,0,0,0,0,0,0,0,0,0,0,0,0,0,0,0,0,0,0,0,0,0,0,0,0,0,0,0,0,0,0,0,0,0,0,0,0,0,0,0,0,0,0,0,0,0,0,0,0,0,0,0,0,0,0,0,0,0,0,0,0,0,0,0,0,0,0,0,0,0,0,0,0,0,0,0,0,0,0,0,0,0,0,0,0,0,0,0,0,0,0,0,0,0,0,0,0,0,0,0,0,0,0,0,0,0,0,0,0,0,0,0,0,0,0,0,0,0,0,0,0,0,0,0],"id":5,"left_children":[1,3,5,7,9,11,13,15,17,19,21,23,25,27,29,31,33,35,37,39,41,43,45,47,49,51,53,55,57,59,61,63,65,67,69,71,73,75,77,79,81,83,85,87,89,91,93,95,97,-1,99,101,103,105,107,109,111,113,115,-1,-1,117,119,121,123,125,127,129,131,133,135,137,139,141,143,145,147,149,151,153,155,157,159,161,163,165,167,169,171,173,175,177,179,181,183,185,187,189,191,193,-1,195,197,199,201,203,205,207,209,211,213,215,217,219,221,223,225,227,229,-1,-1,-1,-1,-1,-1,-1,-1,-1,-1,-1,-1,-1,-1,-1,-1,-1,-1,-1,-1,-1,-1,-1,-1,-1,-1,-1,-1,-1,-1,-1,-1,-1,-1,-1,-1,-1,-1,-1,-1,-1,-1,-1,-1,-1,-1,-1,-1,-1,-1,-1,-1,-1,-1,-1,-1,-1,-1,-1,-1,-1,-1,-1,-1,-1,-1,-1,-1,-1,-1,-1,-1,-1,-1,-1,-1,-1,-1,-1,-1,-1,-1,-1,-1,-1,-1,-1,-1,-1,-1,-1,-1,-1,-1,-1,-1,-1,-1,-1,-1,-1,-1,-1,-1,-1,-1,-1,-1,-1,-1,-1,-1],"loss_changes":[1.9170111E2,5.8247124E1,6.500289E1,2.4494095E1,1.942882E1,2.3417551E1,2.1597E1,8.826843E0,1.18626585E1,1.1566191E1,7.5072575E0,7.1612535E0,1.752401E1,1.6387428E1,8.559372E0,1.4062347E0,8.998013E0,4.1436024E0,1.2098957E1,1.2283593E1,9.785889E0,5.548839E0,8.4156E0,7.883368E0,8.192721E0,1.0204065E1,1.4577274E1,7.7235813E0,8.717964E0,4.630018E0,6.4467354E0,6.429405E-1,1.4984016E0,2.9926395E0,5.1401463E0,3.5574787E0,2.3068666E0,5.377065E0,7.205757E0,9.775126E0,8.88777E0,5.0715265E0,7.7371116E0,4.7136974E0,7.2538643E0,4.8490353E0,5.46558E0,4.6252346E0,5.50808E0,0E0,2.695521E-1,8.637867E0,9.165968E0,9.738049E0,5.4951706E0,5.9362154E0,7.550228E0,7.1222267E0,6.88295E0,0E0,0E0,5.194977E0,2.2558517E0,8.413887E-1,1.8723202E-1,7.72995E-1,7.1393317E-1,2.6404152E0,4.546688E0,3.9849377E0,5.6271133E0,2.8982244E0,5.318533E0,2.0604658E0,4.0086994E0,4.015667E0,3.4820495E0,5.2580094E0,7.5753803E0,3.8126655E0,3.5421305E0,1.7845641E-1,4.2516537E0,6.732849E0,2.453402E0,2.268198E0,4.562579E0,3.1205547E0,5.8801107E0,4.9783325E0,5.7477894E0,4.1039658E0,8.7957335E-1,6.527788E0,5.4728336E0,3.7019827E0,3.5183086E0,7.6432796E0,4.68075E0,6.2716484E-2,0E0,6.0031366E0,5.7173038E0,3.094879E0,6.661398E0,7.8479204E0,6.3029003E0,5.9538994E0,5.5622883E0,5.5962687E0,5.4377537E0,3.7398148E0,4.7205257E0,4.156165E0,5.4698296E0,7.2708435E0,5.686499E0,3.7891355E0,7.240326E0,0E0,0E0,0E0,0E0,0E0,0E0,0E0,0E0,0E0,0E0,0E0,0E0,0E0,0E0,0E0,0E0,0E0,0E0,0E0,0E0,0E0,0E0,0E0,0E0,0E0,0E0,0E0,0E0,0E0,0E0,0E0,0E0,0E0,0E0,0E0,0E0,0E0,0E0,0E0,0E0,0E0,0E0,0E0,0E0,0E0,0E0,0E0,0E0,0E0,0E0,0E0,0E0,0E0,0E0,0E0,0E0,0E0,0E0,0E0,0E0,0E0,0E0,0E0,0E0,0E0,0E0,0E0,0E0,0E0,0E0,0E0,0E0,0E0,0E0,0E0,0E0,0E0,0E0,0E0,0E0,0E0,0E0,0E0,0E0,0E0,0E0,0E0,0E0,0E0,0E0,0E0,0E0,0E0,0E0,0E0,0E0,0E0,0E0,0E0,0E0,0E0,0E0,0E0,0E0,0E0,0E0,0E0,0E0,0E0,0E0,0E0,0E0],"parents":[2147483647,0,0,1,1,2,2,3,3,4,4,5,5,6,6,7,7,8,8,9,9,10,10,11,11,12,12,13,13,14,14,15,15,16,16,17,17,18,18,19,19,20,20,21,21,22,22,23,23,24,24,25,25,26,26,27,27,28,28,29,29,30,30,31,31,32,32,33,33,34,34,35,35,36,36,37,37,38,38,39,39,40,40,41,41,42,42,43,43,44,44,45,45,46,46,47,47,48,48,50,50,51,51,52,52,53,53,54,54,55,55,56,56,57,57,58,58,61,61,62,62,63,63,64,64,65,65,66,66,67,67,68,68,69,69,70,70,71,71,72,72,73,73,74,74,75,75,76,76,77,77,78,78,79,79,80,80,81,81,82,82,83,83,84,84,85,85,86,86,87,87,88,88,89,89,90,90,91,91,92,92,93,93,94,94,95,95,96,96,97,97,98,98,99,99,101,101,102,102,103,103,104,104,105,105,106,106,107,107,108,108,109,109,110,110,111,111,112,112,113,113,114,114,115,115,116,116,117,117,118,118],"right_children":[2,4,6,8,10,12,14,16,18,20,22,24,26,28,30,32,34,36,38,40,42,44,46,48,50,52,54,56,58,60,62,64,66,68,70,72,74,76,78,80,82,84,86,88,90,92,94,96,98,-1,100,102,104,106,108,110,112,114,116,-1,-1,118,120,122,124,126,128,130,132,134,136,138,140,142,144,146,148,150,152,154,156,158,160,162,164,166,168,170,172,174,176,178,180,182,184,186,188,190,192,194,-1,196,198,200,202,204,206,208,210,212,214,216,218,220,222,224,226,228,230,-1,-1,-1,-1,-1,-1,-1,-1,-1,-1,-1,-1,-1,-1,-1,-1,-1,-1,-1,-1,-1,-1,-1,-1,-1,-1,-1,-1,-1,-1,-1,-1,-1,-1,-1,-1,-1,-1,-1,-1,-1,-1,-1,-1,-1,-1,-1,-1,-1,-1,-1,-1,-1,-1,-1,-1,-1,-1,-1,-1,-1,-1,-1,-1,-1,-1,-1,-1,-1,-1,-1,-1,-1,-1,-1,-1,-1,-1,-1,-1,-1,-1,-1,-1,-1,-1,-1,-1,-1,-1,-1,-1,-1,-1,-1,-1,-1,-1,-1,-1,-1,-1,-1,-1,-1,-1,-1,-1,-1,-1,-1,-1],"split_conditions":[1.6745359E-1,1.9217573E-1,2.2925404E-1,1.6555226E-1,5.2215606E-2,5.509448E-2,4.1031018E-1,2.5E-1,1.4584005E-1,4.149193E-2,2.5725582E-1,6.006579E-1,7.916667E-1,1.583331E-1,2.0523574E-2,3.0044869E-2,2.1031898E-2,1.0317018E-1,1.3365984E-1,2.400266E-1,4.4998875E-1,3.821813E-1,5.308562E-2,2.4801314E-1,5.630175E-2,2.586293E-1,1.6540074E-1,1.875617E-1,2.619285E-1,1.1735926E-1,4.3792585E-1,4.0196683E-2,3.305229E-1,3.6852986E-1,4.109407E-1,1.6540074E-1,2.7120054E-1,1.6556203E-1,3.1753132E-1,3.6193633E-1,1.9450228E-1,2.9596666E-1,4.0275374E-1,1.10653296E-1,4.4209506E-2,3.6199498E-1,2.4811578E-1,3.5010803E-2,5.30954E-2,3.6621964E-1,4.3266177E-2,1.884024E-1,4.9532246E-2,2.2972325E-2,3.2752183E-1,3.452203E-1,2.4560837E-2,2.3871668E-2,2.6012492E-1,-0E0,4.934607E-1,4.2542793E-2,2.0335884E-1,3.7471285E-1,4.9223828E-1,6.6212106E-1,1.952941E-1,1.8077753E-1,2.0494247E-2,4.3266177E-2,2.4062289E-2,5.801734E-3,1.6305952E-1,3.882714E-1,4.4942668E-1,2.4526624E-2,1.695211E-1,2.903311E-2,2.9166666E-1,2.427735E-2,1.7612442E-1,2.6569694E-2,1.2520406E-1,3.2646608E-1,3.1901717E-1,3.5836827E-2,4.0268043E-1,1.2581014E-2,2.7664056E-1,3.2977507E-2,2.0364723E-1,2.9487668E-2,1.19065076E-1,3.6310937E-2,3.5010803E-2,2.641915E-1,6.0524747E-2,3.1818625E-1,2.1061223E-2,2.4591142E-1,-2.4957066E-2,3.5619813E-1,9.166667E-1,6.9743E-2,3.2645142E-1,6.325699E-2,2.30823E-1,2.5329188E-1,2.1828597E-2,1.8433093E-1,2.0251817E-1,1.9486398E-1,2.0356902E-1,2.1119876E-1,2.8505234E-2,3.683881E-2,6.1898198E-2,2.75228E-2,2.544063E-2,4.8716572E-1,1.6253608E-1,-4.9120836E-2,-5.3314636E-3,-7.361758E-2,-0E0,-3.980295E-2,-0E0,-0E0,1.6957936E-1,-5.6147087E-2,-6.4623905E-3,3.051807E-1,-1.5869655E-2,-3.1181263E-2,-1.2548604E-2,2.1017812E-1,1.2028323E-2,1.7445186E-1,-2.065053E-2,-0E0,1.0054161E-1,-4.3564588E-2,6.77426E-3,-7.039006E-3,2.1291195E-1,-4.945753E-2,3.8906045E-2,-5.1552404E-2,8.177348E-3,-2.6295898E-2,5.1486507E-2,2.1882765E-2,2.1817963E-1,6.3206136E-2,-2.1071551E-2,2.4467492E-1,5.463013E-2,1.1997579E-2,-3.7663657E-2,1.5035401E-1,4.2619702E-1,-3.9305206E-2,7.5008E-2,2.507363E-3,1.15162544E-1,-3.5726245E-2,6.5280035E-2,3.0546902E-2,2.391846E-1,1.0984462E-1,-6.5687974E-3,4.6285138E-2,-1.7274162E-2,4.825559E-1,1.1683732E-1,-6.700725E-2,1.0688517E-1,1.4154482E-1,-1.0532833E-2,2.2565397E-2,2.432748E-1,1.17637254E-1,3.0947067E-2,3.177511E-1,1.0164834E-1,2.091597E-3,2.1179493E-1,-1.7528974E-2,-5.097848E-2,2.6920555E-2,2.338388E-1,2.1029405E-1,-5.743863E-3,4.8379004E-2,-0E0,1.17758205E-2,7.129059E-2,-3.7126545E-2,2.636618E-2,8.25353E-2,2.7805034E-4,9.884618E-2,-2.683529E-2,1.2982925E-3,1.8108371E-1,-3.8279854E-2,7.8426614E-2,4.114365E-2,1.0047929E-1,-0E0,1.9675858E-1,-1.558997E-2,3.3583745E-2,6.1453176E-3,1.4018522E-1,6.89581E-2,2.2416541E-1,5.796378E-2,-7.29205E-3,3.3951482E-1,-0E0,8.8351935E-2,2.6019054E-2,1.4243129E-2,1.0839775E-1,9.448727E-2,-0E0,-6.825541E-2,7.45771E-2,-7.6182615E-3,1.4221632E-1],"split_indices":[150,172,6,78,10,79,172,2,6,158,12,150,2,44,12,171,127,83,163,91,25,45,16,160,139,172,126,32,150,30,67,172,79,72,114,125,100,54,165,125,171,160,171,78,100,87,127,147,15,0,115,119,168,38,8,39,39,19,10,0,0,16,170,82,112,167,7,158,133,151,62,11,49,106,105,154,157,34,2,163,66,13,149,129,22,105,172,125,123,160,95,123,46,67,62,171,141,150,154,15,0,77,0,162,142,106,118,102,133,30,8,105,118,107,120,104,121,111,33,0,0,0,0,0,0,0,0,0,0,0,0,0,0,0,0,0,0,0,0,0,0,0,0,0,0,0,0,0,0,0,0,0,0,0,0,0,0,0,0,0,0,0,0,0,0,0,0,0,0,0,0,0,0,0,0,0,0,0,0,0,0,0,0,0,0,0,0,0,0,0,0,0,0,0,0,0,0,0,0,0,0,0,0,0,0,0,0,0,0,0,0,0,0,0,0,0,0,0,0,0,0,0,0,0,0,0,0,0,0,0,0],"split_type":[0,0,0,0,0,0,0,0,0,0,0,0,0,0,0,0,0,0,0,0,0,0,0,0,0,0,0,0,0,0,0,0,0,0,0,0,0,0,0,0,0,0,0,0,0,0,0,0,0,0,0,0,0,0,0,0,0,0,0,0,0,0,0,0,0,0,0,0,0,0,0,0,0,0,0,0,0,0,0,0,0,0,0,0,0,0,0,0,0,0,0,0,0,0,0,0,0,0,0,0,0,0,0,0,0,0,0,0,0,0,0,0,0,0,0,0,0,0,0,0,0,0,0,0,0,0,0,0,0,0,0,0,0,0,0,0,0,0,0,0,0,0,0,0,0,0,0,0,0,0,0,0,0,0,0,0,0,0,0,0,0,0,0,0,0,0,0,0,0,0,0,0,0,0,0,0,0,0,0,0,0,0,0,0,0,0,0,0,0,0,0,0,0,0,0,0,0,0,0,0,0,0,0,0,0,0,0,0,0,0,0,0,0,0,0,0,0,0,0,0,0,0,0,0,0,0,0,0,0,0,0],"sum_hessian":[2.1472E4,1.3477E4,7.995E3,1.0407E4,3.07E3,4.982E3,3.013E3,8.223E3,2.184E3,1.473E3,1.597E3,1.383E3,3.599E3,2.707E3,3.06E2,4.018E3,4.205E3,1.25E3,9.34E2,2.96E2,1.177E3,1.115E3,4.82E2,1.364E3,1.9E1,2.754E3,8.45E2,1.23E3,1.477E3,8E0,2.98E2,1.414E3,2.604E3,8.75E2,3.33E3,5.74E2,6.76E2,5.06E2,4.28E2,2.59E2,3.7E1,1.08E3,9.7E1,1.048E3,6.7E1,1.75E2,3.07E2,1.086E3,2.78E2,6E0,1.3E1,2.24E3,5.14E2,2.85E2,5.6E2,7.2E2,5.1E2,5.56E2,9.21E2,2E0,6E0,2.84E2,1.4E1,1.291E3,1.23E2,2.599E3,5E0,8.65E2,1E1,3.25E3,8E1,3.87E2,1.87E2,6.04E2,7.2E1,2.22E2,2.84E2,3.68E2,6E1,2.24E2,3.5E1,1.1E1,2.6E1,9.22E2,1.58E2,6.2E1,3.5E1,4.89E2,5.59E2,1.7E1,5E1,1.64E2,1.1E1,2.58E2,4.9E1,1.76E2,9.1E2,6.5E1,2.13E2,8E0,5E0,1.721E3,5.19E2,2.61E2,2.53E2,7E1,2.15E2,5E2,6E1,6.31E2,8.9E1,5.5E1,4.55E2,1.2E1,5.44E2,7.51E2,1.7E2,5.9E1,2.25E2,4E0,1E1,1.248E3,4.3E1,1.22E2,1E0,2.563E3,3.6E1,3E0,2E0,7.73E2,9.2E1,3E0,7E0,1.469E3,1.781E3,1.1E1,6.9E1,4E0,3.83E2,1.4E2,4.7E1,5.52E2,5.2E1,6.7E1,5E0,4E1,1.82E2,1.94E2,9E1,6.8E1,3E2,2.7E1,3.3E1,4.4E1,1.8E2,1.4E1,2.1E1,4E0,7E0,1.8E1,8E0,8.88E2,3.4E1,1.44E2,1.4E1,3.9E1,2.3E1,1.6E1,1.9E1,1.5E1,4.74E2,4.39E2,1.2E2,4E0,1.3E1,1.9E1,3.1E1,1.2E1,1.52E2,5E0,6E0,1.1E2,1.48E2,1.3E1,3.6E1,1.71E2,5E0,4.56E2,4.54E2,4.8E1,1.7E1,6E0,2.07E2,7E0,1E0,1.596E3,1.25E2,3.98E2,1.21E2,3.6E1,2.25E2,2.24E2,2.9E1,3.6E1,3.4E1,1.79E2,3.6E1,2.42E2,2.58E2,1.1E1,4.9E1,3.58E2,2.73E2,4.4E1,4.5E1,2.9E1,2.6E1,3.69E2,8.6E1,8E0,4E0,1.32E2,4.12E2,6.7E1,6.84E2,7.2E1,9.8E1,1.5E1,4.4E1,2.1E1,2.04E2],"tree_param":{"num_deleted":"0","num_feature":"174","num_nodes":"231","size_leaf_vector":"1"}},{"base_weights":[2.9090797E-3,-8.877221E-2,1.3632172E-1,-1.0981656E-1,-1.2752963E-2,6.297261E-2,2.3210111E-1,-1.391504E-1,-8.10877E-2,-7.760335E-2,4.462374E-2,1.4859138E-1,2.9661138E-2,1.904794E-1,3.6115122E-1,-1.6295646E-1,-1.2295245E-1,-8.4920764E-2,3.437902E-1,-5.0199915E-2,-1.8366787E-1,1.3470574E-2,2.0087305E-1,9.861026E-2,3.1567892E-1,2.2549403E-3,1.1756606E-1,1.7168318E-1,4.888393E-1,5.3702086E-1,2.7904952E-1,-1.636648E-1,-0E0,-7.15076E-2,-1.4024499E-1,-6.4646915E-2,-1.2941319E-1,1.208402E0,1.7895631E-2,-7.908513E-2,7.340173E-2,4.630544E-1,-2.0169401E-1,1.629821E-1,-2.299898E-2,3.0011752E-1,-1.16629E-1,2.3830116E-2,1.7564912E-1,1.3657822E-1,3.9773464E-1,-2.8751252E-2,6.744315E-2,9.678148E-2,5.2945197E-1,1.4578725E-1,3.1373826E-1,2.4207212E-1,7.592316E-1,1.4640075E-1,6.254958E-1,1.5125282E-1,3.9273167E-1,-1.6446458E-1,-0E0,-0E0,5.2602466E-2,-9.9976026E-2,-0E0,2.5202546E-1,-1.4203796E-1,-9.403E-2,-1.582164E-2,-1.3694522E-1,8.038276E-2,-0E0,3.85593E-1,-1.1086799E-1,6.405702E-1,-1.3986473E-1,-3.4967497E-2,-1.798974E-2,2.3153932E-1,-0E0,1.9719544E-1,-1.2396937E-1,-3.4252536E-1,1.2509559E-1,1.0383418E0,8.9795545E-2,-8.623814E-2,-7.42879E-2,3.8898197E-1,-2.340723E-1,2.11578E-1,-3.4541324E-2,1.5542236E-1,-1.2203185E-1,2.0613046E-1,3.294912E-1,-3.259291E-3,-0E0,4.5182663E-1,-4.3511238E-2,1.17668904E-1,2.22492E-1,1.7763572E-2,1.8038431E-1,1.7783226E-2,8.65539E-1,-0E0,1.2104169E-1,3.1316125E-1,4.8449668E-1,2.1773753E-1,5.638556E-1,1.0685273E-2,-4.535047E-2,8.5319483E-1,2.94374E-3,6.5118456E-1,4.7228032E-1,8.9753646E-1,4.0662152E-1,6.967065E-2,4.1467547E-1,-4.2435467E-1,-3.989824E-2,-4.9662217E-2,3.0558456E-2,-4.0690387E-3,-2.9170243E-2,2.7361281E-2,3.1376228E-2,-1.8407986E-2,-0E0,1.4289564E-1,-4.1420307E-2,-3.1995296E-2,-2.2009916E-3,-2.7776783E-2,1.04408795E-2,-2.3643369E-2,-7.395028E-2,-3.2842565E-2,1.610385E-1,-8.083149E-3,-6.3599154E-2,3.246123E-2,2.0372508E-1,-0E0,3.2161057E-2,-3.8753007E-2,4.8063982E-2,-1.5881604E-2,-1.9677E-2,6.758064E-2,1.347183E-1,-4.1292966E-3,1.7431045E-2,-4.9447067E-2,-2.2249024E-2,-1.0541874E-1,6.657043E-2,-8.356493E-3,3.7619156E-1,-0E0,-5.2427765E-2,3.47579E-2,-5.6671735E-2,-8.9542875E-3,-7.644196E-2,8.580928E-2,6.7382306E-2,2.0342709E-1,3.296393E-2,-7.7326864E-2,-3.7584938E-2,1.468304E-1,1.0605836E-1,-1.6419731E-2,2.995237E-2,2.231005E-1,7.904045E-3,-9.5345505E-2,5.847911E-2,-6.0141645E-2,-0E0,1.4507268E-1,-5.1146094E-2,1.8968508E-2,4.1462943E-2,-6.454084E-2,1.4707534E-1,4.9949452E-2,-7.844926E-3,-5.628419E-2,-0E0,9.56706E-2,8.474738E-2,-8.9226905E-3,-3.8485058E-2,1.3629283E-2,8.924369E-2,2.4967521E-2,-1.5863037E-2,4.591165E-2,3.350409E-1,-0E0,-6.928321E-2,8.482638E-2,6.334631E-2,2.4704218E-2,6.8111405E-2,2.8965074E-1,5.2596048E-2,1.8343906E-1,7.3298626E-2,-2.4308054E-2,2.1651931E-1,-1.0710367E-2,-3.4744754E-2,1.4467874E-1,-0E0,-5.080114E-2,2.543549E-1,2.3933893E-2,8.348621E-2,-4.703681E-2,2.0242594E-1,-0E0,1.5723397E-1,-0E0,2.5367248E-1,-0E0,1.6991455E-2,1.524487E-1,-0E0,1.373877E-1,4.546408E-2,1.301653E-1,-1.8079787E-1,-0E0],"categories":[],"categories_nodes":[],"categories_segments":[],"categories_sizes":[],"default_left":[0,0,0,0,0,0,0,0,0,0,0,0,0,0,0,0,0,0,0,0,0,0,0,0,0,0,0,0,0,0,0,0,0,0,0,0,0,0,0,0,0,0,0,0,0,0,0,0,0,0,0,0,0,0,0,0,0,0,0,0,0,0,0,0,0,0,0,0,0,0,0,0,0,0,0,0,0,0,0,0,0,0,0,0,0,0,0,0,0,0,0,0,0,0,0,0,0,0,0,0,0,0,0,0,0,0,0,0,0,0,0,0,0,0,0,0,0,0,0,0,0,0,0,0,0,0,0,0,0,0,0,0,0,0,0,0,0,0,0,0,0,0,0,0,0,0,0,0,0,0,0,0,0,0,0,0,0,0,0,0,0,0,0,0,0,0,0,0,0,0,0,0,0,0,0,0,0,0,0,0,0,0,0,0,0,0,0,0,0,0,0,0,0,0,0,0,0,0,0,0,0,0,0,0,0,0,0,0,0,0,0,0,0,0,0,0,0,0,0,0,0,0,0,0,0,0,0,0,0,0,0,0,0,0,0,0,0,0,0,0,0,0,0],"id":6,"left_children":[1,3,5,7,9,11,13,15,17,19,21,23,25,27,29,31,33,35,37,39,41,43,45,47,49,51,53,55,57,59,61,63,65,67,69,71,73,75,77,79,81,83,85,87,89,91,93,95,97,99,101,103,105,107,109,111,113,115,117,119,121,123,125,127,129,-1,-1,131,133,135,137,139,141,143,145,-1,-1,147,149,151,153,155,157,-1,-1,159,161,163,165,167,169,171,173,175,177,179,181,183,185,187,189,191,193,195,197,199,201,203,205,207,209,211,213,215,217,219,221,223,225,227,229,231,233,235,237,239,241,-1,-1,-1,-1,-1,-1,-1,-1,-1,-1,-1,-1,-1,-1,-1,-1,-1,-1,-1,-1,-1,-1,-1,-1,-1,-1,-1,-1,-1,-1,-1,-1,-1,-1,-1,-1,-1,-1,-1,-1,-1,-1,-1,-1,-1,-1,-1,-1,-1,-1,-1,-1,-1,-1,-1,-1,-1,-1,-1,-1,-1,-1,-1,-1,-1,-1,-1,-1,-1,-1,-1,-1,-1,-1,-1,-1,-1,-1,-1,-1,-1,-1,-1,-1,-1,-1,-1,-1,-1,-1,-1,-1,-1,-1,-1,-1,-1,-1,-1,-1,-1,-1,-1,-1,-1,-1,-1,-1,-1,-1,-1,-1,-1,-1,-1,-1],"loss_changes":[2.6136746E2,2.0139847E1,6.0882355E1,8.137718E0,1.0284227E1,1.391592E1,1.9684494E1,1.6059647E0,7.974968E0,3.561697E0,6.8868313E0,1.1078945E1,8.47566E0,1.53493805E1,1.2298668E1,3.7125015E-1,2.4086227E0,4.309101E0,1.0990917E1,3.7311301E0,2.889227E0,6.776476E0,7.668088E0,5.945963E0,4.050022E0,5.544636E0,6.5677223E0,9.4472885E0,9.991219E0,9.097908E0,8.574726E0,2.9508972E-1,8.186448E-2,1.5970442E0,1.4707642E0,4.830496E0,2.5017262E0,3.7323418E0,3.1936193E0,2.119676E0,2.9712257E0,1.014433E0,2.3289385E0,6.9151115E0,6.96638E0,6.400774E0,2.1897836E0,4.3157935E0,4.8010283E0,3.073259E0,4.3426094E0,3.9105887E0,6.6198688E0,5.1152306E0,6.578492E0,9.035236E0,5.967205E0,6.177969E0,6.587036E0,3.464595E0,7.9715424E0,5.813901E0,6.048294E0,2.2792053E-1,4.315618E-2,0E0,0E0,1.384448E0,1.8262434E0,1.0021586E0,4.388771E-1,2.2332325E0,5.5324364E0,1.9375992E0,3.5528595E0,0E0,0E0,9.8952776E-1,8.1146836E-1,8.8614464E-1,2.787597E0,1.761804E0,5.7078238E0,0E0,0E0,2.273601E0,9.140272E-1,5.0687866E0,2.8575754E0,4.391462E0,4.070911E0,3.0850945E0,6.5210285E0,1.174088E0,2.0948138E0,4.462743E0,3.9144354E0,2.029507E0,3.9339676E0,3.1006846E0,9.8090506E-1,1.0739698E0,4.649788E0,3.6381876E0,4.9191694E0,5.8798075E0,3.8171697E0,4.8471518E0,5.3575816E0,7.67745E0,1.4906151E0,6.043829E0,1.0318897E1,7.96027E0,5.5292215E0,6.6040783E0,4.7869864E0,2.1260785E-1,5.611595E0,2.8750143E0,7.9096603E-1,9.251289E0,5.9962845E0,3.668458E0,7.5297427E0,5.921749E0,1.4606751E0,0E0,0E0,0E0,0E0,0E0,0E0,0E0,0E0,0E0,0E0,0E0,0E0,0E0,0E0,0E0,0E0,0E0,0E0,0E0,0E0,0E0,0E0,0E0,0E0,0E0,0E0,0E0,0E0,0E0,0E0,0E0,0E0,0E0,0E0,0E0,0E0,0E0,0E0,0E0,0E0,0E0,0E0,0E0,0E0,0E0,0E0,0E0,0E0,0E0,0E0,0E0,0E0,0E0,0E0,0E0,0E0,0E0,0E0,0E0,0E0,0E0,0E0,0E0,0E0,0E0,0E0,0E0,0E0,0E0,0E0,0E0,0E0,0E0,0E0,0E0,0E0,0E0,0E0,0E0,0E0,0E0,0E0,0E0,0E0,0E0,0E0,0E0,0E0,0E0,0E0,0E0,0E0,0E0,0E0,0E0,0E0,0E0,0E0,0E0,0E0,0E0,0E0,0E0,0E0,0E0,0E0,0E0,0E0,0E0,0E0,0E0,0E0,0E0,0E0,0E0,0E0],"parents":[2147483647,0,0,1,1,2,2,3,3,4,4,5,5,6,6,7,7,8,8,9,9,10,10,11,11,12,12,13,13,14,14,15,15,16,16,17,17,18,18,19,19,20,20,21,21,22,22,23,23,24,24,25,25,26,26,27,27,28,28,29,29,30,30,31,31,32,32,33,33,34,34,35,35,36,36,37,37,38,38,39,39,40,40,41,41,42,42,43,43,44,44,45,45,46,46,47,47,48,48,49,49,50,50,51,51,52,52,53,53,54,54,55,55,56,56,57,57,58,58,59,59,60,60,61,61,62,62,63,63,64,64,67,67,68,68,69,69,70,70,71,71,72,72,73,73,74,74,77,77,78,78,79,79,80,80,81,81,82,82,85,85,86,86,87,87,88,88,89,89,90,90,91,91,92,92,93,93,94,94,95,95,96,96,97,97,98,98,99,99,100,100,101,101,102,102,103,103,104,104,105,105,106,106,107,107,108,108,109,109,110,110,111,111,112,112,113,113,114,114,115,115,116,116,117,117,118,118,119,119,120,120,121,121,122,122,123,123,124,124,125,125,126,126],"right_children":[2,4,6,8,10,12,14,16,18,20,22,24,26,28,30,32,34,36,38,40,42,44,46,48,50,52,54,56,58,60,62,64,66,68,70,72,74,76,78,80,82,84,86,88,90,92,94,96,98,100,102,104,106,108,110,112,114,116,118,120,122,124,126,128,130,-1,-1,132,134,136,138,140,142,144,146,-1,-1,148,150,152,154,156,158,-1,-1,160,162,164,166,168,170,172,174,176,178,180,182,184,186,188,190,192,194,196,198,200,202,204,206,208,210,212,214,216,218,220,222,224,226,228,230,232,234,236,238,240,242,-1,-1,-1,-1,-1,-1,-1,-1,-1,-1,-1,-1,-1,-1,-1,-1,-1,-1,-1,-1,-1,-1,-1,-1,-1,-1,-1,-1,-1,-1,-1,-1,-1,-1,-1,-1,-1,-1,-1,-1,-1,-1,-1,-1,-1,-1,-1,-1,-1,-1,-1,-1,-1,-1,-1,-1,-1,-1,-1,-1,-1,-1,-1,-1,-1,-1,-1,-1,-1,-1,-1,-1,-1,-1,-1,-1,-1,-1,-1,-1,-1,-1,-1,-1,-1,-1,-1,-1,-1,-1,-1,-1,-1,-1,-1,-1,-1,-1,-1,-1,-1,-1,-1,-1,-1,-1,-1,-1,-1,-1,-1,-1,-1,-1,-1,-1],"split_conditions":[1.4458391E-1,1.952941E-1,2.5860485E-1,3.1882655E-2,1.6747802E-1,1.5237495E-1,4.269089E-1,3.036746E-2,5.1072365E-1,2.1291436E-1,1.10438235E-1,2.7685073E-1,2.4276371E-1,3.8196135E-1,-7.0710677E-1,5.999492E-1,3.769905E-2,1.6728252E-1,2.802135E-2,2.7721244E-1,1.2033588E-2,2.6100472E-2,1.9459026E-1,1.4172947E-1,1.8292326E-1,2.124598E-1,5.116035E-1,3.6852986E-1,1.8984428E-1,2.382279E-2,1.0358564E-1,6.005797E-1,7.5E-1,8.5246876E-2,4.6580057E-3,8.704068E-2,2.7181637E-1,5.7782732E-2,2.114236E-1,3.1002864E-2,2.0032357E-1,2.3172723E-2,9.024703E-2,3.9597446E-1,3.383286E-2,2.5181578E-2,2.2617966E-1,1.4142643E-1,2.337312E-2,4.2464588E-2,2.3871668E-2,4.0386814E-1,3.504013E-2,1.0317507E-1,3.3093834E-1,3.2652962E-1,1.066649E-1,2.2620898E-1,2.5616586E-2,3.2759026E-1,8.333333E-1,9.786211E-2,5.107921E-1,3.958083E-2,2.5215793E-2,-0E0,5.2602466E-2,3.883985E-1,4.4209506E-2,1.0122486E-2,1.655376E-1,2.1589098E-2,1.0857112E-1,1.8402299E-2,2.5626363E-2,-0E0,3.85593E-1,1.9632052E-1,4.1935483E-1,1.0122486E-2,2.1569548E-2,1.3390422E-1,1.4784402E-1,-0E0,1.9719544E-1,3.548387E-1,5.307096E-2,1.4555168E-1,2.8505725E-1,6.324721E-2,5.7797395E-2,2.0906283E-1,1.748194E-1,2.4272462E-2,3.196086E-2,1.1442173E-2,3.7521628E-1,6.1290324E-1,3.8820785E-1,2.8510122E-2,2.9243281E-2,2.7527688E-2,2.7725643E-1,4.109407E-1,2.1569547E-1,2.3550056E-1,2.4526624E-2,3.5436034E-2,3.0879694E-1,2.7120054E-1,3.4560642E-1,2.5831647E-2,4.109407E-1,6.989941E-2,3.182449E-1,1.9111508E-1,3.1811294E-1,1.8205813E-1,4.4959286E-1,8.337977E-2,5.603439E-1,3.3333334E-1,4.925022E-1,7.3154636E-2,4.2860004E-1,8.498783E-2,8.660254E-1,-3.989824E-2,-4.9662217E-2,3.0558456E-2,-4.0690387E-3,-2.9170243E-2,2.7361281E-2,3.1376228E-2,-1.8407986E-2,-0E0,1.4289564E-1,-4.1420307E-2,-3.1995296E-2,-2.2009916E-3,-2.7776783E-2,1.04408795E-2,-2.3643369E-2,-7.395028E-2,-3.2842565E-2,1.610385E-1,-8.083149E-3,-6.3599154E-2,3.246123E-2,2.0372508E-1,-0E0,3.2161057E-2,-3.8753007E-2,4.8063982E-2,-1.5881604E-2,-1.9677E-2,6.758064E-2,1.347183E-1,-4.1292966E-3,1.7431045E-2,-4.9447067E-2,-2.2249024E-2,-1.0541874E-1,6.657043E-2,-8.356493E-3,3.7619156E-1,-0E0,-5.2427765E-2,3.47579E-2,-5.6671735E-2,-8.9542875E-3,-7.644196E-2,8.580928E-2,6.7382306E-2,2.0342709E-1,3.296393E-2,-7.7326864E-2,-3.7584938E-2,1.468304E-1,1.0605836E-1,-1.6419731E-2,2.995237E-2,2.231005E-1,7.904045E-3,-9.5345505E-2,5.847911E-2,-6.0141645E-2,-0E0,1.4507268E-1,-5.1146094E-2,1.8968508E-2,4.1462943E-2,-6.454084E-2,1.4707534E-1,4.9949452E-2,-7.844926E-3,-5.628419E-2,-0E0,9.56706E-2,8.474738E-2,-8.9226905E-3,-3.8485058E-2,1.3629283E-2,8.924369E-2,2.4967521E-2,-1.5863037E-2,4.591165E-2,3.350409E-1,-0E0,-6.928321E-2,8.482638E-2,6.334631E-2,2.4704218E-2,6.8111405E-2,2.8965074E-1,5.2596048E-2,1.8343906E-1,7.3298626E-2,-2.4308054E-2,2.1651931E-1,-1.0710367E-2,-3.4744754E-2,1.4467874E-1,-0E0,-5.080114E-2,2.543549E-1,2.3933893E-2,8.348621E-2,-4.703681E-2,2.0242594E-1,-0E0,1.5723397E-1,-0E0,2.5367248E-1,-0E0,1.6991455E-2,1.524487E-1,-0E0,1.373877E-1,4.546408E-2,1.301653E-1,-1.8079787E-1,-0E0],"split_indices":[173,7,173,173,127,172,173,164,103,65,173,102,103,72,4,29,168,171,62,31,92,14,169,127,79,173,6,150,103,159,8,155,0,125,48,30,8,97,34,173,132,15,171,76,122,108,147,165,165,49,35,15,41,157,30,109,171,75,147,9,0,51,23,149,27,0,0,138,90,6,109,41,156,143,162,0,0,95,1,12,145,127,70,0,0,1,42,23,9,104,59,140,28,82,15,93,28,1,119,97,132,61,29,123,8,147,155,83,159,83,29,86,152,143,116,117,141,32,150,33,9,0,54,136,50,161,5,0,0,0,0,0,0,0,0,0,0,0,0,0,0,0,0,0,0,0,0,0,0,0,0,0,0,0,0,0,0,0,0,0,0,0,0,0,0,0,0,0,0,0,0,0,0,0,0,0,0,0,0,0,0,0,0,0,0,0,0,0,0,0,0,0,0,0,0,0,0,0,0,0,0,0,0,0,0,0,0,0,0,0,0,0,0,0,0,0,0,0,0,0,0,0,0,0,0,0,0,0,0,0,0,0,0,0,0,0,0,0,0,0,0,0,0],"split_type":[0,0,0,0,0,0,0,0,0,0,0,0,0,0,0,0,0,0,0,0,0,0,0,0,0,0,0,0,0,0,0,0,0,0,0,0,0,0,0,0,0,0,0,0,0,0,0,0,0,0,0,0,0,0,0,0,0,0,0,0,0,0,0,0,0,0,0,0,0,0,0,0,0,0,0,0,0,0,0,0,0,0,0,0,0,0,0,0,0,0,0,0,0,0,0,0,0,0,0,0,0,0,0,0,0,0,0,0,0,0,0,0,0,0,0,0,0,0,0,0,0,0,0,0,0,0,0,0,0,0,0,0,0,0,0,0,0,0,0,0,0,0,0,0,0,0,0,0,0,0,0,0,0,0,0,0,0,0,0,0,0,0,0,0,0,0,0,0,0,0,0,0,0,0,0,0,0,0,0,0,0,0,0,0,0,0,0,0,0,0,0,0,0,0,0,0,0,0,0,0,0,0,0,0,0,0,0,0,0,0,0,0,0,0,0,0,0,0,0,0,0,0,0,0,0,0,0,0,0,0,0,0,0,0,0,0,0,0,0,0,0,0,0],"sum_hessian":[2.1363E4,1.2658E4,8.705E3,9.904E3,2.754E3,4.936E3,3.769E3,4.883E3,5.021E3,1.3E3,1.454E3,1.374E3,3.562E3,2.857E3,9.12E2,1.951E3,2.932E3,4.979E3,4.2E1,1.041E3,2.59E2,1.218E3,2.36E2,1.063E3,3.11E2,2.724E3,8.38E2,2.692E3,1.65E2,2.85E2,6.27E2,1.948E3,3E0,7.52E2,2.18E3,3.436E3,1.543E3,1E1,3.2E1,8.5E2,1.91E2,5E0,2.54E2,2.43E2,9.75E2,1.82E2,5.4E1,5.46E2,5.17E2,1.02E2,2.09E2,1.837E3,8.87E2,8.01E2,3.7E1,2.284E3,4.08E2,8.9E1,7.6E1,5.5E1,2.3E2,3E2,3.27E2,1.94E3,8E0,2E0,1E0,5.44E2,2.08E2,7E0,2.173E3,2.133E3,1.303E3,1.494E3,4.9E1,2E0,8E0,2.6E1,6E0,3.48E2,5.02E2,1.18E2,7.3E1,2E0,3E0,1.69E2,8.5E1,2.35E2,8E0,3.45E2,6.3E2,3.3E1,1.49E2,4.2E1,1.2E1,3.74E2,1.72E2,4.5E1,4.72E2,4.5E1,5.7E1,2.6E1,1.83E2,1.675E3,1.62E2,2.1E2,6.77E2,3.83E2,4.18E2,2.2E1,1.5E1,1.996E3,2.88E2,1.42E2,2.66E2,3.5E1,5.4E1,7E0,6.9E1,4.5E1,1E1,1.51E2,7.9E1,6.9E1,2.31E2,3.2E2,7E0,1.4E3,5.4E2,2E0,6E0,5.18E2,2.6E1,8E1,1.28E2,3E0,4E0,1.109E3,1.064E3,2.87E2,1.846E3,7.4E2,5.63E2,9.3E1,1.401E3,9E0,4E1,1.9E1,7E0,5E0,1E0,8E0,3.4E2,4.9E1,4.53E2,1.01E2,1.7E1,3.5E1,3.8E1,4E1,1.29E2,2E1,6.5E1,1.31E2,1.04E2,5E0,3E0,4.2E1,3.03E2,1.72E2,4.58E2,2.3E1,1E1,1.15E2,3.4E1,4E0,3.8E1,5E0,7E0,2E1,3.54E2,1.65E2,7E0,2.6E1,1.9E1,4.55E2,1.7E1,2E1,2.5E1,1.9E1,3.8E1,1.7E1,9E0,1.24E2,5.9E1,1.561E3,1.14E2,1.1E2,5.2E1,1.52E2,5.8E1,1.12E2,5.65E2,1.26E2,2.57E2,2.76E2,1.42E2,1.4E1,8E0,8E0,7E0,3.42E2,1.654E3,2.73E2,1.5E1,6.5E1,7.7E1,2.23E2,4.3E1,2.5E1,1E1,4.2E1,1.2E1,2E0,5E0,5.8E1,1.1E1,1.8E1,2.7E1,8E0,2E0,1.17E2,3.4E1,7.3E1,6E0,2.6E1,4.3E1,2.01E2,3E1,8.8E1,2.32E2,5E0,2E0],"tree_param":{"num_deleted":"0","num_feature":"174","num_nodes":"243","size_leaf_vector":"1"}},{"base_weights":[2.6110285E-3,-5.4022677E-2,1.23077E-1,-8.392863E-2,-2.6534628E-3,8.879847E-2,2.2848967E-1,-6.0356203E-2,-1.0785462E-1,3.7385542E-2,-6.0438722E-2,6.521573E-2,1.9001453E-1,2.1682948E-1,6.780537E-1,-9.724472E-2,-1.4023055E-2,-1.12288535E-1,-0E0,4.0954286E-3,1.8479589E-1,-6.551622E-2,3.1955576E-1,4.89483E-2,2.1083124E-1,3.4534258E-1,1.8183336E-1,1.6587853E-1,3.1026158E-1,3.057377E-1,1.2833735E0,-9.8623246E-2,2.1362184E-1,4.577024E-2,-6.929983E-2,-1.0796997E-1,-2.0003107E-1,-4.410504E-2,5.171511E-1,-8.7734684E-2,4.2516753E-2,2.2776164E-1,-3.822663E-2,-1.20663874E-1,-3.450269E-2,9.139551E-1,-1.5689407E-1,2.9090574E-1,3.9987173E-2,2.8656963E-1,-9.099128E-3,1.2520613E-1,2.9382667E-1,1.9053705E-1,-1.5146945E-1,4.0353647E-1,6.67248E-2,-6.771427E-2,5.13913E-1,4.3711987E-1,3.2269257E-1,-1.007778E-1,3.3229724E-1,7.929157E-2,-1.0690917E-1,-1.0877531E-1,-2.2919657E-2,-1.10106036E-1,